w_t _bias_ip1[128] = {
-0.013201606
,0.041743871
,-0.0066739805
,0.039946366
,-0.012591583
,-0.020989269
,0.040045571
,-0.0046855537
,0.00075159076
,-0.0018875533
,0.062421404
,-0.0062019648
,-0.010408049
,0.080011666
,-0.0097895293
,0.00074333773
,-0.0063288114
,0.063461885
,-0.0050741439
,0.0067643169
,0.051640093
,-0.086959325
,-0.0030138351
,0.0066003925
,0.027898205
,-0.01033567
,0.010307944
,-0.0022070596
,-0.021024454
,-0.011776657
,0.015274546
,-0.026742322
,-0.044373967
,0.0027688602
,-0.072684817
,-0.0029401882
,-0.0015083433
,-0.015592482
,0.055357404
,-0.0087690428
,-0.00499505
,0.061854884
,-0.0027044683
,-0.021278676
,0.055812187
,-0.010867449
,0.034719031
,-0.0092983842
,-0.039716724
,0.0025385476
,-0.023567656
,-0.010813665
,-0.0038812088
,-0.0051999683
,-0.019446841
,0.088683188
,0.0053175869
,-0.014795423
,-0.014247271
,-0.030766133
,-0.0032692794
,0.069915056
,0.067801818
,-0.071811549
,-0.052528385
,0.012645344
,-0.011035791
,0.016525745
,-0.025551649
,-0.0031546024
,-0.0097908825
,0.075862527
,0.0679926
,0.014946953
,-0.011176096
,0.066651262
,-0.0030125265
,-0.036285561
,-0.015543895
,0.029009189
,0.055214312
,0.052014071
,-0.00043787947
,-0.030165588
,-0.027072784
,0.14015076
,0.0025706924
,-0.0053023854
,-0.006637251
,0.004826305
,-0.0057794694
,-0.012293353
,-0.00078408007
,-0.0048215543
,0.0079010939
,-0.018877173
,0.076985992
,0.021087628
,-0.0038554019
,-0.010842142
,-0.020585105
,-0.0057483036
,-0.015782269
,-0.0099063711
,-0.065419987
,-0.00521025
,0.011729673
,0.037103843
,-0.02331749
,0.062365144
,-0.019126559
,-0.038196459
,-0.0088208988
,-0.0024428426
,-0.0032171472
,-0.0016385777
,0.0059827957
,-0.042105529
,0.10192481
,-0.0064663454
,0.0074350894
,0.055279795
,-0.0092907362
,-0.021838157
,-0.0061362404
,0.036878426
,0.083102107
,-0.049398113
}
