w_t _weights_conv2[25000] = {
0.1219995
,-0.06116059
,-0.0671397
,0.070180461
,0.0077562383
,-0.065398186
,-0.027845055
,0.013722855
,0.089987136
,0.01058982
,0.049224809
,-0.0058125076
,0.15044852
,-0.046855733
,-0.019264694
,0.099843845
,0.051139478
,0.080629878
,-0.065251164
,0.075922005
,0.11342562
,0.0021594344
,-0.0028944509
,0.078381367
,-0.048444156
,0.048083548
,-0.037444919
,0.035066236
,0.027801046
,-0.036397595
,-0.067396618
,-0.050468102
,0.036318097
,0.020111453
,-0.054949258
,-0.062461905
,0.09375754
,-0.13208912
,0.040937763
,0.084984571
,0.093920454
,-0.028370444
,-0.033683959
,0.07806731
,-0.087720945
,0.040354386
,0.058914285
,0.15330969
,0.0042990227
,-0.023295084
,-0.11842389
,0.18688023
,0.05401665
,-0.015642431
,-0.02061997
,0.044912819
,-0.061921306
,0.057748355
,-0.016120614
,0.20631453
,-0.018994113
,-0.015601838
,0.10969394
,0.023996366
,0.19965948
,-0.15310454
,0.10142311
,0.13036557
,0.055867158
,0.12904537
,0.032009158
,0.020597059
,-0.053780314
,-0.071757562
,-0.11477309
,0.0083066784
,-0.058815733
,-0.043196421
,0.023489311
,-0.011473046
,0.003695918
,0.041714765
,0.069538459
,0.0028244727
,-0.03038
,0.086839154
,-0.0012526563
,-0.020947723
,0.073804967
,0.10619045
,0.12452117
,0.066786572
,-0.044057876
,0.014161604
,0.049309675
,0.084751025
,0.12955081
,0.061788972
,0.0093924142
,-0.023222532
,0.04388696
,0.094731845
,0.0038289954
,-0.007704332
,0.0096145784
,0.12793413
,0.0069400147
,0.12965655
,0.050693508
,0.23125461
,-0.026012279
,-0.058632597
,0.034474
,-0.016011344
,0.13810807
,-0.11805023
,0.086045131
,0.043168
,0.115352
,0.12530738
,0.060271636
,0.011887665
,-0.0033177233
,-0.1260291
,-0.25306505
,0.12535019
,-0.12542032
,-0.031533487
,0.030752126
,-0.025322022
,-0.030521331
,-0.0032750517
,0.025231877
,0.052987494
,0.09448944
,0.05904673
,0.074578978
,-0.15278484
,-0.057994563
,0.21496174
,0.016416116
,0.035055075
,0.064369239
,-0.022229476
,0.30523574
,0.079025194
,-0.033279605
,-0.010895803
,-0.12459426
,0.0030945779
,0.12228525
,0.09114106
,-0.18541358
,-0.050413217
,-0.094050027
,-0.043643638
,0.054772705
,-0.015047221
,-0.0084490729
,0.17387867
,-0.12185526
,-0.019275641
,0.069156095
,0.078295149
,0.0024432142
,0.071745753
,0.01977489
,0.019760001
,0.039032407
,0.1210897
,0.078465506
,-0.069287553
,-0.014356712
,-0.17073244
,-0.25166085
,0.14165471
,-0.0838623
,-0.016000532
,0.062293548
,0.035647146
,0.12540635
,0.091800466
,0.0080345068
,0.084097274
,0.3475019
,0.0037372049
,0.01611235
,0.12387888
,-0.047147281
,0.44173169
,0.12776341
,-0.13629276
,0.15320784
,-0.077500887
,-0.021616992
,0.215805
,-0.023689911
,0.019941168
,-0.019510344
,-0.20086819
,0.0837407
,-0.10302448
,0.0091396878
,0.1345991
,0.086973809
,0.047070235
,0.014076926
,0.11531541
,0.0050009773
,0.25519389
,0.006071466
,0.028930623
,-0.070881687
,0.012218555
,0.23590899
,-0.019280341
,0.11653774
,0.01546601
,0.049458344
,0.054768879
,0.12119994
,-0.059888478
,0.052949477
,-0.19866522
,-0.28299242
,-0.067272961
,0.11794657
,-0.16559492
,-0.04452071
,0.0038067289
,0.00072554417
,-0.059593547
,-0.014845531
,0.02388842
,0.14003806
,-0.025671236
,0.0014570878
,-0.011382008
,0.015325929
,0.19156574
,-0.14851658
,0.01992427
,0.020198273
,-0.025389563
,0.088648476
,-0.026423968
,0.078946382
,-0.018374037
,-0.024770342
,0.12176619
,0.092286378
,-0.16573656
,-0.019226443
,0.0021268977
,0.0807722
,-0.017807892
,0.036573011
,-0.097297177
,0.0053816536
,0.27847117
,0.054741763
,0.1124482
,-0.0050029354
,-0.050607018
,0.44512033
,0.024212241
,0.014480744
,0.018237345
,-0.15015082
,0.082344495
,0.095908478
,0.13529302
,0.0099719446
,-0.05440839
,0.10582271
,0.077226274
,-0.029107032
,-0.12246234
,0.10544521
,-0.041965239
,0.024110369
,-0.17582847
,0.063753352
,-0.098147616
,-0.097468629
,-0.0440505
,0.022993129
,0.00086671347
,-0.11189447
,0.05070525
,0.015116584
,-0.017711887
,-0.021493342
,0.092850469
,0.18949477
,0.040118922
,0.031772517
,-0.016939158
,0.1144099
,0.12351483
,-0.12364854
,0.019849645
,0.047611203
,0.11751607
,0.023547614
,0.030219775
,0.05770579
,-0.029370999
,-0.083127581
,0.22566368
,0.04086126
,0.03978226
,-0.013139998
,0.10459848
,0.39556223
,0.0861815
,-0.060713265
,-0.052385826
,-0.042402491
,-0.12772879
,0.11134767
,0.12377834
,0.12070785
,-0.0642332
,0.066929363
,0.01058636
,0.028862054
,-0.0096194232
,-0.037367415
,0.022481073
,-0.093671605
,-0.084957145
,0.02290619
,-0.056722589
,0.024360493
,-0.0030234391
,-0.058848612
,0.096078925
,0.0045376834
,0.001263484
,0.055642769
,0.0398639
,0.12939756
,-0.019495441
,0.13716877
,0.090326726
,-0.012805546
,-0.0040585548
,0.040815264
,0.0187126
,0.13300182
,-0.0322634
,-0.026690941
,0.0086803511
,-0.0143584
,0.0066296058
,-0.0024003421
,-0.052131284
,0.088444456
,0.047753766
,0.056716129
,0.01926703
,0.037734672
,-0.013383054
,-0.030995868
,-0.0012340613
,0.024102712
,0.092495866
,-0.0072192661
,0.070640646
,0.11320695
,0.051337074
,0.011586271
,0.0577
,-0.023464024
,-0.035413347
,0.042500917
,-0.06679216
,-0.053526048
,-0.032314193
,0.0039796946
,0.0026867725
,-0.053859811
,0.065736637
,0.10309684
,0.025910681
,-0.00091838959
,0.035904381
,0.05015102
,0.26605225
,-0.0055260523
,0.079016782
,0.050921772
,0.065877542
,0.33589494
,0.061636321
,-0.054025844
,0.0166691
,-0.068570182
,-0.023638617
,0.11306199
,-0.028232405
,-0.069407225
,-0.036399271
,0.028032899
,0.10382504
,0.0062010637
,-0.084351927
,0.051432773
,0.070614941
,0.0065418635
,0.049426228
,-0.026417105
,-0.12470774
,-0.00041363176
,0.034839716
,0.05459119
,0.025423381
,0.044205844
,0.19782598
,0.13914566
,-0.01825783
,0.11163682
,-0.068448238
,0.045526326
,-0.0063198525
,-0.077009946
,-0.011221597
,0.079197891
,-0.11284402
,0.044989068
,-0.1755994
,0.010218857
,0.085220844
,0.10414556
,0.017019657
,0.022980882
,-0.044306844
,-0.011668969
,0.24169935
,-0.054973
,0.078118265
,0.047049902
,0.013155339
,0.37160623
,0.034991328
,-0.016828569
,0.016000342
,-0.087477773
,0.028611936
,0.085066415
,0.0045068264
,0.024193916
,0.013689832
,0.038538061
,0.038703617
,-0.0938883
,-0.065159142
,-0.01386954
,-0.072433695
,0.10920059
,-0.071122192
,0.0522329
,0.025697218
,-0.049143504
,0.035027757
,-0.026519407
,-0.050919615
,-0.076586977
,-0.1792061
,0.0047676913
,0.0047354521
,0.076869085
,0.05649602
,0.025471564
,0.016822632
,-0.035303269
,0.031895198
,-0.058717664
,0.13197772
,-0.095545508
,0.0069031888
,0.023035003
,-0.065380856
,0.11785122
,0.063137315
,-0.0088519985
,0.032339085
,0.11440572
,0.050214987
,-0.004382926
,0.051373359
,0.046368971
,-0.18150412
,-0.042211823
,-0.017704723
,-0.0065312469
,0.037146337
,0.023442134
,0.035597797
,0.013349851
,-0.035811596
,-0.03319031
,-0.046757456
,-0.033565342
,0.16801186
,-0.0958592
,-0.0021521004
,-0.052828714
,0.01241798
,0.15820041
,0.072522469
,-0.0094695883
,0.041586049
,0.069432355
,0.18500319
,-0.11004227
,0.033268727
,0.026781006
,0.093763985
,0.048922554
,0.096687973
,0.24348599
,0.25236613
,0.0086516757
,0.026946571
,-0.036218416
,-0.052004941
,0.018067541
,-0.023927683
,0.069742262
,0.091708645
,-0.099152148
,-0.010267255
,0.07885205
,0.1364672
,-0.07238812
,-0.11436615
,0.084575064
,-0.0320319
,0.05087132
,-0.029584719
,0.10749692
,0.13231494
,0.055775858
,0.1161751
,0.01625078
,0.203196
,0.21737683
,0.060816348
,0.06240616
,-0.022766979
,0.02684091
,0.014918482
,0.14050217
,-0.055140413
,-0.077912152
,-0.0023339689
,-0.0653459
,0.10846335
,0.1594559
,-0.043399636
,-0.0594152
,0.14216292
,-0.075877652
,0.04776267
,0.050918426
,0.069619529
,-0.04019504
,-0.0041060559
,-0.019854166
,0.17724572
,0.13982724
,0.2606281
,0.051068902
,0.071595222
,0.0095040808
,-0.028566958
,0.029049126
,0.0032699392
,0.00028536914
,-0.1178377
,-0.041213207
,-0.013561791
,0.11352058
,-0.0073618339
,0.030615952
,-0.0810759
,0.03869595
,0.11127491
,0.070719227
,-0.031510536
,0.13834836
,0.11993047
,-0.11621027
,0.075940363
,0.0794148
,0.36962873
,0.23691593
,0.1900115
,-0.068532184
,-0.0054054619
,0.018110083
,0.049994946
,0.05577248
,0.093772061
,-0.010148765
,0.081585929
,0.01342838
,-0.011798499
,0.15973653
,0.012110398
,-0.089925639
,0.033948649
,0.12887397
,-0.020202996
,0.0046151159
,0.11343733
,-0.050251894
,-0.0019130089
,0.072476894
,0.24958555
,0.20189205
,0.13599579
,-0.034605853
,-0.020394277
,0.049184084
,0.038138621
,-0.0055900351
,-0.022303956
,-0.061193831
,-0.015763979
,-0.032409273
,0.014047987
,0.042318158
,0.036654327
,-0.10079361
,0.10237449
,0.056607459
,0.082385354
,0.14823695
,0.1358242
,-0.078605987
,0.010735359
,0.099293053
,0.0052681263
,0.24907486
,0.24595821
,-0.20488392
,0.081389733
,-0.0455097
,-0.080149837
,-0.01660521
,0.044784863
,-0.072148055
,-0.0087118614
,-0.16825512
,0.015133773
,-0.030748809
,0.073361039
,0.16665441
,-0.016612735
,-0.2318313
,0.049398053
,0.10426209
,-0.005865532
,-0.057520766
,0.11515069
,-0.20671901
,0.018186323
,0.079895444
,0.2156734
,0.21070108
,0.26231804
,-0.066760495
,0.038326748
,-0.057339076
,-0.099474147
,-0.043699209
,0.040964741
,-0.010063372
,-0.027501114
,-0.047906574
,0.071733609
,-0.0023846605
,0.2224289
,-0.056797311
,0.0053363554
,0.10943359
,0.017995229
,0.10440549
,0.22395302
,0.34088069
,-0.16467686
,-0.026739398
,0.36788419
,0.4307794
,0.395753
,0.116446
,-0.04347932
,-0.014703408
,-0.0409335
,0.023788709
,-0.12235736
,0.052043226
,0.093182005
,-0.040301237
,-0.040510364
,-0.10594543
,0.053076513
,0.11684269
,-0.20099664
,-0.074491173
,0.058616024
,0.060805019
,-0.020613316
,0.0096265506
,0.30221462
,-0.12243307
,-0.015797898
,0.076177113
,0.36710915
,0.40131071
,0.10872
,0.040641319
,0.0017130635
,0.012904613
,0.024991818
,0.042465393
,0.05876838
,-0.03976927
,-0.14521594
,0.084477112
,-0.022329116
,0.0076995632
,0.048380829
,0.12119611
,-0.071580224
,0.0966681
,0.03404073
,0.15421966
,0.029725937
,0.0738912
,-0.12442689
,0.10570934
,-0.021562671
,0.13009326
,-0.070628583
,0.027400143
,0.0325027
,0.08811368
,0.0260157
,0.043332748
,0.074615896
,0.0088859573
,0.040879309
,-0.077079669
,-0.026033338
,0.073417462
,-0.031829949
,-0.032496851
,-0.081332192
,0.068261512
,-0.076537445
,0.13624313
,-0.023313837
,0.25474438
,0.14209366
,0.092742227
,-0.080268085
,-0.020873412
,0.40058535
,0.46857077
,-0.1281651
,0.11188865
,0.040426381
,-0.050216466
,-0.049077235
,0.041193504
,-0.059988055
,0.11169603
,0.049365882
,-0.029015008
,-0.07872352
,-0.0894391
,0.038892206
,-0.074451111
,-0.10206071
,0.072802983
,-0.017407972
,0.090268411
,-0.124046
,0.0232306
,0.010203822
,0.033681728
,0.0531261
,-0.04898221
,0.183423
,0.0013115668
,0.04980262
,0.0929458
,-0.07251285
,0.0052041169
,0.042804845
,0.0011513204
,0.030459991
,-0.021503707
,0.014063098
,0.076321341
,0.10143191
,-0.063258253
,0.0062698917
,0.032368302
,-0.028340364
,0.079148479
,-0.017130105
,0.22907594
,0.30884328
,-0.012657116
,0.00086169364
,0.12588824
,0.44006571
,0.2688418
,0.14346084
,0.024091089
,-0.072641693
,-0.0051660733
,0.0099088764
,-0.11165278
,-0.021734964
,0.049451865
,-0.030649342
,-0.10254195
,0.062938005
,0.024630388
,0.15567227
,0.0076515633
,0.0532567
,-0.13960895
,0.081701644
,0.13780534
,-0.02815325
,-0.14440195
,0.044905066
,0.061986037
,0.069607884
,0.17552958
,0.18073584
,0.3715502
,0.031363618
,-0.039576959
,-0.021313095
,-0.0076498343
,0.062267825
,-0.052622
,0.078072585
,-0.011523068
,0.014836727
,0.013460312
,0.037862524
,0.1046187
,-0.02918331
,0.040887028
,0.013195915
,0.019534688
,0.15511861
,0.099890538
,-0.011214777
,-0.052060138
,0.15130429
,-0.011234697
,0.078899637
,0.10173156
,0.088662691
,0.05737967
,-0.0011943779
,0.0072371359
,0.026084021
,0.025406782
,-0.040910393
,-0.032512277
,-0.071837865
,0.0031593489
,0.0052363654
,0.027692936
,0.049963862
,0.11743068
,-0.095537215
,0.10584037
,0.099305622
,0.1546202
,0.072025433
,-0.029181393
,0.027149839
,0.14759377
,0.076469578
,0.19019105
,0.023340616
,0.10068374
,0.051084664
,0.0056893965
,0.0734869
,-0.016432673
,0.11757694
,-0.033782203
,0.01376502
,-0.11601423
,0.0080983629
,-0.054539438
,0.075823888
,0.039591875
,-0.0029478527
,0.024467217
,0.064902321
,0.062879115
,0.052634425
,0.056141015
,0.2076315
,-0.0048816609
,0.094618969
,-0.031161226
,0.048669048
,0.3494491
,-0.0090667857
,-0.032252368
,-0.014542812
,-0.016552867
,-0.017713157
,0.078976631
,0.021415187
,0.022717046
,-0.064992256
,0.00043044981
,0.029309604
,0.095787808
,0.087784991
,-0.049137913
,0.00091077009
,0.048498087
,0.075736344
,0.083503008
,-0.019605678
,-0.031755466
,0.073559456
,0.09954793
,-0.027656725
,0.26618317
,0.17986536
,-0.055813681
,0.049807385
,0.016825493
,0.062162198
,-0.14061415
,-0.006461808
,0.0095697036
,0.17989571
,0.014093498
,-0.061475389
,-0.088901505
,0.018515533
,-0.019976633
,-0.037657969
,-0.099441394
,0.015776258
,-0.05586917
,0.041261166
,0.0083067846
,0.14359134
,0.15067282
,0.08304245
,0.070353173
,0.038995452
,0.18654273
,0.18325046
,0.12548746
,-0.093007587
,-0.13131553
,0.012028585
,-0.11490265
,-0.00074932614
,-0.018889902
,0.054163937
,-0.045806777
,0.052125629
,-0.11332501
,0.050412118
,0.0055206455
,0.085594311
,-0.0585277
,0.015858592
,0.029242143
,0.23158476
,-0.088298887
,0.055713173
,0.085943252
,0.16840813
,0.18408181
,0.048500169
,0.16127037
,0.10889142
,0.01724286
,-0.021883365
,0.069826357
,-0.023415845
,-0.058976777
,0.021130143
,-0.013147603
,0.061060071
,-0.020557964
,0.01640344
,-0.014766463
,-0.047463614
,0.014858817
,0.023798332
,0.034779422
,-0.048954207
,0.020962125
,0.0053634774
,0.046569221
,-0.0356113
,0.075992331
,-0.091386408
,0.073000111
,0.075873256
,-0.0026481973
,0.02493681
,-0.014602821
,0.046930544
,-0.066386566
,0.045493186
,-0.057905745
,-0.088868894
,-0.017536839
,0.055721138
,-0.027090292
,0.00031760876
,0.023349719
,-0.0070134131
,-0.016187036
,-0.070630334
,0.0022057611
,0.058988698
,0.04131864
,0.11972604
,-0.014129779
,0.056190804
,0.10554433
,-0.011042397
,0.0594589
,0.052841194
,-0.057276577
,0.045045037
,0.044632223
,0.059804261
,0.030339571
,-0.018028248
,0.026176836
,0.018774375
,-0.0048551909
,-0.043136854
,0.051220328
,-0.028119706
,-0.11731596
,0.044176955
,0.042137071
,0.0035493558
,0.1053203
,0.039058849
,0.04342062
,-0.035948038
,0.076267518
,0.0049005332
,0.065147348
,0.09976124
,0.10644514
,0.030254304
,0.075712681
,-0.030334514
,-0.058891609
,-0.023125345
,-0.057032313
,-0.061379563
,0.0029954575
,-0.011243464
,0.035679117
,-0.053958029
,0.063297205
,0.038489141
,0.010932377
,0.030152941
,0.041996729
,-0.0035027566
,0.0712666
,-0.054372612
,-0.071113437
,0.10977802
,-0.0019313631
,0.038593583
,0.071690492
,0.026368381
,0.08203169
,0.044681087
,0.02691303
,0.049909808
,0.05376057
,-0.013576417
,0.0023553339
,-0.0066702086
,0.045135848
,-0.0031500666
,-0.021703208
,-0.030649932
,-0.070238911
,0.014339752
,0.081653029
,-0.01049182
,0.11941849
,0.04222523
,-0.085102059
,-0.0033932605
,0.097574532
,0.053453118
,0.085804492
,0.14338431
,0.040996935
,0.058261443
,-0.017334351
,0.056754865
,-0.05956506
,0.015204065
,0.12962247
,0.055995848
,-0.037709422
,-0.051350851
,-0.028275631
,-0.12196776
,0.00779336
,0.05244118
,-0.01469539
,-0.049024474
,0.029097667
,0.075007781
,0.007462759
,-0.043143868
,0.016556351
,-0.012358381
,0.1002589
,0.051189896
,-0.11688991
,-0.025984045
,0.015414762
,0.079000689
,-0.057466377
,0.0090099657
,0.051127486
,-0.10191274
,0.11514676
,0.026291657
,-0.021760974
,-0.010782572
,-0.03039073
,-0.0784401
,-0.012911014
,0.0627201
,0.005332469
,0.042338617
,-0.010175635
,0.051926196
,-0.10791166
,0.015282647
,0.049451351
,0.009828575
,0.20949192
,0.13749181
,-0.16156495
,0.050027329
,0.070220441
,-0.01884676
,0.031152591
,-0.0089643635
,-0.036912739
,0.0012338933
,0.084798306
,0.0017961639
,-0.088830173
,0.15548956
,0.096350111
,0.066502847
,-0.030134993
,0.11347463
,0.040538568
,0.093631215
,-0.0048833597
,-0.043825537
,-0.085369654
,0.066907428
,0.0057501066
,0.16253938
,0.09123785
,0.011234409
,0.040925346
,0.093918957
,0.013313083
,-0.061515372
,0.028440796
,-0.096617267
,-0.091893665
,0.039627258
,0.0023781669
,0.0012246767
,0.042338956
,0.044608727
,0.061781123
,-0.068377472
,0.016486142
,0.034620024
,-0.04757762
,-0.036509655
,-0.032356448
,0.011903866
,0.030029112
,-0.0093023479
,0.17611741
,0.13472767
,0.045844913
,-0.011384689
,0.075716816
,-0.0017232756
,-0.031090632
,-0.036871776
,0.076927871
,0.059137631
,0.067558236
,0.0091491342
,0.022033151
,0.047743764
,-0.031012461
,-0.078792632
,0.016196998
,0.052564431
,-0.034380347
,0.040316284
,-0.032318018
,0.0027234191
,-0.0025644843
,0.0026716946
,0.072147854
,0.015912445
,-0.060072172
,0.0017079399
,-0.004456277
,-0.023605803
,-0.043044467
,0.016297638
,-0.041940831
,-0.02001529
,0.065979376
,-0.053412408
,-0.048471298
,-0.027462345
,0.010083224
,0.090483136
,0.033430688
,-0.0073335525
,-0.0075967382
,0.012472898
,0.0658258
,0.16590193
,-0.075802609
,0.085077554
,0.02301611
,0.054758657
,0.067853734
,-0.075033508
,0.11283716
,0.010358644
,-0.041970227
,0.0070685581
,-0.062232383
,0.016872182
,0.046995614
,0.0684147
,-0.027952772
,-0.060046595
,0.054016504
,-0.15329817
,-0.01856925
,-0.017309058
,0.063476905
,-0.0099071069
,0.03326482
,-0.018312214
,0.020509195
,-0.0536129
,0.025531219
,-0.0069534904
,0.0035545256
,0.036398292
,-0.0077071618
,-0.0553453
,0.1235559
,0.083412021
,-0.11576628
,-0.016199591
,0.03438051
,-0.13601278
,0.016036507
,0.035423998
,0.061077222
,-0.014909509
,0.093165204
,0.070084132
,0.039743561
,-0.074585631
,0.0094900234
,-0.0048860367
,0.046231069
,0.0065468787
,0.0012834526
,-0.024726026
,0.052941382
,0.016609302
,0.06862592
,0.038071889
,0.12566964
,-0.092474252
,0.040651083
,0.040025961
,0.051248807
,-0.084195353
,0.066376545
,-0.069180585
,0.099903531
,-0.055035137
,0.024607481
,-0.019056734
,-0.070817411
,-0.056905262
,0.086790934
,0.056995071
,0.034789823
,0.095770769
,0.075516358
,0.056720939
,-0.095807537
,0.0827205
,-0.0041838028
,-0.01597631
,0.17720041
,-0.011071534
,0.013074406
,0.033829983
,-0.0396283
,0.034487616
,-0.029033447
,0.008919213
,0.060861018
,-0.0054360535
,-0.021586603
,-0.022282401
,-0.084953591
,-0.11658401
,-0.010048809
,0.028924022
,0.042221125
,0.014243726
,0.056123219
,0.026013354
,-0.034142412
,0.067014419
,-0.0072581754
,-0.01697297
,0.013068029
,-0.0081595248
,-0.052019957
,0.019149045
,0.027125595
,-0.027812934
,0.019250944
,-0.0087397182
,0.076243766
,0.13050786
,0.065826692
,0.044587236
,0.024173368
,0.010288723
,-0.0026497056
,0.072101913
,0.023756791
,0.0034870084
,0.017733183
,0.10162435
,0.044198796
,-0.0069177626
,0.027954949
,0.043853257
,0.067961857
,0.021688655
,-0.069563963
,-0.060377132
,0.031511743
,0.043640453
,0.073881663
,0.0090867318
,-0.017718079
,-0.012017611
,-0.012064593
,0.023684395
,0.04463771
,0.026805587
,0.0015770835
,-0.024540817
,0.045344096
,-0.048513077
,-0.014574856
,0.059767239
,0.021227445
,0.065124474
,0.0040274705
,-0.0081428625
,0.038042858
,-0.026594711
,0.063378133
,0.036564171
,-0.098449841
,0.05719
,0.030093145
,0.018865665
,0.0042781597
,-0.067307785
,0.090919361
,0.085769013
,0.010343584
,-0.018567737
,-0.0034955663
,-0.049908496
,-0.011528181
,0.0881109
,0.024649555
,-0.053200208
,0.014213274
,0.086072974
,-0.036664188
,-0.038776215
,0.053323481
,0.030259848
,-0.0045513236
,0.0136764
,-0.079718038
,0.0012620182
,-0.023806607
,0.012091243
,-0.074295171
,-0.031356327
,-0.0556126
,-0.035176937
,-0.031713221
,0.026805794
,0.052925795
,0.026325054
,-0.024252459
,-0.027460914
,0.062695481
,-0.060283095
,-0.072248608
,0.054299977
,0.05521122
,0.012565017
,0.067653984
,0.038527545
,0.066147156
,0.025629854
,-0.0060507976
,0.012246763
,0.006271556
,0.0019834372
,-0.06304054
,0.0046913368
,-0.029541411
,-0.08688727
,-0.0069870693
,-0.0096648168
,-0.033035446
,-0.023832997
,-0.0073214704
,0.016727123
,-0.044427067
,-0.071167029
,0.05868813
,0.0097846333
,-0.045771807
,0.098175138
,0.063989989
,-0.077168919
,0.016081244
,0.0049506864
,0.052164447
,0.025860719
,-0.032554522
,0.089548953
,0.12095054
,-0.069797523
,-0.041917574
,-0.045263991
,-0.066125765
,0.068904333
,-0.059904344
,0.052379861
,-0.033863474
,0.021764942
,0.019419927
,-0.035537176
,-0.00033059277
,0.063918576
,0.030215219
,0.058400854
,-0.068891622
,0.039163146
,-0.020614753
,-0.012252077
,0.045163911
,-0.068952151
,0.07779666
,-0.063027583
,-0.0012081859
,0.086459391
,-0.016174469
,0.066640221
,-0.037264906
,0.014167951
,0.039390948
,-0.0064628748
,-0.035081048
,-0.0090326313
,-0.036181647
,0.020290175
,-0.059956871
,0.033624
,0.026336169
,0.032319643
,-0.070542432
,-0.047092661
,-0.052722886
,-0.01313624
,-0.053997967
,0.036836408
,0.049213018
,0.028852845
,-0.022528496
,0.088771045
,0.008367965
,0.11623294
,-0.01935892
,-0.024129886
,-0.032265194
,-0.056468047
,0.031767379
,0.081417732
,0.14469728
,0.10082175
,-0.034663491
,0.023987217
,-0.044352029
,0.039953664
,-0.066511765
,0.015749278
,0.054631267
,0.020615881
,0.020455336
,0.02529162
,-0.034500986
,-0.085262232
,0.062502235
,-0.047513809
,0.0090452107
,0.06923759
,-0.037066031
,-0.061683249
,0.010844958
,0.011000533
,0.0068250238
,-0.013947619
,-0.014611459
,0.04990305
,0.001635451
,0.0046990574
,-0.0045399428
,-0.023904976
,0.027607154
,-0.013354774
,0.044325382
,-0.019687057
,0.046395287
,-0.0005562852
,0.029383987
,-0.0029261089
,0.0739763
,-0.012985277
,0.030245911
,0.036008347
,0.062758543
,0.035064369
,-0.024396999
,-0.03219378
,-0.10146704
,-0.061909176
,0.10136186
,0.0756478
,0.082606114
,0.15974385
,0.018930962
,-0.019679725
,-0.014623636
,-0.004274894
,-0.039595313
,0.0058028651
,0.015043883
,-0.015346108
,-0.037631359
,-0.00045350159
,0.023120968
,0.023407115
,-0.0062976358
,-0.059076697
,0.068354636
,0.034032483
,-0.0046182512
,0.0042474037
,-0.022866517
,0.0026322547
,-0.037645113
,0.0046461225
,-0.018907264
,-0.05311114
,0.021606622
,0.0010131
,-0.016780956
,0.077006184
,0.0806843
,0.14146905
,0.050618768
,-0.0014919526
,0.010208588
,-0.034634974
,-0.023318551
,-0.091493338
,0.06081298
,-0.031283095
,0.00041459335
,0.06902793
,0.067821667
,-0.051161729
,-0.017094258
,-0.025517285
,-0.077582635
,0.031715218
,0.018459843
,0.036787733
,0.0025252569
,0.22747071
,0.10948692
,0.049522907
,-0.033769157
,-0.023889424
,-0.068250291
,-0.0658023
,-0.017103527
,0.016148398
,0.039577894
,-0.095871627
,0.054400157
,-0.076944456
,-0.044012748
,-0.032581348
,0.14116006
,0.074928977
,-0.058348365
,0.0024602837
,-0.0056670615
,-0.0072249961
,0.076163113
,0.039684951
,0.0656488
,0.07281734
,0.15337631
,0.076732017
,-0.11688908
,-0.040405288
,-0.071540959
,-0.12202775
,-0.108537
,0.0093085552
,-0.045156863
,-0.011698013
,0.11826873
,0.088691756
,0.012724535
,0.041694492
,0.042663328
,0.14208038
,0.074083894
,-0.02590644
,0.03578655
,-0.032762513
,-0.096805573
,-0.05325098
,-0.00556017
,0.040469717
,0.10948692
,0.14182085
,0.042104989
,-0.10337333
,-0.015658762
,-0.05304588
,-0.058754575
,0.012577285
,0.0081080766
,-0.06696023
,0.016188346
,0.028800271
,0.049132492
,0.047491204
,-0.057629962
,0.041378409
,0.22836222
,-0.02336308
,0.023116501
,-0.04741716
,-0.035667561
,0.019368574
,-0.040117122
,0.022850223
,-0.072410733
,0.028086333
,-0.016312474
,-0.015361126
,-0.045378461
,-0.0053779166
,0.056300517
,0.17909408
,0.014035707
,0.0012374899
,0.012300589
,-0.054021362
,-0.016024355
,0.001684681
,-0.074939311
,0.0473467
,-0.0084064193
,0.045941804
,-0.055521429
,0.045103248
,0.016844884
,0.0369441
,0.19447042
,-0.05429323
,0.039412074
,0.01183914
,-0.051223807
,0.020955173
,0.028975934
,-0.0024109394
,0.019188559
,0.0071841949
,0.033399004
,0.0090832235
,-0.053797159
,-0.021515377
,-0.073214725
,0.13684954
,0.077627674
,0.088215
,-0.014403257
,0.0011267271
,0.069319449
,0.049424045
,-0.075808026
,-0.023335217
,0.0070574353
,0.029458769
,-0.010691063
,-0.024701269
,-0.090305239
,-0.015395692
,0.020891465
,0.039138064
,-0.03780077
,0.043404169
,0.068815812
,0.098133214
,-0.0019284504
,-0.064395696
,-0.053266753
,0.019496674
,-0.025016647
,-0.060389455
,-0.025753479
,0.00985724
,0.0057008471
,0.032964993
,-0.10132406
,0.038655978
,0.017211571
,0.06235509
,0.055835191
,0.014557586
,0.022953115
,0.068277493
,0.0078668445
,0.029601803
,-0.027137071
,0.020957947
,0.043117635
,-0.067209981
,-0.10291202
,-0.077218592
,-0.02943684
,-0.011684122
,-0.053267542
,0.1286258
,0.0574377
,0.059695572
,0.02450894
,0.037372563
,0.16986088
,0.15202574
,0.028956367
,-0.098327853
,-0.020521693
,-0.024610041
,0.01438021
,-0.030665182
,0.031731788
,-0.0059571732
,-0.0060849953
,0.049011804
,0.076997854
,-0.015748551
,0.03185105
,0.010353214
,0.014371682
,0.01695545
,0.032145657
,0.028379988
,0.0056659533
,-0.026710978
,0.02240571
,0.047797456
,-0.028033195
,-0.0014030612
,0.0032884125
,-0.016429549
,-0.046077147
,-0.034905955
,0.073272668
,0.031947609
,-0.02482268
,0.073033027
,-0.085719533
,0.03092912
,-0.05742253
,0.030322939
,0.045654926
,-0.039336164
,0.17805845
,0.0554786
,0.0037774493
,-0.031236961
,0.011786308
,-0.092448421
,-0.082181685
,0.0025071229
,0.010108362
,-0.032223832
,-0.033119842
,0.057874486
,0.05196872
,-0.052882254
,-0.016855428
,-0.058266696
,-0.089391991
,0.077937163
,0.010000663
,0.004563285
,0.076453269
,-0.045977533
,0.072830334
,0.012191307
,-0.0056384243
,0.13036191
,0.05012029
,-0.050176721
,0.055034228
,-0.048894964
,-0.011593683
,-0.048351895
,-0.0618082
,0.020512151
,-0.030616743
,0.063875914
,0.064067364
,-0.047903515
,0.00963274
,-0.04245301
,-0.051282242
,0.0761475
,0.018060906
,0.035485733
,-0.075092353
,0.056105528
,0.053110953
,0.042418189
,-0.023134906
,0.047873721
,0.036877535
,0.023535144
,0.0159067
,-0.019099073
,-0.04542404
,-0.0020993284
,0.0061778664
,-0.028000463
,-0.0022640766
,0.038374081
,0.12854394
,0.0094070015
,-0.035331372
,0.025234571
,0.014660671
,0.0015506619
,-0.0394176
,0.010013283
,0.01716556
,0.0093838917
,0.12314149
,-0.0064398148
,-0.0083759064
,0.053834714
,0.036170952
,0.19581503
,0.029057844
,-0.051861908
,-0.035421077
,-0.065848909
,-0.075415149
,-0.053798266
,0.0014198622
,-0.0066783996
,0.019580036
,0.12358946
,-0.0038926182
,-0.059711918
,-0.028662071
,0.0013460354
,0.067250624
,0.04938658
,-0.044309825
,-0.0059781573
,-0.034585424
,-0.035557915
,0.033629823
,-0.091711909
,-0.077562124
,0.038401105
,-0.041193128
,-0.041240815
,-0.030641621
,-0.020451598
,-0.019638285
,-0.030483345
,0.0270981
,0.08400967
,-0.0064160004
,0.028067224
,-0.017583562
,-0.068035468
,0.008955745
,-0.071991116
,0.044408545
,0.12085203
,-0.014787408
,-0.090939388
,0.062917806
,0.021427846
,0.033425685
,-0.053000331
,0.042453773
,-0.04984197
,-0.024292044
,-0.016009351
,0.025006892
,-0.027879953
,-0.039307162
,0.037495717
,0.12295447
,-0.039601695
,0.016949873
,0.041690528
,0.0031050495
,0.02865937
,0.10833735
,-0.048550185
,-0.051149864
,-0.00257486
,-0.06473238
,-0.0766754
,0.0092252893
,0.0088843415
,0.078546852
,-0.14522238
,0.15100147
,-0.018523335
,-0.028299898
,0.03853799
,0.08258567
,0.22257376
,0.048720289
,-0.051852059
,0.036383659
,0.028938981
,0.21239172
,0.073437095
,-0.023699785
,-0.033738159
,-0.032725479
,0.037964161
,-0.049767423
,0.015233155
,0.05228075
,-0.046263956
,0.17612959
,-0.012936371
,-0.03539345
,-0.04360782
,0.077837005
,0.074773036
,0.040967684
,-0.01162058
,-0.023302089
,-0.061901506
,0.070667759
,0.094904654
,-0.074623369
,-0.10280259
,-0.10732663
,-0.0098989308
,0.012850584
,-0.10659842
,0.098735236
,0.076933242
,0.12355297
,-0.040563781
,-0.0035005179
,-0.037729654
,0.032675229
,0.043441538
,-0.036184814
,0.024944993
,0.06659621
,0.10625373
,0.095557064
,-0.036997687
,-0.035481866
,0.017532369
,0.056104541
,0.04227956
,-0.010264289
,0.044977318
,0.024071049
,-0.00019649649
,0.053610757
,0.05148105
,-0.0096747531
,-0.043736067
,-0.1286419
,-0.11609669
,0.071129255
,0.017323323
,0.0035561251
,0.052244682
,0.039092828
,-0.041735057
,-0.012537175
,-0.062683828
,0.050811831
,0.045837093
,-0.0024348944
,-0.0037951879
,0.06454242
,0.042911917
,0.045986343
,0.018380955
,-0.084504247
,-0.011364549
,-0.025696451
,0.082761906
,-0.042215284
,0.00972197
,0.061096422
,0.0048051444
,0.10130617
,0.021052269
,0.028342646
,-0.063983634
,-0.087702207
,-0.051248319
,0.00465023
,0.043765858
,-0.028681943
,0.04237362
,0.16057533
,0.027079757
,-0.024516797
,0.056921426
,0.028169308
,0.019581607
,0.078040794
,0.050171196
,-0.05762285
,-0.020622443
,-0.010487814
,0.025813676
,-0.046029013
,-0.0056737778
,-0.03338914
,-0.0092806872
,-0.035482451
,-0.06447304
,-0.10226955
,-0.038338557
,-0.10018786
,0.013763429
,0.065887161
,0.008067159
,0.043711886
,-0.036548909
,-0.0073975613
,-0.026762312
,0.021114208
,0.15835656
,0.0057531521
,-0.093517192
,0.023004506
,0.095553376
,0.028136045
,0.081249945
,-0.0167124
,0.020723645
,0.0037741824
,0.0013023578
,-0.032974631
,-0.060241904
,0.0069631748
,-0.088234089
,-0.028743984
,-0.037090492
,0.012511784
,0.082243092
,0.047272902
,0.081893168
,0.087063536
,-0.07514558
,0.030276066
,0.054226119
,0.0037793976
,0.10921483
,0.037685249
,-0.066251248
,-0.021230467
,-0.014056198
,0.11445964
,-0.055816252
,-0.088349752
,-0.14366655
,-0.012674391
,0.018417237
,-0.0022852949
,0.029903142
,0.0025326547
,0.024593504
,0.022092612
,0.0099829379
,-0.015736053
,0.10549087
,0.20217928
,0.13683696
,-0.065851465
,-0.084719114
,0.025824269
,-0.03572122
,0.11225071
,-0.064790994
,-0.094574563
,-0.040151283
,0.0050707767
,0.060493015
,0.026634833
,-0.044574972
,0.048361883
,0.020863274
,-0.0010787366
,0.028835572
,0.0973456
,0.026064498
,-0.030283088
,0.063500181
,0.048791949
,-0.015193527
,-0.036937241
,0.17881118
,0.093704648
,-0.070882365
,-0.040672351
,0.030246817
,0.00073320174
,0.049388669
,-0.031389046
,-0.027406367
,-0.018048873
,-0.086616926
,0.060486745
,-0.033569917
,-0.087307461
,-0.032209046
,0.023323042
,0.098438144
,0.019773049
,0.0034533674
,-0.036530502
,0.029717358
,-0.0014794737
,-0.0051417644
,0.027161945
,0.080352336
,0.015124298
,-0.0237933
,-0.024757709
,-0.01205428
,0.0028243198
,0.069635853
,0.056797598
,0.0058110384
,0.03944879
,0.026253397
,0.036478687
,0.044136155
,0.065110326
,0.053508472
,-0.0488781
,-0.027659679
,-0.044714503
,0.02805778
,0.074033156
,-0.12588684
,0.17066301
,-0.085814424
,5.4384815e-05
,0.022191009
,0.025671247
,0.085752681
,-0.01661106
,0.00887268
,0.035540082
,-0.0023960345
,0.059170622
,0.0073957089
,-0.12149456
,-0.075637639
,0.066258475
,0.045321535
,-0.00088723126
,-0.038956922
,0.091817893
,0.1028589
,0.021909263
,-0.034882631
,-0.057967566
,-0.070057459
,-0.0076770075
,-0.07790269
,-0.085779905
,-0.029054604
,-0.035269693
,-0.060028736
,-0.024888953
,0.082265921
,0.069349259
,0.025690202
,0.034067616
,0.053892657
,-0.0073344093
,0.023414534
,-0.0034861185
,0.053158022
,-0.024073208
,0.071711473
,0.026256537
,-0.035375334
,-0.00031674106
,0.033705436
,-0.079559356
,0.024879079
,0.010128187
,-0.058282532
,-0.013883445
,0.04276225
,-0.018811647
,-0.014851638
,0.0021093218
,0.10074113
,0.023069836
,-0.041944083
,0.0060716993
,0.044864882
,-0.010428412
,0.03860198
,-0.0094609372
,-0.015186967
,-0.067339458
,-0.10821599
,0.038313963
,-0.016321503
,0.095584482
,0.17062055
,0.064734615
,0.14625476
,-0.038073074
,-0.038588427
,0.036286086
,-0.097921662
,0.063137457
,-0.025149735
,0.0001941111
,0.068233885
,-0.092580728
,0.22193316
,0.019483736
,-0.023943579
,-0.047508687
,0.1355685
,0.11500157
,0.027700137
,0.014163922
,-0.01334502
,0.06188143
,0.059792202
,0.099426724
,-0.039625786
,-0.10802115
,-0.066283695
,0.061468676
,-0.063591085
,0.012030095
,-0.081864581
,-0.041731317
,-0.039995745
,-0.02029644
,0.052429978
,0.034061756
,-0.031162508
,0.019152692
,0.06588389
,0.022390848
,0.063719042
,0.14038144
,0.06205916
,-0.01157504
,0.041890968
,0.027702279
,0.090148158
,0.13420013
,-0.013392868
,-0.03053725
,0.021342533
,-0.064957418
,0.040062137
,-0.071483456
,-0.087603755
,-0.12799564
,-0.091649286
,0.006276981
,-0.03233913
,0.030439964
,0.005111834
,0.051515456
,0.0260026
,0.007052891
,0.060690321
,0.061076097
,0.15599951
,0.070418678
,-0.017442189
,0.019674473
,0.0019002724
,0.027864618
,0.095802292
,0.016577078
,0.03983032
,-0.02102801
,0.000210603
,-0.10050141
,-0.015742576
,0.11417697
,-0.016145913
,-0.029645238
,-0.013284666
,0.044403125
,0.04375926
,-0.037546102
,-0.0090600532
,0.051570032
,-0.012843305
,-0.047763295
,0.12180278
,0.031544235
,0.09101443
,0.039271966
,-0.069404006
,0.052942082
,-0.017107951
,0.1466005
,-0.065212123
,-0.033903763
,-0.099783793
,0.02424198
,-0.047117285
,-0.029733587
,-0.074975438
,-0.067564391
,-0.05242392
,-0.0078821434
,-0.018321397
,0.080768734
,-0.045501333
,-0.031378545
,-0.036649078
,-0.0012564133
,0.032119241
,0.010961529
,0.17891574
,0.0070681982
,-0.0906532
,0.026851293
,0.030013749
,0.070914865
,0.042452775
,-0.01386112
,-0.047449458
,-0.045381263
,0.018009096
,-0.012563761
,0.0015798495
,0.053538632
,0.073081054
,0.021953527
,0.0829966
,0.021557527
,-0.050464604
,-0.039888263
,-0.023668129
,0.079101644
,0.025734762
,-0.034985844
,-0.041764881
,0.00064307213
,0.01079737
,0.047099557
,-0.054845713
,-0.0080631059
,-0.081168711
,-0.00074571971
,-0.016878361
,-0.0033187254
,0.10421661
,0.076547228
,0.097766489
,-0.066985562
,0.0060179504
,0.028422708
,0.087016627
,-0.078643128
,-0.0625772
,-0.0056832768
,0.067817129
,-0.035332073
,0.013015742
,-0.030234914
,0.070275113
,-0.045262687
,0.020609379
,-0.043768194
,-0.017334912
,0.02302899
,-0.043194085
,0.049421597
,0.020886824
,0.054497123
,0.036281079
,0.017852951
,-0.011300872
,-0.11113708
,-0.025180191
,0.0441391
,-0.04680397
,-0.085365176
,0.11862212
,0.0047564409
,0.050183412
,-0.099613786
,0.0042529311
,0.4438709
,0.097904824
,-0.025068985
,-0.040924843
,-0.083597675
,0.26414427
,-0.0089760926
,-0.075874619
,0.018272379
,-0.003342503
,0.047411937
,0.042924069
,0.013497063
,0.025288926
,0.018993923
,0.10522324
,0.03823157
,-0.037351049
,-0.012555069
,-0.021035057
,0.11631894
,0.22107866
,-0.032601111
,-0.033467237
,-0.012883989
,0.17352644
,-0.018208809
,-0.025784587
,-0.044725183
,-0.040112372
,0.15086247
,0.017210675
,0.054125898
,0.053562082
,-0.0086079361
,-0.056380477
,-0.046047993
,0.055459771
,0.11649017
,-0.054225694
,0.00802879
,0.0042657796
,0.070201978
,0.011111624
,-0.016385477
,0.12433307
,0.0049515083
,-0.11318783
,0.014068849
,0.0062886509
,0.14665806
,0.18613286
,-0.077229254
,0.020009678
,0.021147337
,0.048718523
,0.091226488
,-0.0014013996
,-0.0085826032
,0.0069620353
,0.072313182
,-0.0063799927
,0.10071786
,0.0053479611
,0.02609551
,0.0052845175
,-0.02417524
,0.030987315
,-0.039858535
,-0.029378952
,0.3550089
,0.029342635
,-0.020533247
,-0.01945634
,0.0585699
,0.094406091
,-0.11446686
,-0.081223994
,-0.0120259
,0.022050327
,-0.0051568951
,-0.077024728
,0.12739189
,0.033503409
,-0.048186526
,-0.070997633
,-0.0091493549
,0.086763188
,0.13837381
,-0.048344642
,-0.015752234
,0.069295205
,0.14130087
,0.055065591
,0.032396358
,0.12441033
,-0.05667704
,-0.0655728
,0.034718413
,-0.035850689
,0.25118452
,0.12959941
,-0.031025775
,-0.079383276
,0.013210243
,-7.2131741e-05
,-0.00062235311
,-0.041598577
,-0.12765071
,0.025687126
,0.042060848
,0.049589757
,0.0045516426
,0.015970733
,-0.00199935
,0.0088074394
,-0.026089143
,0.081950381
,0.077229731
,-0.066012904
,-0.1207823
,-0.0069379234
,-0.0079247206
,0.023051172
,0.0229654
,0.25874421
,-0.093733042
,-0.036230277
,-0.01439675
,-0.063692287
,0.046610024
,-0.06662257
,0.0014234214
,0.049827281
,0.043115258
,0.01553332
,0.14809608
,0.046859063
,-0.094849572
,-0.0018486116
,-0.1531015
,0.048810814
,0.10263474
,-0.030353755
,0.032865576
,0.045965791
,-0.2178978
,-0.031229466
,0.066128828
,0.052020382
,0.30173931
,-0.017161025
,-0.10932956
,0.00046751616
,-0.0046644188
,0.032366984
,0.045737352
,-0.032685537
,-0.17468703
,0.050696708
,0.0067335181
,0.09394446
,0.10177696
,0.030389844
,-0.046020739
,0.019787442
,-0.021871628
,0.0073856991
,-0.0046521057
,0.083103046
,0.34275326
,-0.025955604
,-0.04650015
,-0.079503864
,-0.119278
,0.17774858
,-0.069102995
,-0.035180584
,0.014977466
,0.00053691346
,0.14947233
,0.1068341
,-0.019059779
,-0.016212495
,-0.007980464
,0.024839822
,0.082059912
,0.2718035
,0.013625033
,-0.033739474
,0.05758623
,0.13382556
,0.10263231
,-0.024552081
,0.039001115
,0.34683427
,-0.021437569
,-0.064958267
,0.041761983
,-0.0843394
,0.15190023
,-0.075544782
,-0.0026331544
,-0.11699551
,0.0028445879
,-0.039896268
,0.017853223
,0.016996512
,0.0074137636
,-0.042992283
,-0.071809448
,-0.025384778
,0.12247822
,0.020314075
,-0.035966326
,-0.018383734
,-0.0034148383
,0.050675534
,0.051614329
,0.017829889
,-0.09758094
,-0.027917093
,0.03373779
,0.053218264
,-0.082009614
,0.095922649
,0.1502153
,-0.025290417
,-0.051452551
,-0.063568287
,0.19798318
,0.046700038
,0.0621009
,-0.079549655
,0.021154175
,0.035913888
,0.13002522
,-0.010789515
,-0.07641688
,0.048332453
,0.020855883
,-0.047167923
,0.00071238878
,0.060998175
,-0.067147411
,0.090257585
,0.00780692
,-0.011907467
,0.021021567
,0.049401727
,0.0558884
,-0.15219507
,-0.072608083
,0.006625751
,-0.030209487
,-0.037792157
,-0.022761745
,0.15304236
,0.01644559
,0.067922883
,-0.051998992
,0.12606871
,0.15408111
,-0.080196112
,-0.017258892
,-0.005472864
,-0.0029454175
,0.057065938
,0.016744563
,-0.072853647
,0.011303885
,0.064547852
,0.014841922
,0.015419299
,0.00755204
,0.32849926
,-0.083168738
,-0.031095197
,0.01431364
,-0.086039349
,0.016074371
,-0.038887005
,-0.061794832
,-0.038451929
,-0.017390389
,-0.016522544
,-0.020953981
,0.0032511272
,0.0076218713
,0.035968244
,-0.061505802
,0.046496581
,0.007103838
,0.0045901635
,0.089789286
,0.30425012
,0.0018348478
,-0.055104863
,0.0037883243
,-0.11753923
,-0.10439292
,-0.14662988
,-0.058328744
,0.068499528
,0.01331191
,-0.021961151
,0.0823893
,0.16748039
,-0.0057777031
,0.011932489
,-0.084739558
,0.12497833
,0.1192999
,0.010744225
,-0.013024868
,-0.0061512832
,-0.085881375
,0.0093414932
,-0.0364129
,-0.0088233128
,0.21244326
,0.028769441
,-0.10497075
,-0.066093959
,0.064670764
,0.15961196
,0.2812306
,-0.028266197
,-0.037498564
,-0.074641317
,0.17645599
,0.0075315773
,-0.015284754
,-0.10992359
,-0.094302237
,0.045297273
,-0.013112743
,-0.00810761
,0.099552639
,-0.017288389
,-0.026944501
,0.031826366
,0.014613646
,0.016605865
,-0.068487391
,0.001713339
,-0.020775558
,0.061357625
,-0.022958798
,0.088234968
,0.32320124
,0.14177977
,-0.085674256
,-0.023491293
,-0.057263706
,0.25287256
,0.017480755
,-0.094656058
,-0.066032633
,0.070900314
,0.12464418
,0.058208331
,0.087330095
,-0.078813583
,-0.003815287
,-0.036651444
,0.03878006
,0.031359766
,0.014896778
,-0.00018324354
,-0.066957623
,-0.16832112
,-0.0048901779
,0.076556623
,0.055057205
,0.20219097
,0.17730604
,-0.024446832
,-0.027869441
,-0.02640285
,0.061553493
,0.059883468
,-0.0055317408
,-0.031747658
,0.012028801
,0.086779989
,0.069647
,-0.026918862
,-0.0015237551
,-0.059475366
,0.046961576
,0.062696889
,0.045123309
,0.010830731
,-0.034951411
,0.043391135
,-0.10448555
,0.013948222
,0.023773909
,0.044922158
,0.19147481
,-0.0053045629
,0.022601442
,-0.007878988
,-0.10447671
,0.019986009
,0.017564051
,0.026894374
,-0.027467158
,-0.064704612
,-0.037004154
,0.12661418
,0.0762789
,0.01138036
,-0.042250492
,0.045432717
,-0.014953346
,0.028872756
,0.057221111
,-0.010722215
,-0.027324682
,0.047579844
,-0.055506729
,0.068052635
,0.030269222
,0.18639112
,-0.038189013
,0.0017600341
,-0.065325186
,-0.064751841
,0.11854894
,-0.0564729
,-0.029951045
,-0.003944505
,0.023806751
,0.0022885667
,0.051780075
,-0.022317545
,-0.028155044
,-0.00064305303
,0.034116212
,0.036316063
,2.9946277e-06
,-0.046994772
,-0.043121137
,0.18045725
,0.15551874
,-0.026368992
,-0.041469097
,-0.00062311196
,0.055002768
,0.036626384
,-0.086410873
,-0.00089929748
,0.027634902
,-0.12326202
,-0.098658442
,0.00096203893
,-0.0078188162
,0.0077662547
,-0.036212023
,-0.0056459252
,0.14162403
,0.11664929
,-0.047071464
,-0.047664169
,-0.028129535
,-0.036405079
,-0.034576837
,-0.0627662
,0.12875132
,0.065552354
,0.046051264
,-0.090638272
,-0.038294092
,0.024373056
,0.065435238
,0.025912503
,-0.080778942
,-0.045838915
,0.053631011
,0.11181339
,0.050591342
,0.030622378
,0.032856148
,0.032230716
,0.068470925
,0.048345443
,-0.049611431
,0.024335481
,0.084493987
,-0.026249511
,0.043727521
,0.08457955
,0.099439494
,0.22905542
,0.048117362
,0.092345536
,0.0293704
,-0.03964676
,0.056199186
,-0.051398091
,-0.0017365579
,-0.07896252
,-0.028723897
,-0.10360106
,-0.036162555
,0.031783041
,-0.061008196
,0.028360164
,0.051190369
,-0.062458482
,-0.029091395
,-0.023795286
,0.005540478
,0.072489038
,0.10896786
,-0.012242254
,0.080971181
,-0.024000099
,-0.063270748
,0.014859144
,0.023086149
,-0.021000165
,-0.020107042
,0.036622938
,0.0081008859
,0.04248872
,0.040282492
,-0.014778893
,-0.042358082
,-0.05193432
,-0.06390024
,-0.043292705
,0.017124331
,-0.025851864
,-0.034015812
,0.00451838
,0.021408085
,0.10364643
,0.0087968288
,-0.032195095
,0.087813586
,-0.032017212
,0.048619036
,0.10426803
,0.070549145
,0.07590723
,-0.014530502
,0.085730724
,-0.020394174
,-0.02379106
,-0.020333696
,-0.036441021
,0.033230081
,-0.088891052
,-0.072487585
,-0.03433599
,-0.021542881
,0.021642465
,0.038012549
,0.032168176
,-0.060361128
,0.029214166
,0.047183104
,0.044568509
,-0.040271088
,0.084607862
,0.0717255
,0.0057852175
,-0.00015114737
,0.027269645
,-0.027439194
,0.064990364
,-0.021484107
,-0.016807282
,-0.015311924
,0.075915277
,0.00033138855
,0.012355443
,-0.062090751
,-0.080925576
,-0.089359358
,-0.04688628
,-0.01865937
,0.032840163
,0.029855467
,-0.033879679
,0.024580762
,0.038357243
,-0.041168369
,-0.0013087711
,-0.043096792
,-0.045061018
,0.068620808
,0.15702137
,0.096345752
,0.056766141
,-0.020238891
,-0.037022114
,-0.04632337
,0.016859192
,-0.025947629
,-0.079131611
,0.027405772
,-0.042279996
,0.021650584
,0.020436835
,-0.11125775
,-0.055103004
,0.069861025
,0.019614995
,-0.057810042
,0.034084797
,0.053710993
,0.015184831
,-0.041345295
,0.043844573
,0.32252368
,0.17473583
,-0.052740324
,-0.036517508
,-0.041102614
,0.0033082541
,0.12417317
,0.019802313
,-0.0094764028
,-0.046552528
,-0.091936521
,0.024340965
,-0.066172279
,0.071936242
,-0.036433458
,-0.056903612
,-0.0097069675
,-0.090239532
,-0.067681633
,-0.052365378
,-0.082419962
,-0.043404907
,-0.051662542
,0.057398178
,-0.073733166
,-0.034957096
,0.28904623
,0.22568762
,0.10498864
,-0.031666242
,-0.059345908
,-0.087488741
,-0.055348888
,0.071661852
,0.034584634
,-0.14801353
,-0.027528079
,-0.13027205
,0.0023630648
,-0.041796219
,-0.032761674
,-0.063332215
,0.001360201
,-0.12622279
,-0.037454557
,0.052530333
,-0.030181676
,0.072513267
,0.073616952
,-0.038427491
,0.0503582
,0.10746787
,0.12342224
,-0.0034982967
,-0.024810869
,-0.068661854
,0.0040105912
,0.0054634223
,0.081509084
,-0.0052883341
,-0.013142299
,0.018477732
,-0.015353446
,-0.0689609
,0.072080873
,-0.044099748
,-0.073387235
,0.0059911036
,-0.037523892
,0.040143549
,0.15170074
,0.019542692
,0.046235535
,0.020207552
,-0.078624658
,0.044301502
,0.15167986
,0.076703951
,0.08471901
,0.049624506
,-0.12257346
,0.0056142253
,-0.037293147
,0.018422645
,-0.0650315
,-0.10386819
,0.079856411
,-0.02580981
,-0.065748572
,-0.044360597
,-0.074697629
,-0.036446825
,-0.033012815
,-0.0786767
,0.061539944
,0.089223109
,0.098734528
,-0.083745331
,-0.027216921
,0.031560119
,0.094318636
,0.14072347
,0.046429068
,0.090643704
,-0.038787827
,-0.016343949
,0.064300582
,0.059185002
,0.099291295
,-0.064699732
,-0.044543914
,0.081378564
,-0.008802481
,-0.038606461
,-0.074880011
,-0.075733908
,-0.059306934
,-0.016036946
,0.046060629
,0.035838127
,-0.024760086
,0.00663339
,0.13632071
,0.027730305
,0.081980392
,0.088062756
,0.067413017
,-0.0736776
,-0.051211763
,-0.047296714
,-0.040759631
,0.14772229
,0.027747856
,0.0170875
,-0.02294375
,-0.08892972
,0.042744331
,-0.097111411
,0.025658928
,-0.027630441
,0.0051289522
,0.00086681859
,-0.066451721
,-0.0033593709
,0.032668293
,-0.028548345
,0.11474288
,0.010266688
,-0.035348095
,0.043932807
,0.15134883
,0.11680856
,-0.052748714
,0.0029262044
,0.00078132533
,-0.0097442288
,0.01376523
,0.066728674
,-0.019807644
,0.0184803
,-0.12486233
,-0.0034188309
,0.010838575
,0.022346146
,0.0084320493
,-0.0036728883
,0.0082836291
,-0.0050573824
,-0.064005569
,-0.075370125
,-0.088805474
,-0.052203115
,0.06432198
,0.045370106
,-0.011120606
,0.052147958
,0.02333382
,-0.040815938
,-0.027869077
,0.01472565
,-0.068718337
,0.07070218
,-0.01786067
,0.08725258
,0.028957626
,-0.0070273103
,0.062512159
,-0.027986459
,-0.01762889
,-0.047647879
,-0.046749812
,-0.03337273
,-0.0021002737
,0.029684164
,0.052022804
,0.043376923
,0.037177775
,0.025598278
,0.031522326
,0.13637017
,0.084004216
,0.10280187
,0.21293259
,0.13292365
,0.04913339
,0.034748439
,0.035598371
,-0.047639556
,-0.11185249
,0.068551414
,-0.04252129
,-0.12915371
,-0.086856358
,0.0091257887
,0.035332464
,-0.03761965
,-0.018786786
,0.024625918
,0.0054339059
,-0.00917483
,-0.073171042
,0.050012767
,0.011839079
,-0.083693
,0.042260863
,0.2025892
,0.22335833
,0.048723705
,0.063534535
,-0.058788382
,-0.037924513
,0.11692503
,0.17398861
,-0.015806142
,-0.094428509
,-0.068612017
,-0.0034968371
,-0.040301159
,-0.047687788
,0.0005454715
,-0.075883783
,0.0077771596
,-0.0036652107
,0.030369313
,0.022337509
,-0.011436441
,-0.10088841
,0.028506817
,-0.036674637
,-0.033315308
,0.19661447
,0.26183045
,0.15503629
,0.0391466
,-0.0087493947
,-0.02592406
,0.0029267846
,0.072305858
,-0.040156584
,-0.015070657
,-0.040167604
,0.10029794
,-0.079824187
,-0.013818184
,-0.045514543
,-0.083187774
,-0.067487322
,-0.042460848
,-0.014799281
,0.037259202
,-0.044794295
,-0.022278607
,-0.034203812
,-0.075989708
,-0.033735663
,0.057758953
,0.17026874
,0.021630242
,0.016819438
,0.0026415223
,-0.0090041794
,-0.0035116135
,0.029526841
,0.068139739
,-0.0019902964
,-0.15878132
,0.04501348
,-0.091376424
,0.0673004
,-0.028604362
,0.017262107
,0.034225106
,-0.04187271
,-0.07858485
,-0.018926756
,-0.0049653924
,-0.065924279
,0.039837062
,-0.057263564
,0.025398761
,0.24581291
,0.16996802
,0.099581726
,0.12949385
,-0.0896379
,-0.0054576686
,0.038903244
,0.078461543
,0.0066930936
,-0.030428212
,-0.085627213
,0.022582842
,-0.029757962
,0.072731316
,-0.068834275
,-0.079834707
,-0.01061268
,-0.056544829
,0.010704095
,-0.041022133
,-0.077035651
,0.010145055
,0.12687165
,0.13875186
,-0.029561711
,-0.04338548
,-0.061349608
,-0.052003946
,-0.048621897
,-0.00042509375
,-0.034552675
,-0.071529269
,-0.10988279
,-0.012581602
,-0.0041705924
,0.0040526879
,-0.03686557
,0.060667798
,-0.012796908
,-0.015321558
,0.0088722864
,0.055415656
,-0.041276742
,-0.062820271
,-0.055698659
,0.091526575
,-0.020963293
,0.026349558
,-0.018788787
,0.014495717
,-0.019608224
,0.05937095
,-0.058910508
,0.03099802
,-0.085057825
,-0.098066986
,0.039106473
,-0.01788321
,-0.047762297
,-0.056784239
,0.022960745
,0.018602338
,-0.096739911
,-0.083442375
,0.01915154
,0.023182085
,0.041994102
,0.046857949
,0.078283913
,0.069055326
,-0.042181265
,0.066641755
,0.057537407
,0.0094436537
,-0.020562995
,0.0020265533
,0.053485829
,-0.0061713988
,0.016495489
,0.14065184
,-0.082073025
,0.052226827
,-0.038243297
,-0.038280867
,0.015812255
,-0.021670533
,-0.090834528
,0.045595828
,0.085013554
,-0.044063695
,-0.033476889
,0.0023151066
,0.018826274
,0.042495698
,-0.026500246
,0.027025079
,0.063636936
,-0.0030031241
,-0.078420117
,0.10136487
,-0.014093595
,-0.058665968
,0.058912259
,-0.1319719
,-0.067562409
,-0.080491617
,0.0070886686
,0.061398908
,0.089043811
,0.026132779
,-0.024382094
,-0.010130499
,-0.073391572
,-0.030953718
,-0.01369433
,0.055784587
,-0.0469141
,-0.023574628
,0.0015092017
,-0.069442719
,0.011667908
,0.054879848
,0.046073902
,0.12973094
,-0.14575125
,0.047676213
,0.053731486
,-0.0448125
,-0.0030887239
,0.043824039
,0.055768371
,-0.12185928
,0.11674685
,-0.11441477
,-0.061806668
,-0.055445533
,-0.12764412
,0.14722849
,0.041024745
,0.038541321
,-0.019127809
,0.037844054
,-0.080083616
,0.093071252
,0.046502713
,0.14306213
,-0.012903112
,-0.0024864818
,0.064179689
,0.11609175
,-0.065375179
,0.00912358
,-0.045203835
,0.019664984
,-0.092853539
,0.00080068654
,0.004169194
,0.0069445069
,0.039250698
,-0.069734454
,-0.033262055
,0.0010115086
,0.01049283
,-0.015957946
,-0.024143055
,-0.068429314
,0.025953103
,0.0181405
,-0.033862226
,0.016616538
,0.025051167
,0.11145334
,0.041577611
,0.094177537
,-0.10284694
,0.045951441
,0.063678965
,-0.050325528
,-0.0025006919
,0.0333869
,-0.019402642
,-0.048371222
,0.07322266
,-0.081808172
,-0.014047223
,0.0038094367
,0.011088927
,0.079748221
,0.10685711
,-0.01968934
,0.00694376
,0.0028076388
,-0.065797023
,-0.0037243217
,0.12722367
,0.040463723
,0.12809065
,-0.058105331
,-0.062435459
,0.0081432564
,0.047470849
,0.027118139
,0.00015420298
,0.057907149
,-0.086017087
,-0.010356873
,0.02475984
,-0.051202014
,-0.019702867
,0.01909096
,0.0042817341
,-0.0087261964
,0.011427924
,0.046522286
,-0.013735436
,-0.022432931
,-0.011136755
,0.028276527
,0.065145046
,-0.040569417
,0.020797331
,0.11891799
,0.067747362
,-0.0028150179
,-0.077427842
,0.060738236
,0.057939865
,-0.12002676
,0.10008966
,-0.035477657
,0.017002117
,-0.011613265
,-0.13321055
,-0.09525355
,-0.05851575
,-0.027474064
,-0.09320721
,0.051630449
,0.12635563
,-0.0807692
,0.0710057
,0.012515428
,-0.065388434
,-0.047141317
,0.18881124
,-0.10406701
,0.1694852
,-0.016943347
,0.10297839
,-0.090981089
,-0.065984547
,-0.047857545
,-0.036426656
,-0.10608017
,-0.0011022452
,-0.064447694
,-0.070152305
,0.039904226
,-0.11567795
,-0.040425807
,-0.00095449941
,-0.045130949
,0.0027302834
,0.044819437
,0.027593423
,0.012464413
,0.12547332
,-0.085320331
,0.098819777
,0.08872892
,0.06234194
,0.040581126
,0.017476652
,0.062404264
,-0.073663995
,-0.020575447
,0.042410195
,-0.026451124
,0.028804149
,0.020997882
,0.0059358431
,-0.012277197
,0.06371358
,-0.08048562
,-0.068744794
,-0.03703269
,0.044777211
,0.12027902
,0.12832399
,-0.00047914239
,-0.010102887
,0.016738959
,-0.088274091
,-0.031951774
,0.15735351
,0.034057081
,0.14882345
,0.022340979
,0.074841663
,-0.087534346
,-0.0018077128
,-0.030664533
,0.037495185
,0.10084268
,-0.021073008
,0.10679372
,-0.078767851
,-0.017502686
,-0.034837045
,-0.07949771
,-0.019993952
,-0.018174924
,0.11205003
,-0.03983745
,0.031011727
,0.0047268234
,0.066595323
,-0.033385586
,0.099871494
,-0.0084426869
,-0.015543919
,-0.042556912
,-0.085913643
,0.064125925
,-0.016841685
,0.031381369
,-0.056152396
,-0.084280707
,0.079119615
,-0.11965661
,0.059644327
,-0.040525567
,0.15958741
,0.01451153
,0.044368472
,0.0038038823
,-0.008536784
,-0.098029643
,0.0049922061
,-0.022835383
,0.072230779
,0.094525449
,0.0721735
,0.039900217
,0.08070302
,0.024554564
,0.18198322
,0.037486572
,-0.10677551
,0.086295515
,-0.023490654
,0.054146215
,0.042001434
,0.093919232
,0.03422327
,0.019122798
,0.027534533
,-0.00042487148
,-0.03490549
,-0.017286198
,-0.036722921
,0.035387348
,0.016145615
,0.014633236
,-0.036771525
,-0.024455439
,-0.055738334
,-0.052300394
,-0.003991337
,0.0056322832
,-0.005406267
,0.067300834
,-0.027366044
,0.037993055
,-0.051637415
,0.020609552
,-0.1112099
,-0.059232112
,-0.0097720595
,-0.069674857
,-0.061268274
,-0.047636211
,0.068783395
,-0.0044857245
,0.037720837
,0.020490946
,-0.0051682941
,-0.044128947
,0.00086093083
,0.0091583245
,0.02894805
,0.053350888
,-0.014374957
,0.044353377
,-0.0059575913
,-0.0047912821
,0.022388918
,-0.012160922
,0.027279506
,-0.017733229
,-0.054621615
,0.014206576
,-0.030392693
,-0.11057538
,0.15831909
,-0.009723058
,-0.032623604
,0.00033002658
,-0.083674714
,-0.032974597
,-0.030469848
,-0.058255382
,0.11237525
,0.086273551
,0.055380449
,-0.032013338
,0.033552829
,0.02943969
,-0.00375521
,-0.029597301
,0.11420425
,0.0059490292
,0.074787073
,-0.067427777
,-0.048607949
,0.030611943
,-0.049391374
,0.06010069
,0.10877872
,0.036547776
,0.016938305
,0.0049300152
,-0.024028767
,-0.049869619
,-0.057992913
,-0.052254315
,-0.02513024
,0.069095165
,0.0020697906
,-0.013117237
,0.03399967
,0.02616887
,0.024768615
,0.032516688
,0.008636673
,-0.00689764
,0.09017171
,0.063703917
,0.0020588671
,-0.0506673
,0.10916843
,0.013211528
,0.073962405
,0.15447675
,-0.00017934853
,0.0052553243
,0.0099273184
,-0.068175651
,-0.0056144618
,-0.021466488
,0.010570246
,-0.035594802
,0.090157844
,0.018820528
,-0.041516557
,0.019840581
,-0.00881596
,-0.021214746
,0.088554248
,0.050842572
,-0.015927332
,0.11362389
,-0.059272468
,0.026953904
,0.038158488
,0.019663958
,0.10232874
,-0.067252658
,0.0988563
,0.0070817037
,-0.017232867
,-0.04968074
,-0.090475664
,0.019910621
,-0.043633413
,-0.041715994
,0.042090405
,0.088732213
,0.036001571
,-0.013417545
,0.0024726079
,-0.0019592694
,0.0038641677
,0.006084084
,0.12524062
,-0.031075219
,0.090787917
,-0.038119927
,0.0074728685
,0.033021718
,0.023346934
,-0.027178701
,0.0037515205
,0.13877547
,-0.083252214
,0.017381079
,0.029328115
,-0.047468126
,0.09015771
,-0.012382346
,-0.036262289
,-0.027084131
,0.12761742
,-0.087973654
,0.061390553
,0.0065868394
,-0.048789788
,0.10823446
,0.060430415
,-0.0007237044
,0.069904283
,0.082679018
,-0.0096987952
,-0.040705971
,0.002790445
,-0.04784219
,-0.04159683
,0.034478534
,-0.080419719
,-0.056988314
,0.012126997
,-0.010070272
,0.0079541421
,0.10311979
,0.016090151
,-0.0855523
,0.0069896779
,-0.11737755
,-0.061385844
,-0.0022598668
,0.0041248845
,-0.0032041178
,-0.0051776869
,-0.13182676
,0.055152278
,0.017963497
,0.013405075
,0.00246116
,0.10570423
,-0.04867832
,0.008631384
,-0.12886094
,-0.052662298
,-0.073221222
,-0.05057073
,0.049332183
,-0.034111556
,0.10018536
,-0.13977194
,0.03395227
,-0.02707345
,-0.045421712
,-0.0090958858
,0.0782155
,-0.016183453
,0.021068661
,0.089038894
,0.0081771826
,-0.034717277
,-0.039266292
,0.072509147
,-0.014888245
,0.19696997
,0.13838555
,0.13707298
,0.065608405
,0.14388268
,0.058653936
,-0.0058720554
,0.095594078
,0.15559781
,0.049404923
,0.1179119
,0.0048083868
,0.0376476
,-0.037490197
,0.054495368
,0.13038425
,-0.069319122
,-0.053078592
,0.019609919
,-0.041252144
,0.063415371
,-0.011651888
,0.037280247
,-0.033294614
,-0.087590747
,-0.0034765033
,0.014749793
,0.1346491
,0.19468851
,0.14869125
,0.14880052
,0.14813311
,0.025207737
,0.013691928
,-0.067927115
,-0.014455449
,-0.046889573
,-0.080207817
,0.085885964
,0.073298931
,0.047567535
,-0.073238723
,0.017969899
,-0.0027161236
,-0.064668939
,-0.074389711
,-0.044062566
,0.032119777
,0.063027278
,0.0075781192
,0.032093011
,0.025927398
,0.13172416
,0.2302746
,0.065852709
,0.002855168
,0.027769655
,0.20660482
,0.19908866
,0.34683612
,-0.073121972
,-0.023436328
,0.0015298976
,-0.016437972
,-0.11420914
,0.03921622
,-0.011188166
,-0.155845
,0.070508324
,-0.00034884314
,-0.030871922
,0.0052095368
,-0.026249314
,-0.077010587
,-0.026104962
,0.13995372
,0.022129824
,0.20136748
,0.16146529
,0.031173244
,0.095945738
,-0.051001333
,-0.0067660091
,0.14035423
,0.16343622
,-0.029064583
,-0.038540572
,0.03681175
,0.10625467
,0.064889468
,-0.030618086
,-0.088605762
,-0.01991225
,-0.029931858
,-0.10222022
,-0.017852427
,0.06467355
,0.0774556
,-0.038857773
,-0.076321654
,0.15360375
,0.02993517
,0.14813595
,0.086179674
,0.023027085
,-0.02301066
,0.040420074
,0.028781127
,0.17234565
,0.33916554
,0.078705065
,0.059475653
,0.0020719459
,-0.011344129
,-0.17185813
,-0.0589686
,-0.11252221
,-0.0064456249
,0.020513562
,0.019688398
,0.074797757
,0.040124189
,0.017817535
,-0.040794693
,-0.0038604192
,0.091521382
,0.072126813
,0.16164322
,0.22484218
,0.157754
,0.081465274
,-0.01198515
,0.075529292
,0.014725901
,0.23523466
,0.060716946
,-0.035977032
,0.041412063
,0.14150612
,0.059792176
,-0.020318735
,-0.05399007
,0.033656795
,-0.097987883
,-0.19128317
,-0.028238861
,-0.057150774
,-0.015493372
,-0.048655536
,-0.019234816
,0.098541856
,0.059853062
,0.08676555
,0.010174561
,0.037454437
,-0.057182658
,0.056771148
,0.11576694
,0.31491724
,0.21160337
,-0.015896836
,0.05066577
,-0.024725283
,-0.14696492
,-0.042363726
,0.070244
,-0.074061878
,0.020056712
,0.058755856
,0.036709495
,-0.032381319
,-0.0013788512
,-0.059994172
,0.012946957
,0.028141718
,0.15896076
,0.060556132
,0.14909677
,0.12489384
,0.290517
,0.0018846868
,-0.0687407
,0.15711741
,0.22674742
,0.19250873
,0.045176759
,-0.018516367
,-0.068216704
,0.055309825
,-0.2216711
,0.003061604
,-0.036265347
,0.039135121
,0.0033626654
,0.082967356
,-0.020621303
,0.054169081
,0.023973813
,0.059672665
,0.11913586
,0.12761793
,0.038286194
,0.12934032
,0.027716385
,0.093443006
,-0.012969397
,-0.07634519
,0.076057389
,0.25327808
,0.25801259
,0.15597264
,0.00815645
,-0.084249675
,-0.10857384
,-0.19349654
,-0.11943789
,-0.073989719
,0.080400974
,-0.050795685
,0.064820334
,0.023525581
,0.057590682
,0.047533382
,-0.0022893858
,0.16696273
,0.052259084
,0.049048044
,0.11280158
,0.13504227
,0.093440212
,-0.098237604
,0.024104655
,0.10913879
,0.080395721
,0.15926975
,-0.10760992
,-0.049670849
,0.091709524
,-0.051726263
,0.063262612
,0.061700743
,0.12817927
,-0.0040276814
,-0.028032506
,-0.075361885
,-0.092243575
,-0.041218977
,-0.11016423
,-0.030452264
,0.021776224
,-0.167462
,0.1099425
,0.15609677
,0.28604892
,0.30206406
,0.086419813
,0.10651718
,0.12776703
,0.020906229
,0.073081829
,-0.17108384
,-0.00098193658
,0.076831467
,0.096459933
,0.083896048
,-0.011697782
,-0.061167821
,0.018701633
,-0.0785655
,0.0060218042
,-0.0078359433
,-0.028089274
,0.10359592
,0.095055006
,0.056643568
,-0.0019401482
,0.013719168
,0.016112398
,0.036393862
,0.04128319
,-0.033372033
,-0.088391162
,0.015975049
,-0.022854744
,0.12433133
,0.047571462
,-0.00524734
,0.11242717
,0.1502362
,0.15944968
,0.053252913
,-0.026816458
,0.0034365137
,-0.021095265
,-0.102906
,-0.057861943
,-0.037306048
,-0.064949654
,-0.090318508
,-0.089915484
,-0.04749186
,0.069199577
,0.26101917
,0.21699694
,0.30428937
,-0.022583345
,-0.0014334059
,0.12611891
,0.17569527
,-0.0072933477
,-0.10257711
,0.04457863
,0.054322142
,0.029614732
,-0.021191275
,-0.135375
,0.0046282546
,-0.026900969
,-0.0080426624
,-0.051886033
,0.0021483179
,-0.035401065
,0.093743622
,-0.0042366856
,0.07397034
,0.1519933
,0.068715468
,0.10677041
,0.16203626
,0.062902287
,0.039911434
,0.05366588
,0.21104965
,0.15933484
,0.17940405
,0.016493862
,-0.00019273424
,0.020506788
,-0.10934817
,-0.011534142
,0.0065268679
,0.0028508126
,-0.18528691
,0.0067900331
,-0.081719473
,0.00014264211
,0.0081410687
,-0.037812714
,0.032722466
,-0.054146413
,0.15318245
,0.13405631
,0.14746252
,0.01821636
,0.24314725
,0.079342611
,0.014999931
,0.053968497
,0.10185863
,0.086098678
,-0.055024669
,0.040989835
,0.040832732
,0.096786141
,0.069896914
,0.16838647
,0.020954149
,-0.04413205
,-0.033920147
,-0.21407199
,0.012933256
,-0.17095566
,-0.10878214
,-0.066463023
,-0.0048908875
,0.080763012
,0.046538267
,0.1664587
,0.19990543
,0.19054164
,-0.14686108
,0.036884297
,0.11156731
,0.15001093
,0.25956097
,0.026769716
,0.0091817733
,-0.04630724
,0.055625051
,0.13504018
,-0.0020298164
,0.08848998
,0.027657742
,-0.063079879
,-0.22111887
,0.01224794
,-0.072875552
,-0.11706561
,0.055946574
,0.05998696
,0.074902579
,0.047773514
,0.052566793
,0.14261492
,0.11042645
,0.02805537
,0.021366078
,0.016774483
,0.18732256
,0.11751033
,-0.044480074
,-0.015532696
,0.027120678
,-0.039999276
,0.024046011
,-0.045399718
,-0.070823349
,-0.026522366
,-0.075724348
,-0.018920096
,-0.04492902
,0.020886516
,-0.0033324829
,-0.076970637
,0.041552208
,0.023230234
,0.10990921
,0.10533781
,0.2041823
,0.065143071
,-0.092333704
,0.045615975
,0.1444242
,0.14531933
,0.26476341
,0.048880756
,0.0090278387
,-0.021137726
,0.047729041
,0.11419505
,-0.04096378
,0.017149048
,-0.0089586983
,-0.091007076
,-0.16131969
,-0.054244928
,0.090342976
,-0.011202767
,0.024732262
,-0.0057404693
,0.017593639
,-0.022440815
,-0.052292917
,0.036322288
,0.0700387
,0.1112211
,0.13688619
,-0.11240843
,-0.019243367
,-0.0727309
,0.070491426
,-0.10328227
,-0.015747184
,0.03049198
,0.0080741262
,-0.011660264
,0.051261548
,0.099292435
,0.049195465
,0.14468104
,-0.099199869
,-0.00809802
,0.081836507
,-0.020406283
,-0.024677373
,0.078401335
,0.17748055
,0.11958418
,0.12830749
,0.22894184
,0.094828591
,-0.10906174
,0.035429925
,-0.05954076
,0.0064068227
,-0.0011618794
,0.058575537
,-0.00011664294
,0.1074139
,0.012625904
,0.012032494
,-0.11358521
,0.01742341
,-0.037766423
,0.056053557
,-0.069982745
,0.009730841
,-0.047534402
,-0.047042631
,-0.047981896
,0.26160368
,-0.0049210447
,0.056863461
,0.084897213
,-0.072734751
,0.11227447
,0.079002969
,0.014383732
,-0.072882265
,-0.022056548
,0.12512982
,0.17491733
,-0.060197722
,0.056534465
,0.008020496
,0.23705752
,0.18980215
,0.085676961
,0.016894197
,-0.023907676
,0.12094338
,0.013842634
,0.047108334
,0.036521729
,-0.0050621168
,0.025363112
,0.10568015
,0.083415151
,-0.0048740585
,-0.076564543
,0.18749127
,0.059114415
,0.12730443
,0.035130609
,-0.016248688
,0.091959231
,0.036898904
,0.068011016
,-0.068613835
,-0.083877608
,0.092281
,0.0091262842
,-0.13763689
,-0.021470727
,-0.069998123
,0.082922816
,0.0095346523
,0.028987609
,0.11552322
,-0.04270843
,0.0957901
,-0.040901247
,0.069662385
,0.0098904809
,0.084708162
,0.20620017
,0.072608896
,0.065662131
,-0.021271678
,0.098969527
,0.13779639
,0.033424117
,0.25131497
,-0.017963473
,0.17062712
,0.16198258
,-0.050081763
,0.16659084
,-0.03759595
,0.1238269
,0.00057762454
,-0.10268201
,0.067578025
,0.029201126
,-0.13665779
,0.12435761
,0.036390673
,0.016168758
,0.0072446843
,-0.0094421078
,0.042978965
,0.22444081
,-0.057561066
,0.011894565
,-0.0063734758
,0.12166087
,0.1651476
,0.021840665
,0.049593888
,0.06007088
,0.070798986
,0.075923994
,-0.067641832
,-0.11409028
,0.023236839
,0.027588414
,-0.024460258
,0.040046215
,0.10475633
,0.029703334
,0.081596568
,0.024841029
,0.069927841
,0.023940628
,0.022260243
,0.20413303
,0.035037823
,0.089198656
,0.013409569
,0.1255279
,0.20303726
,0.17480524
,0.0074859569
,0.027424382
,-0.032228474
,0.057124127
,0.07097581
,0.00060741871
,-0.032214131
,0.057197865
,-0.080671526
,0.013137035
,0.051388495
,-0.016365923
,-0.10487534
,0.0912533
,0.082386784
,0.10361709
,0.012772899
,0.022014696
,0.095018737
,0.059454173
,-0.055031169
,-0.017077444
,0.027036579
,0.15948991
,0.093834661
,-0.0026361081
,-0.047855657
,0.046762604
,0.15944894
,0.14088412
,-0.018439464
,-0.023738371
,0.012517665
,0.066602483
,0.10099592
,-0.074783131
,-0.07961975
,0.11732565
,0.052312594
,0.016394654
,-0.022483671
,0.018443951
,0.058568526
,0.13024181
,0.092854083
,-0.05302484
,-0.066857532
,0.058691692
,0.043668706
,0.23734924
,-0.061221495
,0.078206681
,-0.061458018
,0.083868153
,0.12686187
,-0.096731424
,0.00068865862
,0.11526094
,-0.044910211
,-0.0087424191
,0.028170362
,-0.027344527
,-0.024184283
,0.20537552
,0.075243704
,0.0098407548
,-0.06870617
,0.042425361
,0.2662482
,0.11078107
,0.055067789
,0.038665742
,0.035630014
,0.23538975
,0.16696052
,-0.014242444
,0.035435174
,0.010474755
,0.14350672
,0.015793499
,-0.1135463
,0.042873405
,0.063665248
,-0.044720348
,0.027822575
,0.27859205
,0.072775207
,-0.065945081
,0.12741515
,-0.02875798
,0.036071725
,0.0067321309
,0.046759225
,0.28006822
,0.22141004
,-0.018004827
,-0.031041382
,0.098007366
,0.26090515
,0.077285826
,-0.014618305
,0.0027609761
,-0.028581502
,0.0518363
,0.0760983
,-0.11477076
,-0.025772959
,0.031953044
,-0.12072621
,-0.0025073541
,0.034058675
,0.10530475
,0.055001866
,0.069978915
,0.094571829
,0.11476548
,0.048482865
,0.015336277
,0.022522947
,-0.047336508
,-0.031277426
,-0.00991319
,0.082996242
,0.0076840934
,0.077870987
,-0.027344109
,-0.040968809
,0.091172814
,0.16302469
,0.085343048
,0.037179057
,0.0652483
,0.10652375
,-0.021087335
,0.07696151
,-0.029491147
,-0.052423812
,0.035497211
,0.037695069
,0.15777041
,0.03260272
,-0.029684715
,0.080033474
,0.20912181
,0.17230766
,0.032385387
,-0.018700106
,0.13928637
,0.18573675
,0.16556899
,-0.029566344
,-0.037768129
,0.15710585
,0.054397605
,0.12917104
,-0.033674713
,-0.000926319
,0.14582081
,0.030261314
,0.10696466
,0.024330763
,-0.06310124
,0.085912518
,0.084292315
,-0.00847109
,0.098952077
,-0.01920744
,-0.080437325
,-0.020386141
,-0.047873061
,-0.011087749
,0.00018305944
,0.0063959355
,0.082984775
,0.07144998
,0.056067787
,-0.0019157997
,0.065628491
,0.10514033
,0.043281712
,0.046841387
,0.044312246
,-0.022424664
,0.041900966
,0.0025144203
,-0.090913273
,0.006663837
,-0.00530337
,0.053084563
,0.071033567
,0.12603374
,0.05625594
,0.070672914
,0.20077696
,0.09701436
,0.12142509
,-0.054436702
,0.076531067
,0.058230374
,0.093168385
,0.04618039
,0.054963734
,-0.037785862
,0.033359338
,0.099727519
,-0.16370668
,0.0043069972
,0.091237918
,-0.010499683
,0.088232346
,0.10439442
,-0.0040914933
,0.051685009
,0.0429192
,-0.00014916333
,0.067924641
,0.028019659
,0.010205681
,0.092686951
,0.064781092
,-0.019509565
,0.051481187
,-0.08623606
,0.19864385
,0.06663923
,0.14161402
,-0.0055754827
,-0.00034068446
,0.19124104
,0.009133541
,0.17698577
,-0.059521046
,-0.030266756
,0.054940276
,-0.094714776
,0.034337904
,0.010194035
,-0.069395177
,0.074946359
,0.024525484
,0.075964555
,0.086776972
,-0.029993849
,0.12566435
,0.074103922
,-0.058888569
,-0.044309177
,0.028195322
,0.12316573
,0.12464523
,0.048320074
,-0.029424986
,0.0372882
,0.15834838
,0.23533784
,0.049603619
,0.071993671
,-0.039018728
,0.016238878
,0.058166213
,0.018808343
,-0.088241905
,0.042086404
,0.039367162
,0.086413883
,0.0907078
,0.066644162
,0.014689431
,0.041273452
,0.018602226
,-0.11584088
,-0.038460162
,0.11197825
,0.18293816
,0.042518582
,0.035209186
,-0.048411
,0.043216608
,0.17867251
,0.12355902
,0.10286478
,-0.032980051
,0.10736987
,0.084896527
,0.095963955
,0.030111041
,-0.051874768
,0.041346919
,0.0175545
,0.0660641
,0.09596803
,-0.028118901
,-0.035921812
,0.051221795
,0.14889736
,-0.10228774
,0.030607233
,0.086407132
,0.035700332
,0.27809295
,-0.04547644
,-0.043447148
,0.0058084228
,0.039024211
,0.093938075
,-0.044536676
,-0.072026633
,0.08822725
,-0.010081447
,-0.00049041968
,-0.036796402
,-0.002032026
,0.033076867
,0.02947229
,0.042208266
,0.077449605
,-0.011573654
,-0.028971368
,0.040498808
,-0.015350781
,-0.067468867
,0.01435426
,0.060644452
,0.13685109
,-0.00657904
,0.057333738
,-0.095398515
,0.10020516
,0.20831169
,0.17360455
,0.014979909
,-0.044245824
,0.062558636
,0.034797605
,0.16690569
,-0.031983137
,0.018631723
,0.12827563
,0.04055769
,0.058920406
,0.07528656
,-0.052667547
,-0.029034825
,0.070093058
,0.1373096
,0.012386386
,0.028111627
,-0.012148457
,0.011755832
,0.04019944
,-0.011590137
,-0.012453308
,-0.012946964
,-0.066703856
,-0.018716507
,-0.012947358
,0.0895227
,0.042069882
,-0.024032503
,-0.064902246
,-0.095993347
,-0.045946997
,0.02625378
,0.030295463
,0.057901133
,-0.017946379
,-0.071585819
,0.15494306
,0.050486784
,0.056412973
,0.068023726
,-0.10511299
,0.057999138
,0.084008433
,0.040826466
,-0.045394924
,0.069740057
,0.13962875
,0.087869182
,-0.0030633586
,0.026766306
,-0.011968547
,0.018281065
,-0.067468978
,-0.061708551
,0.0019133873
,-0.030066891
,0.010118165
,-0.11200863
,-0.071080856
,-0.032261755
,0.0073684119
,0.0022820637
,0.090370446
,-0.039734039
,0.0043393178
,-0.060098581
,-0.013742357
,0.033124432
,-0.039590225
,-0.018352415
,-0.035152655
,-0.0083147706
,0.10587787
,-0.053242333
,0.022844108
,0.071002185
,-0.071093626
,-0.10807928
,-0.042837188
,-0.029933983
,0.066399857
,-0.049602624
,0.074978068
,-0.0076200669
,-0.034740351
,0.052915879
,-0.037631426
,-0.032693047
,-0.0058373441
,-0.037984222
,-0.03874182
,-0.020097541
,0.08682061
,-0.02026201
,-0.019998383
,0.0095354011
,-0.081388615
,0.01408114
,-0.027225439
,-0.031675741
,0.049152695
,0.034220632
,-0.057823826
,-0.039084893
,0.035725553
,0.068523832
,-0.042883366
,-0.019499343
,-0.07522279
,0.041767154
,-0.015059694
,0.0058771749
,0.10460917
,-0.040176477
,-0.025430746
,0.039003845
,-0.010748659
,-0.036442377
,-0.02422169
,-0.11034454
,-0.037321262
,-0.028432263
,-0.00038290155
,-0.026259076
,0.0007785632
,0.016708963
,-0.10898758
,0.072486006
,-0.011047726
,-0.025562648
,0.048127133
,-0.0034737012
,-0.025081258
,0.017055521
,-0.030260183
,0.022129279
,0.0035395254
,0.052195575
,-0.0017996186
,-0.079708979
,0.027791644
,0.06232734
,-0.033697568
,-0.02575794
,0.072446823
,-0.055680864
,-0.060824271
,-0.06177561
,-0.048042193
,0.048846003
,0.020124376
,-0.069230378
,-0.17646526
,0.072964296
,0.14203693
,0.0027548911
,-0.010802725
,-0.10604871
,-0.016070662
,-0.028536029
,-0.010623958
,-0.0668442
,0.088704109
,-0.0016765196
,0.067962535
,0.036161233
,-0.018276423
,-0.07065805
,-0.016070651
,-0.10637685
,-0.022306398
,0.0027881784
,-0.013649691
,-0.066433668
,0.021295441
,0.019322194
,-0.010659178
,-0.013352403
,-0.055964287
,0.03121062
,0.014070524
,-0.067827411
,-0.061827827
,-0.0017402625
,0.10163571
,0.023276355
,-0.059381042
,-0.098161206
,-0.04586897
,0.090889625
,0.047974952
,-0.090870708
,-0.0354026
,-0.008211907
,0.042693228
,0.0610956
,-0.026582984
,-0.017805235
,0.059538979
,0.063146479
,0.024768261
,-0.0754699
,-0.065014616
,0.1173998
,0.02528199
,-0.022877431
,-0.035346225
,-0.1188796
,-0.024996106
,-0.044756539
,-0.02846173
,-0.04347435
,-0.031749908
,-0.093562491
,0.004880283
,-0.03369784
,-0.039491851
,0.096267976
,0.0049818354
,-0.10144134
,-0.01355084
,0.07346604
,-0.067941368
,0.015096772
,0.088809133
,-0.081726879
,0.03916014
,-0.015774837
,-0.026974576
,0.03435627
,0.032453455
,-0.038867064
,-0.0343602
,-0.044400807
,0.026419887
,-0.080112912
,-0.022510605
,0.034870751
,-0.053929862
,-0.026102044
,0.068132244
,-0.060903195
,-0.015069519
,-0.007650591
,0.057692505
,-0.021270763
,-0.074680232
,-0.063731045
,0.036903225
,0.2064375
,0.018752113
,-0.073225714
,0.019233
,0.078948811
,0.090820089
,0.036803205
,-0.006075168
,-0.0057519111
,0.0021805766
,0.012247481
,0.048053853
,-0.058101792
,0.033240836
,-0.061036117
,0.028320905
,0.024736568
,-0.045259032
,0.021094056
,-0.052402075
,0.052192349
,0.069401272
,-0.058212116
,-0.1800902
,-0.0044724606
,0.11674811
,-0.076278269
,-0.062017363
,0.010780765
,0.067148238
,0.041658957
,0.0022900747
,-0.075130992
,-0.095383614
,-0.02474284
,0.024855541
,0.011378219
,0.018290862
,-0.042070329
,-0.012598525
,0.05228826
,0.0288234
,0.001397242
,0.025278646
,0.051025305
,-0.057866521
,-0.0010513858
,0.012201985
,-0.027154058
,0.038460936
,-0.045960031
,-0.048503887
,-0.048470277
,0.093688063
,0.054450355
,-0.027519787
,-0.015309923
,-0.039511461
,-0.081006594
,0.072367907
,0.064939067
,0.092543721
,-0.020018695
,-0.15339762
,-0.045280762
,0.014958021
,0.024553545
,-0.043666348
,-0.065767489
,0.022820609
,0.12445926
,-0.014960706
,-0.028906751
,-0.089734465
,0.096674949
,0.058881965
,-0.0068443124
,-0.063979372
,-0.099202052
,0.088424116
,0.14427237
,-0.099109896
,-0.013357378
,-0.066524826
,0.00087405235
,-0.0098809646
,-0.041195858
,-0.065568909
,-0.02546799
,-0.053910632
,0.029439526
,-0.01326927
,-0.023018366
,-0.0096659567
,-0.10964271
,-0.02339719
,-0.0044085784
,-0.043629952
,0.054959767
,-0.078375965
,-0.023546714
,0.015033594
,-0.036072988
,-0.064369425
,0.046245605
,0.079170093
,-0.078240775
,-0.078079782
,-0.021552669
,-0.042705305
,0.025747627
,-0.049227279
,-0.054527014
,-0.06302914
,-0.04990926
,0.038815543
,0.047260035
,-0.05251614
,0.0093479054
,0.016855711
,0.03504438
,-0.0023575474
,-0.016645128
,-0.053564787
,0.029104291
,0.098014146
,-0.054962851
,0.0397213
,-0.049436275
,0.099306025
,0.0939215
,-0.011332376
,-0.049688276
,-0.1182308
,-0.088101968
,-0.0060314955
,-0.083967656
,-0.046099234
,0.082704745
,-0.088843204
,-0.060454637
,-0.00253196
,-0.00771879
,0.061155923
,-0.051581182
,0.00697774
,-0.095891729
,-0.030477738
,0.095217809
,-0.018234881
,-0.045410719
,0.069952436
,0.0053053433
,-0.066732071
,-0.034163039
,-0.029911734
,0.05424403
,0.006344961
,-0.090118989
,-0.0074932035
,-0.016254982
,-0.05127671
,-0.04980135
,0.014272145
,-0.038975481
,0.013687569
,-0.0046312492
,-0.067947455
,0.044914745
,-0.016811866
,-0.0074217664
,-0.03045314
,-0.0084051806
,0.023341388
,0.02257349
,-0.060580771
,-0.010214345
,-0.02426628
,-0.013477563
,-0.11596093
,0.038251158
,0.065288134
,-0.024376029
,-0.0667222
,0.01167503
,0.046162009
,-0.020353703
,0.00046093279
,-0.0088476138
,-0.05076592
,0.0857742
,-0.031750005
,-0.091019213
,0.059594322
,-0.027595093
,-0.046578884
,0.039312992
,0.00320021
,-0.031769782
,0.047248106
,0.030512879
,-0.011262573
,-0.0017215109
,-0.019083228
,0.0075137666
,0.050836276
,0.053579558
,-0.091641374
,-0.043964818
,-0.018762469
,0.0036898197
,-0.018732205
,0.00064336107
,-0.0088504041
,0.004585919
,-0.012391802
,-0.040210068
,-0.043755345
,-0.063121051
,-0.069045976
,0.034124203
,-0.061745979
,-0.0065830904
,-0.085147962
,-0.05314837
,0.032576002
,-0.012303551
,-0.03041943
,-0.017585777
,-0.028603185
,0.025675083
,-0.083597824
,-0.02746262
,-0.080010988
,0.030163819
,0.064976119
,0.042666372
,-0.03307971
,-0.092850313
,0.02462603
,0.038002163
,0.0019694243
,-0.026737936
,-0.017872481
,-0.073867209
,-0.0062207482
,0.07037285
,-0.035888821
,0.0020367128
,0.068250671
,0.024923017
,0.020794852
,0.0050772415
,-0.029569443
,0.051465347
,0.094992869
,-0.020673433
,-0.073017828
,0.063355573
,-0.017209237
,-0.0982099
,0.048713848
,-0.037126392
,-0.011180759
,-0.049605571
,-0.079471193
,-0.054717846
,-0.017680682
,0.0065487828
,-0.11053766
,0.014053403
,0.01780103
,-0.038133074
,-0.0027529167
,-0.079270646
,0.080719419
,-0.00081870519
,0.024800163
,-0.092456825
,0.014959252
,0.014202659
,0.011134185
,-0.026328756
,-0.054948617
,0.01317975
,0.015695132
,-0.038752548
,-0.054138828
,0.060826179
,0.012058943
,-0.02130184
,0.052590091
,-0.02190559
,0.004265036
,0.014959266
,0.0084601967
,-0.058553182
,-0.0464957
,-0.00647111
,0.044856425
,-0.025638245
,-0.039461471
,-0.072500989
,-0.013732109
,0.011927568
,-0.032244734
,0.0033606505
,-0.053498331
,-0.0275479
,0.12281015
,0.10759709
,0.088802673
,0.16675453
,0.035532609
,0.02609542
,-0.0031128775
,-0.076476067
,0.036436558
,-0.015864369
,0.084247485
,-0.019087272
,-0.057694696
,-0.026598537
,-0.028699473
,-0.0018797807
,0.024857279
,0.10209773
,0.038887989
,0.0012635067
,0.053251572
,0.082545355
,0.013628416
,-0.047852963
,0.027652366
,0.043560077
,-0.036885135
,0.0071396166
,0.065846555
,-0.0743288
,0.075961515
,0.073894016
,0.066846788
,-0.02854307
,-0.088895842
,-0.033896707
,-0.057276025
,0.0784799
,0.11132273
,0.027462905
,0.056281336
,0.040002629
,0.00028452641
,-0.079239
,0.029662702
,-0.021163706
,-0.071509421
,-0.012620715
,0.0053016255
,0.012028954
,-0.014432104
,0.10580739
,-0.016016738
,0.066249289
,0.0090730777
,0.0081065921
,-0.012074485
,-0.031312417
,-0.027722379
,-0.022698682
,-0.013028743
,0.060923908
,0.04466572
,-0.065955058
,-0.057066854
,-0.010775303
,0.070302077
,-0.010543305
,0.17514567
,0.002689383
,0.11596184
,0.040311489
,-0.019640213
,-0.15158062
,0.029941471
,0.073888883
,0.065679304
,0.0017721212
,-0.022326017
,0.011158085
,0.044257142
,-0.052953288
,0.033382323
,-0.06004636
,0.042688135
,0.068870023
,0.034722932
,0.060934443
,0.0401668
,0.093785472
,-0.06258776
,-0.024147522
,-0.021253606
,-0.0378002
,0.029939957
,-0.0091655143
,0.053540576
,0.044685267
,0.0046970681
,0.021886177
,0.046273571
,0.01757515
,-0.00040820905
,-0.076383665
,0.12144329
,0.10440578
,0.0075596124
,-0.01078239
,-0.020236067
,0.066576369
,0.021789908
,0.038029104
,-0.0023815373
,0.0072910548
,-0.034408212
,-0.045049809
,0.005490385
,0.076868124
,0.11254977
,0.0868471
,-0.064361714
,0.0095622335
,-0.13276017
,-0.059323967
,0.078563757
,0.10776347
,0.1144226
,0.20957093
,-0.039389875
,0.074977815
,0.00055454526
,-0.1338519
,-0.10157019
,-0.016870856
,0.051622648
,0.024349179
,-0.073214531
,0.015835719
,-0.067318231
,0.12390937
,0.082876
,0.033573166
,0.063901462
,-0.085287444
,0.041536789
,0.0029257827
,-0.039497044
,-0.044352334
,-0.0054154694
,-0.096461348
,0.0142731
,-0.10377774
,0.011595574
,0.012361781
,0.068805642
,-0.030419338
,-0.027699314
,0.062639534
,-0.0012454995
,-0.00528786
,0.0957031
,0.0081080338
,-0.042372718
,-0.0380372
,-0.059913512
,-0.0540635
,-0.00090770738
,0.20548131
,0.040810034
,0.01155483
,-0.018809006
,-0.019118778
,-0.16672322
,-0.089364477
,0.014634786
,0.024950568
,-0.014568767
,-0.0060391608
,-0.084797345
,0.097060271
,0.018816726
,0.010053792
,0.04372184
,-0.071708187
,0.094133429
,0.099034674
,0.079819992
,0.084419839
,-0.0890006
,-0.030957382
,-0.030574469
,0.044013906
,0.042358968
,0.0019161726
,-0.037639875
,-0.04450034
,0.030976171
,-0.026711376
,-0.089473873
,0.059134953
,0.025927762
,-0.11457288
,-0.0026199138
,-0.1288612
,0.10930867
,-0.020919941
,-0.015354346
,0.094687857
,0.041104913
,0.088188685
,0.033141267
,0.041042797
,0.096204586
,-0.074640475
,-0.0072659715
,-0.069698334
,0.010690156
,-0.0047577741
,-0.035287131
,0.014199379
,-0.071609475
,-0.030688684
,-0.048037156
,-0.062008422
,-0.055914968
,-0.0914822
,0.089439094
,0.072896376
,0.14953673
,0.063608795
,0.035808746
,0.0072220089
,-0.010174996
,-0.061318927
,0.048210349
,-0.035375014
,-0.070684537
,0.01325944
,-0.072275691
,0.0026058624
,-0.011283225
,0.065169692
,0.013442616
,-0.0042738947
,-0.011929035
,0.0014069369
,0.047156
,0.016230168
,-0.039774485
,0.15296282
,0.069940552
,0.031019529
,0.19428056
,-0.10070904
,-0.024604307
,0.072187513
,-0.10028097
,0.067830481
,-0.09811081
,0.067405611
,-0.065560356
,0.032269631
,0.065988652
,-0.044416636
,0.032325488
,-0.014447549
,-0.060644381
,-0.048108242
,-0.05743454
,-0.023957277
,0.0145221
,0.05086232
,0.0028293605
,-0.0423764
,-0.01731305
,0.092365675
,0.062222462
,0.02421925
,0.044788253
,0.011060142
,-0.055832103
,-0.051101342
,-0.04904782
,0.014115956
,-0.0040300996
,-0.03382301
,0.020433921
,-0.061294045
,-0.0095366538
,0.028789932
,-0.015473336
,0.043130998
,-0.034619749
,-0.041150607
,0.019040657
,0.04114835
,0.02012499
,-0.00491156
,0.018225571
,0.12882373
,0.063504241
,-0.017985679
,0.0676043
,-0.071716875
,0.044865206
,0.043024927
,-0.023447787
,-0.052416936
,-0.0474306
,0.058166981
,0.028868506
,0.090796761
,0.097477891
,0.05200088
,0.054144133
,0.00084672117
,-0.06800957
,-0.093072414
,-0.02329598
,0.015729303
,-0.021954192
,0.070306636
,0.034233849
,-0.067620054
,0.011887527
,-0.037166137
,0.10505626
,-0.0072501451
,0.18188855
,0.022596644
,0.086966313
,-0.028093407
,-0.037346374
,-0.0082871132
,0.010819387
,-0.02082026
,0.033660132
,-0.03027866
,-6.0316015e-05
,-0.094606012
,-0.020575406
,-0.0067354166
,0.0693854
,0.10788781
,0.089449085
,-0.0093988487
,0.0094531942
,0.044866696
,-0.10734686
,-0.099480376
,0.1236679
,0.10285922
,0.23921689
,0.17236866
,0.039637841
,-0.026681855
,-0.088486016
,-0.0630495
,-0.018853974
,0.091777958
,-0.047728151
,0.02181722
,0.0097582946
,-0.066040106
,-0.00083815178
,0.07506194
,0.0053377161
,0.018754866
,0.011814125
,-0.056138165
,0.019880414
,0.05384599
,0.055685058
,-0.0043503349
,0.057198543
,0.019692661
,0.092228457
,0.088564321
,0.10063747
,0.052371807
,-0.010633876
,-0.027921014
,-0.064014822
,-0.10470802
,0.067254886
,0.017300535
,-0.0091215605
,0.0023568885
,-0.022269929
,0.052324347
,-0.025939623
,0.044990711
,0.081983231
,-0.006953462
,0.02871754
,0.098138444
,0.023358481
,-0.016141253
,0.0670746
,0.048890397
,0.10602316
,-0.0029431002
,0.090419643
,0.010424127
,0.10481328
,-0.0292994
,-0.085240386
,0.048862353
,-0.059852652
,0.042750333
,0.053638332
,0.022327865
,0.013598979
,-0.033642739
,0.035259251
,0.027003266
,0.012251208
,-0.016225524
,-0.033779711
,0.0845952
,-0.0040723565
,-0.0051230858
,0.023111993
,-0.08010941
,0.0046132812
,0.078601964
,0.14018963
,0.20311442
,0.0059051365
,0.016442211
,0.022143917
,-0.023223257
,-0.042586111
,-0.094232976
,0.047404423
,0.090987884
,-0.030657435
,0.011927336
,-0.062582619
,0.1591613
,0.0036065716
,0.018207571
,0.0091613447
,-0.042118903
,0.047819644
,0.014367065
,-0.026167633
,-0.010732825
,0.0071873465
,0.015737383
,0.029047927
,-0.063712545
,-0.0070424778
,-0.010733055
,0.0067640734
,0.001949506
,-0.00036229304
,0.02010007
,0.072285578
,-0.071287774
,-0.010074045
,-0.054172926
,0.079831161
,0.043937638
,-0.01132932
,-0.017679529
,-0.0097043589
,-0.088255629
,-0.034490477
,0.0022747107
,-0.043330524
,0.035704829
,-0.020916533
,0.025465215
,0.036058474
,-0.013029865
,0.0077134497
,0.057387922
,-0.09108302
,-0.0074631008
,-0.018223662
,-0.032241106
,-0.013206237
,-0.01068199
,0.061736073
,-0.037494514
,0.088422447
,0.095903374
,-0.0089005549
,0.0095260469
,-0.0049448735
,0.01132996
,0.0025181198
,0.011601577
,-0.017150586
,-0.026932651
,-0.033312235
,0.0012576425
,-0.0631757
,-0.23922522
,0.015114348
,-0.061361883
,-0.06231986
,-0.0970748
,-0.2109385
,0.0082480228
,-0.049373124
,0.008280158
,-0.063017435
,-0.088624366
,-0.072943948
,0.056816205
,-0.043712512
,-0.096409
,-0.15148775
,0.089391366
,0.012754895
,-0.034191225
,-0.05882059
,-0.29658052
,-0.067458652
,-0.082878336
,-0.11298676
,-0.058551323
,-0.10927561
,-0.12896617
,0.011748794
,-0.11909457
,-0.084591866
,-0.16865769
,-0.042916279
,-0.019841865
,0.044181574
,-0.11667637
,-0.21638739
,0.047874022
,0.0059622382
,0.026876649
,-0.18174428
,-0.2090383
,-0.040447973
,-0.084819861
,-0.055557296
,-0.11916519
,-0.17671992
,0.0028949869
,-0.13783179
,-0.0084565189
,-0.20311439
,0.075805582
,-0.27587745
,0.060408592
,-0.10998937
,-0.13717191
,-0.10823874
,-0.092339531
,-0.10307369
,-0.18747766
,0.02289078
,0.077580951
,-0.037085619
,0.069058016
,-0.023093047
,-0.008064677
,-0.13041209
,0.00052754447
,0.045746565
,-0.056507893
,-0.012327597
,-0.31957871
,-0.059090041
,-0.015569352
,-0.17559303
,0.0064833444
,-0.20292789
,0.012799889
,-0.19872855
,-0.017493961
,-0.10082982
,-0.0035336008
,-0.12248424
,0.032048345
,-0.034714177
,-0.058944989
,-0.092510134
,0.086571522
,-0.017175969
,-0.0885435
,-0.040665697
,-0.096834347
,0.056778859
,-0.021982292
,-0.068442948
,-0.012404298
,-0.069799691
,-0.17814301
,-0.12021472
,-0.059169378
,-0.096511044
,-0.067089833
,-0.19656864
,0.070201591
,-0.11521879
,-0.031399794
,-0.15398881
,-0.052099012
,-0.13085431
,-0.10066599
,-0.048592158
,0.045470711
,-0.029009622
,0.11177204
,0.059990667
,0.082820632
,-0.090952538
,-0.072697796
,-0.095389694
,-0.0720945
,-0.083516367
,-0.28856206
,-0.20929648
,-0.018021114
,0.014523203
,-0.044418231
,-0.20582522
,0.022453776
,-0.06729383
,-0.33904415
,-0.068911277
,-0.062745243
,-0.03063806
,-0.0024237873
,-0.023100477
,-0.085569531
,-0.088550359
,5.5317174e-05
,-0.047752131
,-0.015859211
,0.096360713
,-0.052776229
,-0.057510745
,0.037789185
,-0.12087942
,0.076072581
,-0.14203091
,-0.12612642
,-0.11880098
,-0.11399299
,-0.021158971
,-0.078038037
,-0.16079307
,0.047553737
,0.018236386
,-0.20387475
,-0.18088597
,-0.076643638
,-0.19891776
,-0.0747176
,-0.14237647
,-0.045486197
,-0.061584074
,0.037066732
,-0.13699979
,-0.065924861
,-0.022814371
,0.025677675
,-0.11512732
,-0.15884317
,-0.17060041
,-0.30394945
,-0.19222242
,-0.090643272
,-0.24143222
,-0.17633684
,-0.10819397
,-0.0779507
,0.04483344
,0.079797864
,-0.040735334
,-0.2613945
,0.082129844
,-0.010950254
,-0.075443991
,0.09666606
,0.024725217
,0.002635624
,0.037850309
,-0.14669019
,0.053453542
,-0.15196116
,-0.052961353
,-0.13322659
,0.035236508
,-0.19864248
,-0.27329502
,-0.051423915
,-0.015405233
,-0.23144081
,0.053470697
,-0.16893315
,-0.091634907
,-0.015937559
,-0.10567203
,0.034757618
,-0.1272153
,-0.0871549
,-0.14351946
,0.00033257852
,-0.13850753
,-0.040594496
,0.063034974
,0.16519576
,-0.03993896
,0.098989226
,0.023110364
,-0.090542942
,-0.16678247
,-0.1929581
,-0.10068911
,-0.17618991
,-0.19093151
,0.029529443
,-0.15264858
,-0.01798765
,0.058181822
,-0.11456307
,-0.091346867
,-0.13646729
,-0.14862576
,-0.19560935
,-0.1880203
,0.043665044
,-0.19989862
,-0.020027494
,-0.10036657
,-0.01702787
,-0.10833587
,-0.00846958
,-0.019626573
,-0.0068779364
,-0.027314629
,-0.009991047
,0.018584795
,-0.0051622982
,-0.26851839
,-0.18043107
,-0.10690793
,-0.14738764
,-0.088690996
,-0.21218786
,-0.017650317
,-0.07394
,-0.25352582
,-0.05210479
,-0.067002684
,0.049379628
,-0.010014982
,-0.0069051357
,-0.092217147
,-0.12091083
,0.03962167
,-0.11604054
,-0.12689123
,0.077351257
,-0.074891575
,-0.093226746
,0.0474134
,-0.032538816
,0.030190751
,-0.048408926
,-0.15336165
,-0.1437524
,-0.1832698
,-0.034245469
,-0.17217083
,0.041341171
,-0.025080098
,-0.17042121
,-0.099098243
,-0.070857696
,-0.16116354
,-0.040732257
,-0.021573357
,-0.0767434
,-0.18717681
,0.0558664
,-0.11005646
,-0.061697289
,-0.094504073
,-0.065857738
,-0.065637074
,-0.016669739
,-0.17171319
,0.029060772
,-0.0324105
,-0.078334428
,-0.15151712
,-0.052994102
,-0.15254849
,-0.13065057
,-0.16284335
,-0.085570216
,-0.10876133
,-0.035130832
,-0.16761322
,-0.019115971
,-0.063242495
,-0.020695852
,-0.015798654
,-0.063811705
,-0.0068955203
,0.0006074491
,-0.11309697
,0.023562176
,-0.10435294
,-0.075994655
,-0.1751416
,-0.080820754
,-0.0099293375
,-0.081338048
,-0.061672639
,-0.057992171
,-0.15789776
,-0.04964076
,-0.1284892
,-0.072600864
,-0.098313786
,-0.00064168376
,-0.057686355
,-0.17321955
,-0.097495466
,-0.033856571
,-0.0039667361
,-0.047130104
,0.0066196956
,-0.084863074
,-0.013198174
,0.065122344
,-0.084018894
,-0.15849291
,0.058535926
,0.075431906
,0.039073922
,-0.076645106
,-0.27169853
,-0.144994
,-0.10139636
,-0.063788541
,-0.10674136
,-0.0728459
,-0.050174907
,0.020639379
,-0.19498166
,-0.2304046
,-0.20116489
,-0.082153723
,-0.07016018
,-0.072564431
,-0.047621094
,-0.10226086
,-0.1247462
,-0.003945759
,-0.0069838725
,-0.04784653
,-0.058879886
,-0.024214108
,-0.011692049
,0.08325652
,-0.067997761
,-0.31287998
,0.045681521
,-0.16099702
,-0.1622913
,-0.1275817
,0.0018754293
,-0.097073741
,-0.0021380489
,-0.098057188
,-0.093720704
,-0.077364966
,-0.10367324
,0.10155915
,-0.087426268
,-0.075768054
,0.012821853
,0.044650663
,0.03031157
,-0.00854334
,0.0587557
,-0.038356423
,0.049274374
,-0.0017031782
,0.023665519
,0.06391491
,-0.20541738
,-0.060037255
,-0.026512697
,-0.10138549
,-0.10305188
,-0.211936
,0.012871477
,-0.070409045
,-0.10817519
,-0.097479224
,-0.086495608
,-0.12600656
,-0.05611378
,-0.069053642
,-0.058449682
,-0.13961466
,0.048405908
,-0.010099899
,-0.068347372
,-0.060396213
,-0.065807089
,0.066409238
,-0.071040623
,-0.20654376
,-0.032395933
,-0.16084674
,-0.11285911
,-0.048503231
,-0.11508675
,-0.15147671
,-0.04292921
,0.046905816
,0.008159548
,-0.20890805
,-0.03549983
,0.014757203
,-0.068185709
,0.056339979
,-0.1215024
,-0.054093614
,-0.080126435
,0.10522804
,-0.003231345
,-0.078223251
,0.023215046
,0.06030947
,0.02184663
,0.039573207
,-0.01258281
,0.096464261
,-0.14583522
,-0.12804538
,-0.059370447
,-0.12018812
,-0.080869272
,-0.18812451
,-0.12011726
,-0.070461079
,-0.065573342
,-0.18742447
,-0.063643739
,-0.0016298027
,0.049175683
,-0.047545642
,-0.16154628
,-0.16837181
,-0.11668466
,-0.0096089132
,-0.085504383
,-0.16349901
,-0.1214987
,-0.12617503
,-0.072870217
,-0.047477189
,-0.1112977
,0.050826803
,-0.079855494
,-0.04320069
,-0.063900374
,-0.098857559
,-0.093918644
,-0.098305352
,0.084546894
,-0.091509484
,-0.05528732
,-0.16802053
,0.10536607
,-0.13140145
,-0.063700229
,-0.032764532
,0.064750083
,-0.150495
,-0.091485851
,-0.079865731
,0.10558143
,-0.21429849
,-0.081026867
,-0.07724952
,-0.05346667
,-0.14597243
,-0.12589152
,-0.056422483
,-0.1141867
,-0.163813
,-0.013703875
,0.093534991
,-0.022149902
,-0.025919618
,0.041307796
,-0.050014425
,0.10194579
,-0.027618075
,0.049740449
,0.045503914
,0.010137529
,0.18049417
,-0.080835596
,0.0064455755
,-0.0067868675
,0.057420503
,0.21198289
,0.10791437
,0.046886709
,0.067547485
,-0.064754158
,0.072580837
,0.0968549
,0.020891007
,0.0641171
,-0.014635651
,0.15230647
,0.023274712
,-0.085169911
,0.0049811904
,-0.032974295
,0.10118809
,-0.021975391
,-0.059004351
,-0.039415207
,-0.043029405
,0.1311679
,0.088017441
,0.035486247
,0.06289386
,-0.038306821
,0.026503664
,-0.022908017
,0.0056998231
,0.03165476
,-0.047027394
,0.14765504
,0.016291969
,-0.0051675835
,0.04734347
,-0.0081535364
,0.065835908
,-0.022901209
,0.008504726
,-0.022994148
,0.047966663
,0.015880847
,0.017954964
,-0.015394359
,-0.028306212
,-0.040310577
,-0.019170184
,0.014864431
,-0.042915542
,-0.083986565
,0.010322791
,0.06439238
,0.089439109
,0.011840144
,0.14180382
,-0.0074630566
,-0.036438782
,-0.026880937
,-0.11492566
,0.086355828
,-0.037617844
,-0.02241323
,-0.014410337
,-0.019034423
,-0.026622973
,-0.012315928
,-0.018371906
,0.0081935488
,0.015396367
,0.032276321
,-0.039220482
,0.11827405
,0.021511015
,0.015591737
,0.010148208
,0.035122462
,-0.021649702
,0.051479612
,0.086061157
,0.030222813
,0.041485175
,0.085335135
,0.084590681
,-0.026874293
,-0.020011811
,0.040086024
,0.024845934
,0.028419342
,-0.028734855
,-0.060434755
,0.052106034
,0.062150836
,-0.0070038927
,0.00035810019
,0.0035804724
,-0.00692488
,0.037542447
,-0.065508761
,-0.012461467
,0.019365866
,-0.042050913
,0.16160432
,0.14114621
,0.067980319
,0.16718799
,0.055243425
,-0.06581
,-0.097444035
,-0.040474083
,-0.052781321
,-0.046670672
,-0.088260219
,-0.057203542
,-0.054884259
,0.036298856
,-0.05225135
,-0.030221777
,0.0098327724
,0.052524451
,0.022494432
,-0.0023024452
,-0.012290649
,-0.08822915
,-0.02062366
,0.02955867
,-0.036236439
,0.098300591
,0.031309932
,-0.023009578
,-0.010954862
,0.049364
,0.020481812
,-0.0042907749
,0.1089979
,-0.017263275
,0.051182721
,-0.012888908
,-0.072216742
,-0.064603224
,0.012154423
,-0.051947404
,0.014256415
,-0.0097372159
,0.037725605
,0.020811936
,0.043600224
,0.018086858
,-0.069030665
,-0.14239477
,-0.0048024748
,-0.03643864
,0.12709577
,0.080589511
,0.19477348
,-0.004668369
,0.10553474
,-0.054312855
,-0.013103722
,0.0019193091
,-0.064033732
,0.038630296
,0.086465746
,-0.038657255
,-0.021055892
,0.066304095
,0.0702619
,0.048686355
,-0.064165927
,0.030068623
,0.038751356
,0.038889334
,0.21650411
,0.040357914
,-0.030775368
,-0.025629994
,-0.032996763
,0.12811852
,0.11577459
,-0.015224611
,-0.013698995
,0.08440619
,0.01352663
,-0.028237468
,-0.074224547
,-0.038651537
,-0.059210662
,-0.0040001627
,-0.040430881
,-0.0058085849
,-0.010359522
,0.047559205
,0.018466327
,-0.052359708
,0.066654332
,0.073778242
,0.061711323
,0.11818352
,-0.03697487
,-0.011336105
,0.0025754832
,-0.1006522
,0.092976
,0.13166659
,0.097599708
,0.028670123
,0.10022708
,-0.012670262
,-0.11512483
,-0.12190043
,-0.12265876
,-0.044376522
,-0.026734548
,-0.026048834
,-0.048860084
,-0.054414775
,-0.024871446
,0.063666783
,-0.026298918
,0.016870383
,-0.018364104
,-0.026819367
,0.0235383
,0.030734614
,-0.086254768
,-0.026343251
,-0.0364474
,0.13341838
,0.053926792
,0.017040424
,-0.022231882
,0.063206442
,-0.038563933
,0.050091706
,-0.004025734
,0.036062803
,0.075389981
,-0.12414522
,-0.030068263
,0.041306291
,-0.061016165
,0.019091668
,-0.010881268
,-0.037994593
,0.040050156
,0.054242495
,0.026739353
,0.044560578
,-0.0097905649
,0.152226
,0.061258648
,0.05797499
,-0.093102276
,0.013925446
,-0.0076509751
,-0.014194638
,0.0685429
,0.12261516
,0.053098887
,0.081830777
,-0.11318967
,0.049890414
,0.077347346
,-0.037718125
,-0.01237532
,0.037365224
,-0.060440868
,-0.00243388
,-0.0044790218
,-0.077920087
,-0.0027816349
,-0.011778772
,-0.034133356
,-0.00970493
,-0.033281773
,-0.027220849
,0.051602688
,0.048420958
,-0.016882276
,0.0065862681
,-0.041340869
,-0.071528688
,-0.013821134
,0.014767658
,0.0063424236
,0.044230886
,0.042811736
,-0.028046345
,-0.016547473
,0.019121792
,0.028494492
,0.028535958
,-0.013253058
,-0.058481086
,-0.0010364307
,-0.014365074
,-0.0070444825
,0.020959241
,0.13550508
,-0.0049779648
,0.11284135
,0.018967934
,-0.0083009088
,-0.044498969
,0.056970332
,-0.067932434
,0.10439756
,0.045382302
,-0.059170533
,0.053876236
,-0.090611227
,-0.032980166
,0.018956263
,0.032565344
,-0.012058965
,-0.048460428
,0.039390404
,0.11402879
,-0.0089407666
,-0.005111245
,0.035735629
,0.0081993863
,0.13669151
,-0.024507314
,0.038170472
,-0.065097719
,0.0040544341
,0.070695035
,0.13781081
,0.020320494
,0.1678344
,-0.072350189
,-0.02627058
,0.057605781
,-0.037970714
,-0.023106515
,-0.041323993
,-0.029084513
,-0.026083438
,-0.0064021363
,0.03545424
,-0.017268013
,0.073439926
,0.014598012
,-0.012833114
,0.021675268
,-0.007619319
,0.076563381
,0.02120067
,-0.0063319984
,-0.02948544
,-0.00564787
,0.18328644
,0.05992553
,-0.0039616036
,0.072239712
,0.0093467925
,0.066229753
,0.025150444
,0.11578338
,0.013329098
,-0.026408806
,-0.026167914
,0.013598315
,0.010957319
,0.01300756
,0.052443728
,-0.024236418
,-0.05133817
,-0.024526197
,0.026530724
,-0.037887357
,0.062744357
,0.02726795
,-0.0062830253
,0.0486808
,0.031548806
,0.15364332
,0.11377604
,0.012790179
,-0.035181109
,0.029298268
,0.096440524
,0.049226005
,0.018456377
,0.047757264
,0.0938941
,-0.0043168766
,-0.055897996
,0.039562739
,0.035525579
,-0.050952341
,0.056197278
,-0.10289001
,-0.015795596
,0.0044364659
,-0.0809231
,0.0095871
,-0.065184347
,-0.004994533
,-0.018241577
,0.045591943
,0.061572246
,0.049475655
,0.05127978
,-0.008488372
,0.051733106
,0.045757242
,0.027071167
,0.038040228
,-0.0023456705
,0.047805887
,-0.041119233
,-0.082165465
,8.2786006e-05
,0.062744975
,-0.032374661
,0.037924029
,-0.038836874
,-0.039558679
,0.043610785
,-0.015882261
,-0.027614158
,-0.057146411
,0.043468967
,-0.008796311
,0.053018808
,0.10572945
,0.026729746
,0.042263869
,0.034025639
,0.054297239
,0.071839243
,0.096440844
,0.07732302
,0.029438658
,-0.0015875617
,0.016382525
,0.0075167748
,-0.064816572
,-0.059968103
,-0.013379326
,0.037509747
,-0.0079548461
,0.010857807
,-0.035800111
,-0.0469643
,-0.01935002
,0.017231975
,-0.02990762
,0.036317788
,-0.051424932
,-0.044403717
,-0.074560657
,-0.040708818
,-0.035788469
,-0.040634472
,0.066639774
,-0.00970732
,0.043803174
,0.030537747
,0.02753053
,-0.024099991
,-0.021092089
,-0.02850019
,-0.03368786
,-0.02750726
,0.0020125029
,0.036275633
,-0.0045637833
,-0.011376273
,-0.027031397
,0.059193153
,0.031462912
,-0.02319058
,0.036221169
,0.014890534
,-0.060374115
,0.02693104
,-0.024324596
,0.020660173
,0.074605182
,-0.0065634213
,-0.023434795
,0.023584012
,-0.092654563
,-0.012770809
,0.14339106
,0.09748558
,0.17250144
,0.164381
,0.0029687562
,-0.013932403
,0.14223351
,0.14842866
,0.014876648
,-0.11418001
,-0.02142451
,-0.10307785
,0.044281222
,0.018284744
,-0.052187622
,0.038637325
,0.11200179
,-0.054535229
,0.018654438
,-0.08829625
,0.025009565
,0.12658097
,-0.083046526
,0.021888349
,-0.014696321
,-0.036657836
,0.090792395
,0.11031499
,0.047411013
,-0.050353426
,0.14968696
,-0.063743412
,0.022224912
,0.02014506
,-0.022545043
,-0.043982662
,0.11739293
,-0.012116372
,-0.025327219
,-0.074408486
,0.087588459
,-0.078651287
,-0.083881207
,0.021880934
,0.020746291
,0.10753724
,0.16106512
,0.0389283
,0.031211331
,-0.066963479
,0.11020632
,0.019358149
,0.12764251
,0.25018394
,0.067541391
,0.068124138
,-0.013861208
,0.11629077
,0.098751679
,0.0075044893
,0.055972978
,-0.0594687
,-0.074651323
,-0.0024765297
,-0.071119018
,0.047320489
,0.0748952
,-0.0022445088
,0.024395157
,-0.12118397
,0.030610548
,-0.078115448
,-0.11115438
,-0.035165589
,0.042941246
,0.044008538
,0.10244162
,0.17149636
,-0.044080429
,-0.034922685
,0.030546429
,0.08095327
,0.040297814
,-0.035284486
,0.060031015
,0.062285472
,0.042127077
,-0.042697687
,-0.010887763
,0.058739077
,0.085137039
,0.012247173
,-0.038823713
,-0.000690233
,-0.056307562
,0.12213764
,-0.042449214
,-0.0012187085
,-0.0063782819
,-0.040306419
,0.00451932
,0.12995388
,0.24171211
,0.11064449
,-0.071877509
,0.092432879
,0.020521615
,0.047839344
,-0.018281402
,0.015682718
,-0.0044257035
,-0.017451469
,-0.01913828
,0.0045289355
,0.0073333657
,0.17381094
,0.17061633
,0.036237903
,0.036138251
,-0.096015744
,-0.00019755647
,-0.093881577
,-0.069274165
,0.055679668
,-0.058803014
,0.10154428
,0.12813672
,0.18250057
,0.00048904732
,0.040495753
,0.023207838
,0.21333
,0.18772976
,-0.11938042
,0.029440917
,0.030843118
,0.013702066
,-0.054563314
,0.059753209
,0.029785393
,-0.0057380181
,0.040238585
,-0.06023841
,-0.048263602
,-0.016889373
,0.054365266
,-0.020228412
,-0.023759387
,-0.038683344
,-0.03808333
,-0.08978612
,0.2388842
,0.24251471
,0.059707571
,-0.015731849
,0.049706623
,0.064536631
,0.05060992
,0.069077313
,0.064871415
,-0.049018923
,-0.086254917
,-0.1513519
,-0.10082953
,0.09098947
,0.10954701
,0.13067348
,-0.011607443
,-0.036572307
,-0.085064679
,0.040970322
,-0.043826815
,-0.047314834
,0.052876763
,-0.048411239
,0.14577822
,0.26000059
,0.060716581
,-0.025152911
,-0.078370877
,0.0073428508
,0.033022635
,0.069645509
,0.110308
,0.077000849
,0.25541753
,0.02697417
,-0.093033835
,0.05285858
,-0.043212097
,0.14123982
,-0.003596101
,-0.058957759
,0.0089926645
,0.006034682
,0.023864791
,0.013158202
,-0.0023319437
,0.068894558
,0.054692741
,0.055071615
,0.2134635
,0.20655008
,-0.022448318
,-0.02230851
,0.13071652
,0.1353541
,-0.043090418
,0.023724556
,0.15596782
,0.051971719
,0.031158339
,-0.076384075
,0.056496069
,-0.061562054
,0.042161223
,0.17206712
,0.013539702
,0.0363157
,-0.027257109
,0.024552479
,-0.063572481
,-0.025066301
,0.090413734
,-0.078229256
,0.07237412
,0.18040453
,0.092326939
,-0.029591452
,0.1010289
,0.080892354
,0.079429425
,0.00972724
,0.031727288
,0.048312567
,-0.0080966195
,-0.068523318
,-0.029804638
,-0.036553938
,0.11997059
,0.016756214
,-0.061701305
,-0.06298124
,0.03858906
,-0.06120364
,0.021380892
,0.054723598
,0.019308196
,-0.03269852
,-0.036352273
,0.15192753
,0.17146207
,0.010129725
,-0.10229517
,0.10574953
,0.062391866
,0.10792032
,0.065353245
,-0.027861055
,0.12196191
,0.13250956
,0.085365206
,0.016980002
,0.012180654
,-0.017404377
,-0.032202993
,-0.00792295
,0.003899151
,-0.02446859
,-0.029358914
,0.1325393
,0.094453558
,-0.05263989
,-0.069843188
,-0.0015166787
,0.057843223
,0.0625528
,0.083509617
,0.08270511
,-0.044738326
,-0.027358752
,0.11950274
,0.11102756
,-0.079420276
,-0.0074188653
,-0.061654631
,0.019669201
,0.029250724
,0.011507819
,0.063333176
,0.1393652
,0.024937801
,-0.00074543338
,-0.043991007
,-0.046592124
,-0.067946069
,0.040054597
,-0.023431474
,-0.04930092
,-0.048392385
,0.065205477
,0.22562118
,0.1307776
,-0.13802242
,0.050448742
,0.035901204
,0.050578076
,-0.077806585
,0.014043259
,0.0947565
,0.18866536
,0.05363442
,0.16001482
,0.011187574
,-0.058543265
,0.0085897576
,-0.057008613
,0.018747313
,-0.05612785
,-0.005633398
,0.047703069
,-0.0045796703
,0.075850539
,0.011024212
,0.016603207
,0.050654445
,0.0075835544
,0.13791941
,0.27374431
,-0.049869642
,-0.0003819433
,0.063330665
,0.18980533
,0.038419645
,-0.11178011
,0.093042016
,-0.13036011
,0.0058530169
,-0.046918046
,-0.04923344
,0.022917418
,0.055145871
,0.040903576
,0.0073417621
,-0.11359081
,0.038272832
,0.044832431
,-0.075085
,-0.03328589
,0.071154706
,0.077962495
,0.043558985
,0.15109271
,0.057223935
,-0.0089269681
,0.06605728
,0.096344948
,0.22232915
,0.056009863
,-0.10982519
,0.01687084
,0.0047375434
,0.018174294
,-0.055074379
,-0.041707192
,0.038309533
,-0.024657276
,0.039825223
,0.0010051321
,-0.019730726
,-0.027840432
,-0.09496107
,-0.019696845
,-0.066010863
,-0.090213396
,0.046268418
,0.1757814
,0.20145825
,0.023789203
,0.052482944
,-0.0038165022
,0.16256152
,0.071595609
,0.02278924
,0.018810548
,-0.016743083
,-0.073081039
,-0.050699849
,-0.016854942
,-0.00055238453
,0.12725422
,0.023270957
,-0.12190625
,-0.11571696
,-0.064541534
,0.042385507
,-0.075340979
,0.048956245
,0.007729332
,-0.01326829
,-0.027699178
,0.076305352
,0.19308458
,-0.0045663333
,0.010913055
,0.073823489
,0.22404493
,0.070316225
,-0.048119757
,0.014075425
,-0.069857016
,0.014348371
,-0.019345336
,-0.039721716
,0.078179
,0.10392309
,0.097933933
,0.031292148
,-0.071558326
,-0.092309527
,-0.014795658
,-0.021152385
,-0.024752891
,-0.022151053
,-0.065593049
,0.11452164
,0.15183167
,0.11905617
,-0.092254184
,0.092400432
,-0.022119651
,0.18673071
,0.14703991
,-0.10398931
,0.0024391802
,-0.053492609
,-0.042033162
,-0.037110105
,-0.0458415
,0.021403654
,0.037240013
,0.010515956
,-0.045394085
,-0.060344107
,-0.092855111
,0.057058211
,0.0044906465
,0.038436063
,-0.023339588
,0.050430246
,-0.010076125
,0.011501684
,-0.020231662
,-0.038924154
,0.0076236404
,-0.04421382
,-0.021526378
,-0.019245801
,-0.01427895
,-0.02871187
,-0.012426782
,0.050739136
,0.081745826
,-0.0303792
,-0.050485976
,0.03517193
,0.067807652
,0.024087356
,0.097302392
,0.074655421
,-0.050273344
,-0.022276858
,-0.037678067
,-0.0014620731
,-0.019699203
,0.11118938
,0.050319832
,-0.034796551
,0.10750563
,0.07679566
,0.033681974
,0.014914507
,0.02962579
,0.053275809
,0.059888829
,0.091396593
,-0.027074886
,-0.03268864
,0.039499894
,0.050308943
,-0.055084538
,0.046867795
,0.0013086754
,0.039810162
,-0.030340275
,0.025206864
,-0.05076126
,-0.061957367
,-0.050725956
,0.032080702
,0.16400297
,0.14662731
,0.25229245
,0.19716504
,0.042257149
,0.10496494
,0.062300019
,0.02719843
,0.083513774
,-0.090498514
,0.066835038
,0.022530902
,0.08354599
,0.093869731
,-0.065864712
,-0.14967726
,0.10485508
,0.052658066
,0.039644044
,-0.026019709
,-0.058256347
,0.084929258
,-0.045569696
,-0.0420433
,0.029085217
,0.026982388
,0.094465792
,0.17395185
,0.095656611
,-0.012425968
,-0.0490917
,-0.060701445
,0.00098284881
,0.0031121292
,-0.062216051
,0.064513393
,-0.014089698
,0.092419907
,0.043517705
,0.038192876
