w_t _weights_ip2[6144] = {
0.023183189
,-0.088232346
,-0.038945176
,-0.056357909
,-0.052125033
,0.010898547
,-0.041820444
,-0.00489106
,-0.081072643
,-0.036304306
,-0.015379686
,0.02070557
,-0.016775621
,-0.030697964
,-0.012839696
,-0.021436738
,0.034555018
,-0.078499511
,0.037634626
,0.069916904
,-0.0016052579
,-0.060486875
,-0.082472607
,0.085359208
,0.03240151
,0.066868007
,-0.020141788
,-0.019780094
,-0.03171061
,-0.081267156
,-0.059859373
,-0.044224847
,-0.036446985
,-0.020872325
,0.025314067
,-0.025167819
,0.02232164
,-0.017883014
,-0.017847132
,0.0004840538
,0.0061869146
,0.010372703
,-0.049278706
,0.05985412
,0.010927377
,0.0722506
,-0.092423804
,0.020224672
,-0.008218349
,0.0626072
,0.041127417
,0.0777515
,-0.048287734
,-0.075893976
,-0.045118656
,-0.084426478
,0.04596433
,0.00097719976
,-0.02388484
,-0.078671485
,-0.0020221518
,-0.11364074
,0.026608156
,-0.088349275
,0.061687589
,0.066211507
,0.0815753
,0.015580883
,0.079751648
,-0.017850142
,0.079285979
,0.046445746
,-0.09311457
,-0.017933257
,-0.026874557
,-0.0071977866
,-0.02507754
,0.038038559
,-0.011965415
,-0.069068477
,0.0045590992
,0.067832656
,0.065747477
,0.076206312
,-0.075484134
,-0.039407883
,0.03390266
,0.032583624
,0.037208445
,0.0053457185
,0.026936887
,-0.0875988
,-0.046867616
,-0.068087116
,-0.054102045
,0.014869322
,0.024315571
,-0.092539564
,-0.048807535
,-0.077853717
,0.021392483
,0.067980513
,0.026246889
,0.020582058
,-0.075767316
,-0.027819918
,0.068839416
,0.024816407
,0.0033815035
,-0.090613082
,0.035507482
,-0.052356854
,-0.043464247
,-0.051797047
,0.062504724
,-0.030170485
,-0.033885211
,0.08396396
,0.035355363
,0.031377506
,-0.08173006
,-0.049660631
,-0.066044137
,-0.027240224
,0.0445901
,-0.035963085
,-0.060105242
,0.051509596
,-0.019310649
,-0.015944667
,0.075016581
,-0.051469229
,-0.038022663
,0.020495079
,-0.041472565
,0.053375926
,-0.055021089
,-0.034257814
,0.008610283
,-0.065618753
,0.0041090534
,-0.023532147
,0.067856669
,0.017029004
,0.060425453
,0.010248465
,0.046461936
,0.027374711
,-0.0078848554
,-0.056500539
,-0.087240428
,-0.051671766
,-0.025238335
,0.069695272
,-0.0871683
,0.052111663
,-0.07701388
,-0.014515427
,-0.089269333
,0.07181035
,-0.04543956
,-0.080115058
,0.086747974
,-0.06555479
,0.061562948
,0.036584482
,-0.056250494
,-0.040650673
,-0.010651554
,-0.041047223
,0.070304893
,0.0012698408
,0.021398542
,-0.016514249
,-0.088562571
,0.024476746
,-0.029469181
,0.014775637
,0.015186161
,-0.00031033819
,0.033471555
,0.062562466
,-0.081380285
,0.013340057
,0.00079954334
,0.080559373
,-0.0033472364
,-0.086047985
,0.016786093
,-0.033008114
,-0.033473816
,0.010824993
,-0.0036182536
,0.0692284
,0.084776044
,0.055641882
,-0.0097035225
,0.0633053
,-0.064335391
,-0.096145466
,-0.026451176
,0.066243626
,0.06991975
,0.00021110756
,-0.08090163
,0.048338603
,0.0018582325
,-0.026221244
,-0.01318024
,-0.075551443
,-0.08544232
,0.010279756
,0.082379594
,-0.098505318
,0.045987658
,0.017735813
,-0.0095051471
,-0.0048634093
,0.039255172
,0.064703561
,-0.089687072
,0.070829369
,0.058033209
,-0.03661387
,-0.045548763
,-0.079263583
,0.011556507
,0.010611847
,0.025369735
,-0.056270212
,-0.025378289
,-0.041087929
,0.0059954273
,0.002858609
,0.035879496
,-0.053374708
,-0.066757873
,-0.029072184
,-0.08649683
,0.030191369
,-0.073615164
,0.066788383
,0.075494051
,-0.065211043
,0.045944378
,0.045026038
,-0.068123743
,-0.067106575
,0.03371511
,-0.0065085879
,-0.065807477
,2.9265813e-05
,0.064812422
,-0.024918575
,0.060227737
,-0.078717373
,0.047696363
,0.025391331
,-0.080385886
,0.023348536
,-0.049434587
,0.039941762
,0.014464896
,0.0057230555
,0.028456742
,-0.080131605
,-0.072236449
,-0.0851645
,-0.034387808
,-0.020660641
,-0.055261731
,-0.078486905
,-0.00017213421
,-0.018633457
,-0.053922456
,-0.045337986
,-0.057257596
,0.01766617
,-0.027405974
,0.04185291
,-0.0751042
,0.062778808
,0.034172311
,-0.051355448
,0.078340113
,0.0043221968
,-0.074182279
,-0.030774061
,0.050297428
,-0.086521678
,-0.014118067
,-0.087312751
,0.019038539
,0.058917779
,-0.11347967
,-0.08003559
,0.084330529
,-0.038774196
,-0.036908772
,-0.05584852
,-0.087939695
,0.05175307
,-0.10197911
,0.061585091
,-0.043911655
,-0.044809438
,-0.057626802
,-0.0202867
,0.071940228
,0.022267241
,0.0584026
,-0.011537871
,-0.034352154
,0.066277295
,-0.036119476
,-0.064068183
,-0.049372096
,0.04446768
,-0.026742768
,0.060757555
,-0.035514459
,0.022690544
,-0.022471391
,0.046337083
,-0.024861231
,0.018878579
,0.074690424
,-0.074007653
,0.065648094
,0.083594315
,0.01433368
,-0.033210922
,-0.0060904971
,-0.0714842
,0.016737767
,-0.071661919
,-0.06514436
,-0.055093136
,-0.014299502
,-0.0083212564
,-0.0061992593
,-0.08636301
,0.045232523
,0.07026013
,0.027436595
,-0.050990887
,-0.045025464
,0.024882412
,-0.057517972
,0.053660106
,-0.10716493
,-0.040988207
,-0.080113441
,-0.088691525
,-0.034940049
,-0.081470504
,-0.0042481916
,-0.059041366
,-0.088379607
,0.083388239
,0.049746
,-0.00071202795
,0.012573604
,0.044724163
,0.066989809
,-0.0010899277
,0.016782684
,0.034948159
,-0.078825206
,-0.040820573
,-0.067698643
,-0.084789425
,0.070194177
,-0.064473934
,0.047224749
,0.022594834
,-0.06881059
,-0.064441189
,0.032954771
,-0.080281571
,-0.015420567
,0.017231612
,0.018033221
,-0.035100691
,-0.041788574
,-0.054352943
,0.0071331528
,0.34241194
,-0.013989694
,0.11932987
,-0.025877256
,0.10372212
,0.036453538
,-0.0070267785
,0.076027632
,-0.086389638
,-0.068810545
,0.33836362
,-0.05617379
,0.016447974
,0.030759625
,-0.011254632
,-0.038785893
,-0.096835315
,-0.19528794
,-0.051476158
,0.005906017
,0.007763146
,-0.060748488
,-0.043475233
,-0.092566594
,0.056254182
,-0.026087299
,0.059275821
,0.029392304
,-0.044306684
,0.37688425
,-0.079895385
,0.089165375
,0.069243774
,0.037523713
,-0.0083163269
,-0.10988055
,-0.0055247848
,0.039970551
,-0.11079548
,0.06389536
,0.046050325
,-0.15271617
,-0.025336392
,-0.13989252
,0.050084487
,-0.082233615
,-0.079736121
,0.035320211
,-0.05293953
,0.074973591
,-0.021893751
,0.049587555
,0.2509034
,-0.0366738
,0.055459
,-0.030490087
,-0.067437731
,0.13773833
,-0.082422882
,0.15966639
,0.066183612
,0.35913011
,-0.02907682
,0.20292805
,0.15386024
,0.053032633
,-0.072258852
,-0.1111651
,-0.067519061
,0.10387716
,-0.0019519181
,0.052588891
,0.065898821
,0.049641959
,0.055535972
,-0.069803558
,-0.11474033
,-0.23544607
,-0.23115744
,0.037963636
,0.22429404
,0.050745059
,0.36177021
,-0.028440567
,0.037862185
,0.0908057
,-0.12579679
,0.0028929519
,-0.0032668905
,-0.014988297
,0.018729111
,0.24468805
,0.048479766
,0.02983718
,-0.097303689
,-0.086185127
,-0.069080889
,-0.06667307
,-0.020954279
,0.050462425
,-0.063527711
,0.03129245
,-0.031765338
,-0.13871817
,-0.054974638
,-0.062061276
,-0.069166049
,0.01182692
,0.041372076
,0.055653553
,-0.11224183
,-0.041830648
,-0.08164908
,-0.12759593
,0.014347173
,-0.054216184
,-0.020252218
,-0.020940607
,-0.037630767
,0.074375369
,-0.0039015524
,-0.028879832
,-0.068467416
,0.020018643
,-0.049932938
,0.04156233
,-0.0673209
,-0.0011078384
,0.41983828
,-0.015963729
,-0.28484127
,-0.13237588
,-0.4614532
,-0.022905454
,-0.069066234
,0.035775743
,0.046655454
,-0.15461509
,0.21916567
,-0.0014332277
,-0.027839314
,-0.012592936
,-0.034733709
,-0.036816094
,-0.14003727
,-0.31158286
,-0.0886371
,-0.049010556
,-0.0060065654
,0.004813781
,-0.081422269
,-0.13479525
,0.046233989
,-0.090343252
,-0.083862364
,-0.17912184
,-0.077558927
,0.58300179
,0.064130276
,-0.037336677
,-0.096313186
,-0.047114383
,0.0029099425
,-0.015133901
,0.019628141
,0.0516544
,-0.03714351
,0.067372948
,-0.078060217
,-0.33973044
,-0.069422983
,-0.040185731
,0.09120895
,-0.072889164
,0.044944353
,0.19796056
,-0.0012480929
,-0.040113308
,0.017297175
,0.050760634
,0.1997271
,0.0774879
,0.04629546
,0.060715605
,-0.044617467
,-0.13692233
,-0.16915074
,0.028124899
,-0.22378625
,0.15090019
,-0.049496707
,0.09468925
,0.17376661
,0.18957497
,-0.040771089
,0.053315982
,-0.18972321
,0.25184351
,0.24172407
,-0.088736467
,0.12084301
,0.017842999
,-0.15958187
,0.013313472
,-0.10415152
,-0.34842265
,-0.37913015
,0.024854096
,0.29728064
,-0.14574096
,0.45575216
,0.05790012
,0.0086833257
,-0.024521522
,-0.1272781
,0.082313009
,-0.023208356
,0.06358403
,-0.060003329
,0.37057173
,0.075230867
,0.016136644
,-0.091166228
,0.025433568
,0.13227409
,-0.14977929
,0.13804798
,-0.063180164
,-0.026345888
,0.13191625
,-0.0060891667
,-0.2901206
,0.1244949
,-0.33236697
,-0.24469019
,-0.044699524
,-0.032687984
,-0.10293695
,0.17523302
,-0.027545733
,0.052834958
,-0.092315577
,-0.068559885
,-0.14126524
,-0.15184583
,0.20780534
,-0.13699774
,-0.11970364
,-0.012007256
,0.032969613
,-0.39977685
,-0.17281891
,0.052556902
,-0.056804769
,-0.0506733
,-0.10442057
,0.38257036
,0.11257682
,0.11763284
,-0.2218339
,-0.26417205
,-0.015213776
,-0.10595468
,-0.42097044
,-0.064239979
,-0.49494734
,0.43514898
,0.030309159
,-0.026587972
,-0.006223388
,-0.12555854
,0.068972223
,-0.085822143
,-0.18190365
,-0.002273554
,-0.159489
,-0.028338986
,-0.11057273
,0.03288978
,0.069695987
,-0.061885063
,-0.029291023
,-0.025030345
,-0.17752881
,-0.076848924
,0.51425403
,0.013485638
,-0.14911284
,0.0253018
,-0.019200731
,0.070265323
,-0.18353496
,-0.028227031
,0.036063302
,-0.10772063
,0.065406948
,-0.070232965
,-0.43699625
,0.031305742
,0.10932289
,-0.12514114
,0.22910126
,0.059617933
,0.060704682
,0.077433035
,-0.079761878
,-0.07045462
,0.013878908
,0.057108089
,0.051702347
,-0.054249868
,-0.016281541
,-0.25009763
,-0.14776298
,-0.10647137
,0.0090487953
,-0.13567734
,0.41924766
,0.0777593
,0.061269429
,0.22043681
,0.042521264
,-0.032746159
,0.031262252
,-0.334346
,0.0015881545
,-0.066946484
,-0.10860316
,0.42240366
,0.01705787
,-0.1608247
,0.0054289363
,-0.11117905
,-0.10614249
,-0.37689751
,-0.062373735
,0.30898324
,0.030098513
,0.56713772
,0.10863778
,0.055153657
,0.20507847
,0.058980752
,-0.01708591
,-0.078653529
,-0.028417964
,-0.015331987
,0.094805151
,0.18376812
,0.1133126
,-0.21482138
,0.0051121661
,-0.073958434
,0.13937743
,0.21332298
,0.048932169
,-0.061309166
,-0.43457279
,-0.058447961
,-0.10655776
,-0.19522102
,0.0052203094
,-0.35207549
,0.10971699
,0.037274543
,-0.06722524
,-0.02188527
,-0.034172371
,-0.054240797
,0.034441527
,-0.080426313
,-0.18698898
,-0.11556405
,-0.095495492
,-0.22427747
,0.091949828
,0.015710019
,0.019144975
,-0.24715437
,-0.19083923
,0.24620134
,-0.0051498325
,0.34005547
,-0.023886235
,0.24359092
,-0.12010417
,0.056704223
,0.066262491
,-0.022101738
,-0.087445877
,0.058215827
,-0.36257088
,0.056874391
,-0.16540155
,0.29325792
,0.16864723
,-0.048693098
,-0.13140777
,-0.089183316
,-0.11780421
,0.18013479
,-0.34446412
,-0.021162085
,-0.4068146
,0.024788592
,0.0028611918
,0.019594414
,-0.33840957
,0.055230234
,0.024965189
,-0.39528409
,-0.1068049
,-0.012849428
,0.51095027
,-0.068606339
,-0.079251036
,-0.22603202
,0.1014964
,0.058835909
,-0.041704748
,0.047570676
,0.096005328
,-0.40601763
,-0.042465422
,-0.047342326
,-0.50712979
,0.082150646
,0.22206409
,0.013756393
,0.048230786
,-0.0654182
,-0.051282711
,0.05863598
,0.10497006
,0.069338933
,-0.034672059
,0.38624594
,-0.054249883
,-0.087311111
,-0.028147107
,-0.68504095
,0.054492842
,-0.23957394
,0.0469108
,0.38932607
,0.39154094
,0.050083417
,-0.12826295
,0.16068597
,0.089148954
,-0.010965521
,0.0617672
,-0.84454334
,0.25276729
,-0.1646754
,0.08880166
,0.53452277
,-0.007410245
,0.28434172
,0.0014708355
,0.15700734
,-0.3197456
,-0.18639608
,0.071589507
,0.12459665
,0.098091207
,0.37644264
,-0.063137352
,-0.0278102
,-0.039509702
,0.011509858
,0.036467817
,-0.18069121
,0.00096909754
,-0.011380528
,0.44817173
,-0.20974301
,0.16604015
,-0.49693781
,0.169122
,0.057817034
,-0.13199331
,-0.012073293
,-0.040730633
,0.1110128
,0.094687238
,0.013182888
,0.17796706
,-0.31480896
,0.42894146
,-0.33627421
,-0.0964221
,0.023392422
,0.051655136
,-0.010817145
,0.074409716
,-0.074143663
,-0.078754745
,0.091538504
,-0.24969891
,-0.084805682
,-0.43974939
,-0.34019703
,0.026498316
,-0.10584868
,0.037827041
,0.12255549
,-0.30433735
,-0.098128729
,0.042884372
,0.21654266
,-0.047643587
,0.40636289
,-0.04019089
,-0.2047919
,0.26434988
,0.29281795
,-0.084418036
,-0.02614511
,0.39166343
,-0.089330383
,0.0062976126
,0.32336777
,0.02205194
,0.074462019
,0.049620263
,-0.030403107
,0.1459401
,0.22570284
,-0.38591823
,0.072593182
,0.12131275
,-0.17794447
,-0.17267425
,0.024849163
,-0.48993406
,-0.019096259
,0.066627517
,-0.11812212
,0.08116138
,0.33743843
,0.21179959
,0.0027152493
,0.22497319
,0.19913645
,-0.0028337524
,-0.024678918
,-0.53861743
,0.045361884
,0.051697552
,-0.31360778
,-0.055675995
,0.015982235
,-0.38658047
,0.044566371
,0.00934469
,0.087372452
,-0.25919321
,0.085745685
,0.10980871
,-0.072376087
,-0.10491451
,-0.0913999
,-0.084435254
,0.40370503
,-0.14458579
,0.072439194
,-0.020142851
,-0.358514
,0.20814212
,-0.29418498
,-0.12642357
,0.078740254
,0.26261103
,-0.18279456
,-0.31326997
,0.25498688
,-0.31311804
,0.034896344
,0.22004642
,-0.28571272
,0.30492428
,-0.47277027
,-0.069525115
,0.41641083
,0.051467583
,-0.26882145
,-0.16952309
,-0.12607187
,-0.49365383
,-0.083369963
,-0.049355954
,0.10298629
,-0.1940327
,0.57716042
,0.16414702
,0.047094434
,0.22401272
,0.59124982
,-0.054676518
,-0.097396396
,-0.11985705
,0.025342211
,0.16191626
,0.031815745
,0.35645139
,-0.48191905
,-0.12345602
,0.1421725
,0.027824048
,-0.66084862
,-0.026810028
,-0.20329283
,0.25844696
,-0.04377798
,0.22210826
,0.021985952
,0.22516279
,-0.26530927
,0.20203085
,-0.24288669
,0.10595694
,0.072326034
,-0.067737386
,0.11643748
,-0.36413634
,-0.19564481
,-0.27130598
,0.014871955
,-0.28722605
,-0.22458363
,-0.2514717
,-0.079087675
,0.056467902
,0.39208859
,-0.377722
,-0.11193588
,-0.044984572
,-0.27929127
,0.048258029
,0.44893774
,0.04014159
,0.14081787
,0.32639673
,0.53872275
,-0.021263417
,-0.011834367
,0.50920957
,-0.055822421
,0.0850544
,0.31329209
,-0.21887775
,0.031721476
,0.21352834
,-0.14558552
,-0.085632294
,-0.18459521
,-0.15224653
,-0.043717515
,0.13069037
,0.069374949
,-1.2325219
,0.0063094567
,0.42578927
,-0.080055796
,-0.050034221
,-0.044636887
,-0.10785982
,0.017452855
,0.33919829
,0.10345097
,0.28563896
,-0.022751752
,0.079545684
,-0.023715483
,-0.4563202
,-0.041400474
,-0.077554263
,-0.496923
,0.028731078
,-0.055708215
,-0.15771921
,-0.0019569525
,-0.12776345
,-0.05320859
,0.32276145
,0.12707435
,-0.051369224
,0.049051207
,0.015681537
,0.074759446
,-0.045838576
,0.39028537
,0.2719247
,0.064426035
,-0.042996835
,0.33786443
,0.10954292
,-0.39939162
,0.052225705
,-0.63261229
,0.24221686
,0.30485344
,-0.062784158
,0.12561424
,-0.2381295
,-0.031078983
,0.041837934
,0.078941248
,0.37676722
,-0.082743555
,-0.021083917
,0.48328921
,-0.034523617
,-0.11126938
,-0.077238843
,0.034624968
,-0.19720097
,-0.17622931
,0.02820852
,-0.59029824
,0.42508852
,0.34511888
,-0.061485112
,-0.13363178
,-0.1067628
,0.26542416
,-0.036441032
,-0.090154953
,-0.058205336
,0.0195846
,0.33624637
,-0.019009437
,0.24808362
,0.093272418
,-0.05739031
,0.14766979
,0.20222
,-0.59628636
,0.049006831
,0.09178669
,-0.077276573
,0.072460748
,0.12674865
,0.037754204
,0.03146936
,-0.074351877
,-0.30301398
,-0.34766558
,0.036680285
,0.021455554
,0.049243439
,-0.20594758
,0.059442583
,0.23201695
,-0.82268989
,0.19535457
,0.23738928
,-0.65838343
,0.11765631
,0.099676028
,0.092117675
,0.11929637
,-0.45320934
,0.20725925
,0.12211142
,-0.29775193
,0.093591116
,0.69527423
,-0.13221173
,0.268351
,0.17038545
,-0.097798921
,-0.099754095
,0.040514883
,0.44425416
,-0.039296031
,0.39353803
,0.37397027
,0.15915191
,-0.085421294
,-0.047322787
,-0.027226925
,-0.070641756
,-0.0029772806
,-0.02695143
,-0.060001217
,0.24764724
,0.0076368297
,-0.1432191
,-0.17194965
,-0.053986829
,0.0798419
,0.041580606
,0.048638329
,0.082441747
,-0.21227266
,0.0731999
,0.0083881076
,0.032866724
,-0.00582198
,-0.069122821
,-0.038875774
,-0.20696425
,-0.032284413
,-0.074633911
,-0.37847933
,-0.060493626
,0.16752081
,0.13926762
,0.022335107
,-0.33065605
,0.092466012
,0.032293767
,-0.10931838
,-0.4673174
,0.065780796
,0.0706609
,0.10066096
,0.18243657
,0.299837
,-0.090985812
,-0.097657487
,-0.0940743
,0.72177905
,-0.3580763
,-0.059459303
,0.13813062
,0.4701871
,0.075533092
,0.096130386
,0.24390088
,0.040428784
,-0.14312096
,-0.030373512
,-0.68941003
,0.19000834
,0.457987
,0.1829588
,0.1945761
,0.2510896
,0.033381429
,0.506772
,-0.10998556
,-0.69969374
,0.14759693
,-0.13937797
,-0.13032258
,-0.69522542
,0.035420831
,0.51878715
,0.081155084
,-0.34800971
,-0.03768694
,-0.45136237
,0.050517954
,0.078571588
,0.15094607
,-0.069890544
,0.23144516
,0.016988946
,0.29116407
,0.24397518
,-0.01714335
,0.13288175
,-0.21868421
,-0.26254615
,-0.11151025
,-0.13461776
,-0.60088307
,-0.16841078
,0.26028326
,0.5409928
,0.30891761
,-0.17054841
,0.2403418
,0.12892103
,-0.055470861
,0.0013028709
,-0.085744843
,-0.16305779
,0.18783273
,-0.10220232
,-1.5067624
,-0.1948369
,0.30289954
,-0.46385798
,-0.19679552
,-0.22086841
,0.040806275
,-0.018010911
,-0.79902709
,-0.14090857
,-0.074690409
,0.23446858
,0.051874604
,0.44597429
,0.15318561
,-0.10478964
,0.14127892
,-0.13731103
,-0.08766897
,0.048388608
,-0.25533903
,0.13750374
,0.71050823
,0.26913559
,-0.094470523
,0.066694267
,-0.20527823
,-0.88698775
,-0.10164435
,0.4111385
,0.063640244
,-0.091818556
,-0.24794909
,0.19815347
,0.16006562
,0.0070706056
,-0.11754464
,-0.080308028
,0.15588543
,0.088851586
,-0.16747569
,0.37624469
,0.37556481
,-0.089618854
,-0.65059507
,0.026302397
,0.18184026
,0.11225082
,0.12818336
,0.21767716
,0.030338028
,0.34147468
,0.0036902765
,-0.12181969
,0.013849472
,0.11987744
,0.41301337
,0.083160542
,-0.2742005
,0.027987244
,-0.1492786
,0.050974879
,0.050163615
,-0.096895717
,0.010346422
,0.24287051
,-0.15554114
,0.0041709864
,-0.25554106
,0.51109034
,0.17398894
,0.32659107
,0.57723743
,0.60271049
,-0.33366308
,-0.43086672
,-0.079587869
,-0.065927617
,0.025013259
,-0.0621405
,-0.16681832
,0.21597822
,0.49998924
,0.36367249
,-0.10568919
,0.4053013
,0.0520869
,-0.23752268
,-0.019757256
,-0.043968596
,0.51598203
,0.21458998
,-0.0028306614
,-0.17094488
,-0.37990132
,0.3353551
,0.047754012
,-0.34504288
,0.25233275
,-0.54074717
,-0.16109319
,0.31490618
,-0.21475105
,0.17851576
,0.14218485
,0.016006641
,0.27280051
,0.46111611
,0.050726209
,-0.13152771
,0.10191634
,0.27635312
,-0.0028918416
,0.11003503
,0.42199558
,0.15684694
,-0.18374999
,0.35061473
,-0.72182065
,-0.12457783
,-0.19795637
,0.37833682
,-0.068568662
,-0.061670016
,-0.11020365
,0.24875636
,-0.36917931
,-0.047118161
,-0.81430066
,-0.17536663
,0.2720165
,-0.49922779
,-0.021154171
,0.29400915
,0.056027509
,-0.26187366
,-1.9679526
,-0.46951488
,0.0068164659
,0.63347828
,-0.066428632
,0.65829057
,-0.11745384
,-0.10823457
,0.27175796
,-0.56181234
,-0.059253003
,-0.074371159
,-0.96971822
,-0.078822017
,0.26717228
,0.23248488
,0.35139674
,-0.004830868
,0.093952149
,-1.28677
,0.0226172
,-0.073688693
,0.10518083
,-0.028328322
,0.18948989
,-0.22401215
,0.60878319
,0.22032219
,0.23253408
,0.069094852
,0.0408219
,0.0072363806
,0.25844002
,0.079988219
,0.2031073
,-0.12872626
,0.077547774
,-0.12407363
,0.051771864
,-0.15003489
,0.19942586
,-0.14010881
,-0.079232104
,0.055012915
,-0.066972956
,0.18273476
,0.24269781
,0.052635167
,0.19445209
,-0.15476847
,0.15340883
,-0.099857107
,0.015581757
,-0.063461214
,-0.12463749
,-0.020961132
,-0.32960004
,0.37606153
,0.12829718
,0.075591169
,0.20061572
,0.18730809
,-0.057004247
,0.32310838
,0.306954
,-0.6744284
,-1.0426986
,0.12785164
,0.048966661
,0.16301632
,0.050783396
,0.004450147
,0.7725895
,-0.51781493
,0.39028382
,0.085758567
,-0.15596479
,0.2039834
,-0.19464926
,-0.20068605
,0.035584144
,0.54029673
,0.18887575
,0.12218941
,-0.036123883
,0.28215957
,-0.19660294
,0.37877968
,-0.12018167
,-0.2893407
,0.037295148
,0.056901727
,-0.054829363
,0.016250286
,0.04307241
,-0.12175299
,0.24509597
,0.19132179
,0.32926691
,0.26611289
,-0.18028505
,-0.095113911
,-0.13519429
,0.87708586
,0.2654683
,0.080715939
,0.61081994
,-0.11312353
,0.11227354
,-0.47231653
,-0.7108373
,0.22719215
,0.19276124
,0.36239618
,-0.072864868
,0.13930933
,0.13789636
,0.28865123
,0.13970891
,0.27525216
,-0.1084469
,0.32471848
,0.34248567
,-0.016682403
,0.023562461
,-0.13985448
,0.058873847
,-0.34628928
,-1.5062702
,0.58864081
,0.11423966
,0.20939368
,0.22684547
,0.7843188
,0.16032363
,0.39472857
,0.058093887
,-0.56818557
,-0.44130433
,0.071162842
,-0.20421183
,0.051454671
,0.014679736
,0.34658581
,-0.4989039
,-0.086738423
,0.099458434
,-0.24787363
,-0.11896736
,-0.315834
,0.036490764
,0.020599321
,0.33798164
,-0.09587194
,0.54569536
,-0.10453553
,0.28063267
,0.10991038
,-0.15629773
,0.37146086
,-0.20113872
,-0.40748551
,-0.4083164
,0.15206432
,0.90624189
,0.16296394
,0.026568029
,0.16114698
,0.088250466
,-0.16609174
,0.20465137
,-0.18417025
,-0.045692526
,-0.14686215
,0.055070963
,0.070168965
,0.10595337
,-0.077958539
,0.39146
,-0.10620249
,0.19071621
,-0.21620943
,0.059333891
,-0.019042941
,-0.1219092
,0.44880939
,0.034815058
,0.23993172
,0.013042944
,-0.56699079
,-0.075799569
,0.58008456
,-0.47747183
,-0.44731119
,-0.67945415
,0.24554203
,-0.23281117
,-0.029237941
,0.53771478
,-0.07847058
,-0.15381214
,-0.17514034
,0.50727707
,0.22116137
,0.20213866
,0.42377302
,0.14029081
,0.68779504
,0.1684804
,0.6554181
,0.12729876
,-0.0425953
,-0.061587062
,0.24988811
,-0.067655876
,0.52958566
,-0.0057269456
,0.32092887
,0.08263921
,0.21229744
,0.3235009
,0.06082591
,0.047079749
,-0.17918965
,0.10365543
,-0.33634672
,0.39334959
,0.21225108
,-0.22430304
,-0.41639349
,0.087958135
,0.68442041
,-0.071104072
,-0.028980155
,-0.41272041
,0.11495353
,-0.0013124209
,-0.58790827
,0.45616302
,0.29702571
,0.14267479
,0.0782907
,0.0444409
,-0.25949407
,-0.098062307
,-0.061819814
,0.29508039
,-0.12189998
,0.21127987
,0.071140453
,-0.17673956
,0.0747121
,0.076779604
,0.11573768
,-0.032767452
,0.134799
,-0.60615468
,0.085236773
,0.025153611
,-0.46316501
,-0.12619367
,0.64364094
,-0.11879743
,0.12518664
,0.093963392
,0.604024
,-0.94668508
,0.28919268
,0.56168693
,-0.0063626477
,-0.28242695
,0.39705727
,0.12005895
,0.034186285
,-0.014898546
,0.08900959
,-0.0012415216
,0.18594153
,0.15202963
,0.072185695
,-0.35263976
,0.11933263
,0.4136107
,-0.31517586
,0.13569693
,-0.056979351
,0.30560553
,0.016431797
,0.18014024
,-0.24023397
,-1.5440083
,-0.007390317
,0.66497219
,-0.0091515491
,0.21424359
,-0.10746231
,0.23100938
,0.32321885
,-0.17801397
,0.17439048
,0.0011501848
,-0.248266
,0.15613355
,-0.17893574
,-0.14624065
,0.21172382
,-0.45859069
,0.1628332
,0.42377046
,-0.5604046
,0.067482822
,-0.070654869
,0.10645081
,0.34439835
,-0.26451311
,-0.48412809
,-0.069017224
,-0.54965019
,0.19315077
,0.33364362
,-0.39232352
,0.67957461
,-0.04608798
,-0.023384344
,0.041304369
,0.362518
,0.12346667
,0.18432714
,-0.13579489
,0.20544016
,0.51471084
,0.12717447
,-0.15988176
,0.44108802
,-0.11035251
,-0.017357357
,0.42837414
,0.17466949
,-0.31636018
,0.16562197
,-0.097634837
,-0.10424566
,0.40794528
,0.45351297
,0.084972747
,0.081412047
,-0.11420688
,0.28207821
,-0.23024097
,0.1734872
,-0.096019149
,-0.19598146
,0.20172422
,0.13043736
,0.25748113
,-0.08071094
,0.22477818
,-0.31247777
,0.26047108
,-0.10671055
,-0.35447103
,-0.17337149
,-0.32421124
,-0.19668728
,0.2292788
,-0.13217141
,0.65324408
,0.1240254
,-0.3381286
,-0.43416452
,-0.069389619
,0.21254402
,0.038027946
,0.059203293
,-0.044660497
,0.26688272
,0.34670928
,0.15424801
,-0.71636832
,0.27809238
,0.047054194
,0.079539753
,-0.081318341
,0.45930794
,0.042592891
,-0.68235779
,-0.32316643
,-0.56776047
,0.084531449
,-0.20950831
,-0.098739922
,-0.34016344
,0.23413777
,0.633106
,-0.39684859
,-0.25755471
,0.72738236
,0.17594244
,-0.34755996
,0.18090473
,0.46211237
,0.054787081
,-0.35865185
,0.04469531
,0.17426656
,0.32213381
,0.18034048
,0.10657677
,-0.471989
,0.32222578
,0.076676406
,-0.061336637
,-0.19608186
,-0.0084561873
,-0.18843713
,-0.095106281
,-0.049757071
,0.24818063
,-0.87604666
,0.04924845
,-0.60548
,0.015213733
,-0.19716568
,0.18070434
,0.17260557
,-0.047810093
,-0.016008254
,0.22744352
,0.0081626186
,0.11704024
,0.3994759
,0.055044204
,-0.054599151
,-0.065081626
,0.24328499
,-0.093389466
,0.20732009
,-0.43239081
,-0.070457526
,-0.089219645
,0.320582
,0.22920252
,0.22255613
,0.10553658
,0.14246783
,-0.036110386
,0.19071947
,0.45644635
,0.55879688
,0.34450951
,0.15217757
,-0.3086291
,0.11828979
,-0.30162069
,-0.23620009
,-0.085407168
,0.12096167
,0.640147
,0.270678
,-0.52823514
,-0.053675607
,0.28955415
,-0.022338506
,-0.62659091
,0.11265543
,0.075213932
,-0.33072609
,0.22040904
,0.12979186
,-0.050406311
,0.38124663
,0.29046208
,-0.068546
,0.037107535
,0.090662092
,0.2415579
,0.055641174
,-0.037078686
,0.10435779
,0.19072926
,0.21132717
,0.12516069
,0.15976773
,0.15751725
,0.053752292
,0.12262449
,-0.51253307
,-0.572726
,0.21026762
,0.1174731
,0.34417218
,-0.10535503
,0.31478029
,0.55618221
,0.4136928
,0.19856645
,0.19361849
,-0.598383
,-0.10490558
,-0.0905587
,-0.08635857
,-0.032884344
,0.26136193
,-0.595691
,0.35857737
,-0.022808393
,0.066889994
,-0.025500298
,0.38759762
,-0.18851733
,0.079222023
,0.49998331
,0.47682622
,0.27426562
,-0.15288964
,-0.06372723
,0.023806987
,-1.030839
,-0.04106025
,0.23399769
,0.38894874
,0.40228492
,-0.10265398
,-0.11566495
,0.32883549
,-0.18454173
,-0.1212211
,-0.17508146
,-0.18438028
,-0.10843389
,0.020518692
,0.061188161
,-0.096389294
,0.078990407
,0.076155417
,-0.47537148
,0.17030454
,-0.19635025
,0.011723698
,0.33062133
,0.23038945
,-0.070388928
,0.034433093
,-0.073334262
,0.089081481
,0.026955135
,-0.25364375
,-0.05426345
,-1.0254215
,-0.070282854
,0.17590778
,0.087054059
,0.54145914
,-0.11956007
,-0.072326846
,-0.15403561
,0.026857952
,0.36920181
,0.22590666
,0.088593177
,0.33087745
,-0.10742157
,0.21681051
,0.0013698117
,-0.12158345
,0.13171411
,-0.020071413
,0.10045192
,-0.058870137
,0.06194612
,0.044676796
,-0.068099268
,-0.031215038
,0.86572814
,-0.22232878
,0.31216377
,0.45555291
,-0.93531311
,0.13127777
,0.32589859
,-0.1180924
,0.090310432
,-0.108413
,-0.083850138
,-0.36318523
,0.40870494
,0.21993862
,-0.12673126
,-0.0515607
,0.16947758
,-0.057954311
,0.3072682
,-0.079583943
,-0.50935948
,0.34753096
,0.041734159
,-0.078727029
,-0.093999192
,0.1441835
,0.020261822
,-0.12447691
,0.084548272
,-0.23536769
,0.26492411
,-0.20627922
,-0.34142697
,0.043030348
,0.010945669
,-0.23972836
,-0.26174882
,0.1106367
,-0.017874274
,-0.022298096
,-0.081530116
,0.28826544
,-0.79727519
,0.22685581
,-0.029579453
,0.53915381
,0.2509844
,-0.19796522
,0.7668792
,-0.028643636
,0.083011195
,-0.06267295
,0.39959788
,0.18472916
,0.058025129
,-0.10014638
,-0.21263304
,0.29165366
,0.19851694
,0.25078017
,-0.30471551
,0.56295663
,0.09220282
,-0.24439597
,0.41135734
,-0.064896993
,0.10742945
,0.74386531
,0.39539787
,0.35957298
,0.57205337
,0.026127746
,-1.6411371
,0.0894043
,0.097210623
,0.022436826
,0.19169289
,0.42819998
,-0.13438067
,-0.50632578
,-0.01449901
,0.19072214
,-0.50901276
,0.23531917
,-0.0040301131
,0.39429638
,0.1089665
,0.062993735
,-0.52691627
,0.086466372
,-1.0764265
,0.30316609
,-0.25836709
,-0.074396625
,0.014653014
,0.337711
,0.064293675
,-0.0083780214
,-0.0061414684
,0.040324349
,-0.014793044
,-0.051042441
,0.16328496
,-0.1509635
,0.10682831
,-0.28744477
,-0.14623357
,0.3852793
,-0.040231068
,-0.10124596
,0.28934994
,0.0824309
,0.083264768
,0.38475955
,0.17023802
,0.095310576
,0.18529284
,-0.31404522
,-0.1553694
,-0.26823598
,0.039277811
,-0.032395814
,-0.059928827
,-0.26834804
,0.07745982
,0.13087218
,0.25357494
,-0.22443983
,0.91957158
,-0.24304478
,0.029446464
,0.15198931
,0.19822398
,0.1318292
,0.38280654
,0.066766836
,0.04591034
,-0.24392115
,0.029163402
,-0.13330778
,-0.28687382
,-0.069810577
,0.52310574
,-0.050665814
,-0.20755944
,-0.046087179
,0.27043179
,-0.2704052
,-0.22283956
,0.26144692
,0.26742119
,0.12837501
,-0.10684983
,-0.6024338
,-0.068571389
,-0.014275417
,0.037170734
,-0.28751332
,-0.28581846
,0.049898569
,-0.27956134
,0.044882
,0.13653594
,-0.49242407
,0.273033
,-0.10362264
,0.36584583
,-0.023876404
,0.25083804
,0.35455707
,0.20278472
,-0.23112138
,-0.014898498
,-0.75871909
,-0.082369663
,-0.1541118
,0.51185447
,-0.65332466
,0.42471105
,0.25577721
,0.6624108
,-0.06872613
,-0.0092518441
,0.060417615
,0.011647353
,-0.079884417
,0.30074212
,0.29959968
,-0.037856068
,-0.050867885
,0.080785044
,0.053184595
,-0.38496086
,0.042237461
,0.10513099
,0.80426812
,-0.36858839
,0.060462721
,0.71562755
,-0.1157348
,-0.87300771
,-0.052624982
,0.14677013
,0.30622497
,-0.29220802
,0.17642076
,0.064859323
,-0.78290486
,0.019352658
,0.57537687
,-1.214788
,-0.21911506
,-0.10723988
,-0.087199442
,0.17112039
,-0.010490947
,0.23822181
,0.32409713
,-0.700633
,0.01822859
,0.12956597
,0.25306168
,-0.32186216
,0.056424517
,-0.12916368
,-0.19699511
,0.15897374
,0.080495432
,-0.017019564
,-0.049348176
,-0.093710259
,0.74569368
,-0.014651241
,-0.06548138
,-0.098337784
,0.10694012
,0.014339728
,0.037043288
,0.34843343
,0.027192727
,0.28989744
,0.3651585
,-0.30684036
,0.33915907
,-0.08747264
,-0.1139366
,0.2362818
,-0.28549883
,0.26206413
,-0.033780318
,-0.061939463
,0.17238078
,-0.0023366255
,-0.29289877
,-0.19237512
,0.18758468
,0.59768033
,0.09296789
,0.01839163
,-0.35622036
,0.65079647
,-0.040421337
,-0.70100707
,-0.074918225
,-0.054300342
,-0.067487478
,-0.024044259
,0.13600837
,-0.025620488
,-0.32833812
,0.28087923
,-0.049715985
,-1.0697534
,0.014924316
,-0.42220443
,-0.12198953
,0.036895551
,0.34468424
,0.17798629
,0.086118229
,0.087087467
,-0.32324994
,-0.31853142
,0.060191218
,-0.33288702
,0.24921469
,-0.52363932
,0.053977683
,-0.0040241918
,-0.079704754
,0.011190909
,-0.65476257
,-0.15075512
,0.076548226
,0.27894562
,0.086550988
,0.18461405
,-0.52082407
,0.56417465
,-0.12304396
,0.040771697
,0.12092884
,0.085250646
,0.10215308
,-0.18706605
,-0.32904935
,0.16238163
,-0.10295127
,0.17406847
,0.0089738192
,-0.11746082
,0.12636089
,0.11320347
,-0.27007237
,0.32810062
,0.55907524
,-0.037391424
,0.33282152
,0.48901364
,-0.056913611
,-0.028394651
,0.076480158
,-0.44054264
,0.76040274
,-0.11220837
,-0.15590292
,-0.044213515
,-0.020645402
,-0.36303204
,0.1469426
,-0.29713571
,0.13529222
,-0.95552909
,0.14470939
,-0.15647706
,-0.23395112
,0.12442758
,0.13184647
,-0.79654717
,0.18718879
,-0.089780025
,-0.29067793
,0.42445824
,-0.020010397
,0.1706035
,0.222099
,0.033314012
,0.11398296
,-0.12855126
,0.16204478
,-0.21002276
,0.07142169
,-0.0020132111
,0.031667203
,-0.30505574
,0.1160332
,-0.078396477
,-0.10418127
,-0.068494707
,0.46273917
,0.10469657
,0.050142184
,-0.14347923
,0.44123051
,-0.098388523
,0.065602705
,0.39464766
,0.039069671
,0.19317709
,0.18523251
,0.27920687
,0.11556503
,0.061917208
,0.2054387
,0.022237023
,-0.076847933
,0.083674967
,0.003140955
,-0.04541371
,-0.00705223
,0.1009834
,0.056878842
,-0.073193893
,0.15590133
,-0.12996088
,0.03821113
,0.12340885
,-0.017093578
,-0.014555587
,-0.13927044
,-0.060927793
,-0.016414145
,-0.21605201
,0.27081215
,-0.078877412
,0.33858788
,0.35534164
,-1.0217072
,0.0066582579
,-0.058746751
,-1.2390381
,0.061226323
,0.037987988
,0.069893464
,0.22891657
,-0.006179967
,0.37343287
,-0.118922
,-0.0027222626
,0.14483707
,-0.90630251
,-0.0078615854
,0.51761985
,0.047865391
,-0.31622675
,0.0016579147
,0.093485616
,0.081497908
,-0.0072563943
,-0.21080832
,-0.27503508
,0.068172336
,0.24296887
,0.023398049
,-0.035732441
,0.21579933
,1.0300472
,0.087142035
,-0.054825466
,0.51074713
,-0.15071884
,0.069705442
,-0.7512694
,0.16601814
,0.4970074
,-0.26389185
,-0.30135596
,-0.076935865
,0.18863688
,-0.060922645
,-0.027664931
,-0.193235
,-0.50315493
,0.48681968
,0.24792436
,0.038409509
,0.27573878
,-0.11248279
,0.093945414
,-0.1307465
,0.19594739
,0.50004023
,0.39604169
,-0.11020549
,-0.17840408
,-0.077827647
,-0.21669213
,-0.038226109
,0.023947
,-0.26443705
,-0.44373453
,0.35736954
,0.066077642
,0.55030674
,-0.11709733
,0.22270365
,-0.31481063
,-0.1369552
,0.099952124
,0.2324581
,0.34764221
,0.022589425
,0.0068757087
,0.32898423
,0.027925298
,0.13935176
,-0.0083621424
,0.41067767
,0.25735366
,0.081210032
,-0.012885637
,0.015235074
,0.13743041
,0.066888571
,0.09112332
,0.0074514206
,-0.1176405
,-0.11887684
,0.10548986
,0.089553773
,0.23809564
,0.0054224539
,-0.0022885411
,0.03384085
,0.045588102
,-0.06979312
,-0.44537422
,0.097185977
,-0.087034851
,-0.029206017
,-0.035604652
,-0.21081342
,0.0434784
,0.13949648
,-0.0047664708
,-0.059092559
,-0.081888273
,0.0084284572
,-0.33047506
,0.027342143
,-0.039526537
,0.04647937
,-0.863381
,-0.14313461
,0.070335418
,0.22979201
,-0.50523496
,-0.025194198
,0.53365314
,0.062716447
,-0.076705888
,0.17784686
,0.070193551
,0.028878704
,0.70440215
,-1.4833935
,0.23404358
,-0.018521443
,-0.4004955
,0.0877683
,0.37510261
,-0.036005247
,0.34484726
,-0.015789965
,0.32360777
,0.11862288
,0.036865994
,0.026814898
,-1.337551
,0.027299834
,0.23613785
,0.033222303
,0.16850953
,0.15514624
,0.62453192
,-0.0547641
,-0.079511292
,-0.038145162
,0.20686887
,-0.0902601
,0.506343
,-0.184119
,-0.11557723
,0.18343173
,0.074518435
,-0.0090400623
,0.091818377
,-0.3332603
,0.099217504
,0.14997077
,-0.43183324
,0.11224927
,0.2117434
,0.12862964
,-0.12632211
,0.038950935
,-0.03024937
,-0.11232474
,0.0022897625
,0.0902385
,-0.21038632
,0.33483669
,-0.15324193
,-0.35139957
,0.33073691
,0.2538839
,-0.085628234
,-0.0049721343
,-0.36608604
,0.5820235
,-0.25560731
,0.21025744
,-0.23636465
,-0.0036910926
,-0.12895028
,-0.11546323
,0.048255153
,-0.81578928
,0.15891777
,-0.049091157
,0.087968282
,0.45915145
,-0.040474363
,-0.45758593
,-0.29087868
,0.14844827
,-0.042614553
,0.104865
,0.21388374
,-0.038056664
,-0.17121957
,0.17275663
,0.40786779
,-0.03153437
,0.090430364
,0.062435672
,0.086447492
,0.1502392
,0.052668877
,-0.11181272
,0.10208903
,0.045103144
,-0.049590226
,-0.039001934
,0.087640189
,-0.47341579
,0.093420848
,0.11412305
,-0.26603764
,-0.090042748
,-0.016234627
,-0.025050135
,0.048032079
,0.065917
,-0.51925755
,0.25719878
,0.03333718
,0.11935764
,-0.041895479
,-0.043609034
,-0.053281359
,0.17614186
,0.13581672
,-0.036861684
,-0.0011689389
,0.20975779
,-0.36171809
,-0.13554725
,0.16562769
,0.13158573
,-0.67869347
,0.026990179
,-0.13902614
,0.15837082
,-0.0020202347
,-0.07431107
,-0.21487623
,0.018901063
,-0.19351788
,-0.083514854
,-0.058142103
,0.21809836
,0.50322104
,-0.54181629
,-0.19610515
,-0.075847514
,-0.25463659
,-0.031809688
,-0.031925041
,-0.0720044
,0.10472665
,0.194922
,0.2580739
,-0.0851441
,0.070616081
,0.36078009
,-0.663953
,0.022299569
,0.40097919
,-0.049273755
,0.48087355
,-0.10879105
,-0.34853163
,-0.00408373
,0.088836454
,-0.0096451715
,-0.10147612
,-0.32794768
,0.124405
,0.24206272
,-0.067860223
,-0.28409162
,-0.36116591
,-0.021043716
,0.077115051
,-0.21149673
,-0.043291796
,0.22000475
,0.064885162
,0.17679653
,0.39091119
,-0.14344315
,0.039780892
,-0.030298347
,0.0760809
,0.081927374
,0.090680264
,0.059985351
,0.25726706
,0.40945029
,0.14765796
,-0.023831803
,0.34621331
,-0.023691168
,0.19645783
,-0.0355772
,0.093576118
,0.69151938
,-0.22731364
,0.037272375
,0.2088746
,-0.093427509
,-0.056000583
,0.086820826
,0.078044936
,-0.47624639
,0.27238113
,0.41570461
,0.020073544
,0.11850711
,-0.066514507
,-0.58584195
,-0.19082989
,0.06380897
,-0.13676982
,-0.025954111
,0.27644926
,0.0068105967
,-0.16644922
,0.092266813
,0.408214
,0.24032509
,0.11159094
,-0.65517169
,0.029005604
,0.0078028459
,0.026274463
,0.10817666
,-0.079345956
,0.058384046
,0.057759333
,-0.047393914
,-0.043172147
,-0.1279733
,-0.038863957
,-0.084804736
,-0.19536503
,0.18417571
,0.0053223819
,-0.080676526
,0.19446273
,-0.030298147
,0.0717177
,0.16055919
,-0.14367266
,-0.1675328
,-0.068627343
,0.12908731
,0.039682318
,-0.055604491
,0.11374572
,-0.0020569407
,0.039440531
,-0.28146717
,-0.5957495
,0.091437429
,0.19046845
,-0.18813407
,-0.067939237
,0.0634967
,0.19329648
,-0.14779891
,0.21792386
,0.023767492
,-0.11003304
,-0.020479184
,-0.14180438
,-0.092573471
,-0.099585935
,-0.11979871
,-0.12556385
,-0.28404123
,-0.61212194
,0.03099275
,-0.3019084
,0.06902644
,-0.13597555
,0.0754043
,-0.16562775
,0.21830723
,0.095325768
,-0.11435474
,-0.0013909786
,-0.07097438
,-0.45254651
,0.04891751
,-0.23432286
,-0.068656012
,-0.032456059
,-0.1173582
,-0.25586611
,-0.12842277
,0.063123785
,0.019237742
,-0.0016667041
,-0.22069713
,0.075321
,-0.1799777
,0.15842351
,0.14567341
,-0.6118753
,-0.08711911
,-0.083754994
,0.30176434
,-0.11496326
,0.12278541
,0.12292676
,-0.034462661
,0.093914211
,-0.0031551216
,0.26294157
,0.013431666
,-0.012973187
,-0.0063049993
,0.0027523891
,-0.2005035
,0.12040816
,0.45397595
,0.077002749
,0.36222029
,0.52138156
,0.14046793
,-0.080985777
,0.035838995
,-0.11295596
,0.52422327
,0.34700638
,-0.098605588
,-0.019549754
,0.094323792
,-0.15034536
,0.058128458
,-0.12732349
,-0.16721065
,0.16667
,0.23163049
,-0.061527416
,-0.021166265
,0.032529168
,-0.20439368
,-0.12126908
,-0.1733135
,0.11031037
,-0.016570304
,0.3901355
,0.032898191
,0.22280954
,0.126999
,0.46594205
,0.19531392
,-0.11597593
,-0.47335091
,-0.046634335
,-0.24739657
,0.061989862
,-0.050201204
,-0.18297862
,-0.022799371
,-0.07806915
,-0.081291765
,0.067420863
,-0.069933765
,0.018897085
,0.017365202
,0.30903265
,0.13467689
,-0.0400967
,-0.0036826388
,0.28263539
,0.045248877
,0.057122383
,-0.1424405
,0.096377671
,0.040464364
,0.018650653
,-0.13824829
,-0.040938698
,-0.03826943
,0.33158627
,0.039354742
,0.065675557
,-0.066787906
,-0.5544489
,-0.10484489
,-0.0936622
,0.24668606
,-0.1516671
,-0.066082381
,0.048705455
,-0.19099908
,-0.34960738
,0.060402617
,0.15533341
,0.0030171212
,-0.37150246
,-0.036274653
,0.018980933
,0.014295992
,0.075412922
,-0.10027668
,-0.16939159
,0.024893215
,-0.29195282
,0.011465358
,0.063042328
,-0.069028012
,-0.54949212
,0.3541508
,0.18264955
,-0.01824441
,0.082384437
,-0.51056945
,-0.34318888
,-0.040234294
,-0.28714767
,0.080201074
,-0.047179859
,0.17831482
,0.097497471
,0.020227883
,0.0624518
,-0.094719522
,-0.0014585718
,-0.54026383
,-0.23397826
,-0.0089253541
,0.023604479
,0.056223519
,-0.16455083
,0.035490293
,0.077290125
,-0.064074911
,0.0443963
,-0.2562784
,0.13717759
,-0.16289347
,0.29161561
,0.13674797
,-0.071160749
,0.075131088
,0.061529592
,-0.071641147
,-0.079250641
,-0.015171812
,-0.13377133
,0.25307208
,0.047640063
,-0.1518025
,0.17844136
,-0.080606095
,0.08669547
,-0.0066744937
,0.031147001
,0.58582127
,-0.098751605
,-0.11759255
,0.09320832
,0.052278772
,0.0057968972
,0.098930173
,-0.044485856
,-0.23274198
,0.19028845
,0.31227916
,-0.0074438429
,-0.33404738
,0.047002885
,-0.088307731
,-0.18307386
,-0.10383859
,-0.054865666
,-0.01831889
,0.17796654
,0.056545682
,-0.079201683
,0.089122236
,0.54177356
,-0.018889373
,-0.11200318
,-0.035702329
,0.0051388633
,-0.095462665
,-0.074246146
,0.10884448
,-0.16520225
,-0.1571639
,-0.061086334
,0.0046371105
,0.020490272
,-0.059103858
,-0.053044718
,0.053265963
,-0.1829419
,0.029740369
,0.050507497
,0.081460856
,0.16744624
,-0.052065413
,0.1491413
,0.00756216
,-0.0182674
,-0.033278055
,0.0336141
,-0.18975508
,0.014325581
,-0.0739292
,0.22507167
,0.04934106
,0.054481052
,0.11797215
,-0.44642165
,0.028111234
,-0.095148042
,-0.15602531
,-0.055998988
,0.10058122
,0.035744112
,-0.041769389
,0.014208238
,-0.083756596
,-0.084064223
,0.012176009
,-0.22072521
,-0.13713597
,-0.070123747
,-0.16255131
,-0.0613942
,-0.19510593
,0.0035203728
,-0.027911853
,-0.16179413
,-0.034378584
,0.010833167
,-0.026566466
,-0.039405264
,-0.070170537
,0.12680246
,-0.053246975
,-0.023035482
,0.17859094
,-0.24834287
,0.049613461
,-0.044288576
,0.039423682
,-0.036093142
,-0.016649315
,0.30624944
,-0.03112321
,0.077253096
,0.052089535
,-0.077873453
,-0.45113081
,-0.10953755
,0.081341654
,-0.13504651
,-0.041581083
,0.26075584
,0.019625958
,0.03221076
,-0.19979854
,-0.016056918
,-0.26201653
,0.017287018
,-0.0886688
,0.10264571
,-0.043045413
,-0.048249684
,0.041694142
,-0.048788939
,-0.02179225
,-0.025968133
,0.1112959
,-0.2374578
,0.12006265
,-0.15822847
,-0.058199253
,0.22223195
,-0.18036146
,-0.066231489
,0.053017363
,-0.043352526
,0.67881608
,-0.1903405
,-0.0096660974
,-0.13287206
,-0.11934839
,-0.12130924
,0.02723605
,-0.071783416
,-0.0087533528
,-0.035891578
,0.22716565
,-0.094974935
,0.016327694
,0.036713503
,0.0047315359
,-0.13736862
,0.025446039
,0.087636143
,-0.061218865
,0.34884763
,-0.017394213
,-0.061334811
,0.072641477
,0.5406732
,-0.072854541
,-0.0213563
,-0.08810202
,0.058785919
,0.0029665898
,0.060114857
,0.026935132
,0.13327494
,-0.070624433
,0.022290315
,-0.053100761
,-0.0029916696
,0.07581643
,0.047077794
,-0.07338617
,0.22021621
,0.15162417
,0.035295047
,-0.051603779
,0.15402576
,0.044947445
,0.1540139
,-0.053772811
,0.081819385
,-0.13001992
,-0.005283474
,0.047756989
,-0.1518741
,0.056367762
,-0.033394266
,-0.032013949
,-0.063750051
,0.15516657
,-0.28844127
,0.089645289
,0.083554283
,-0.10681911
,0.0024574318
,-0.15100826
,-0.080768555
,0.044931524
,0.065957844
,0.032573603
,-0.042097747
,0.051797166
,-0.25519708
,-0.084460214
,0.038520623
,-0.073312089
,0.22755958
,-0.078669913
,0.095108263
,-0.05939934
,-0.14866945
,-0.043018188
,-0.16379321
,0.032150168
,0.00045124319
,0.059276354
,0.0736837
,0.097022332
,0.039317783
,0.24145631
,-0.17141499
,0.079417385
,-0.025593795
,0.077652112
,0.095558316
,0.01219245
,0.20611966
,0.077040352
,0.05674772
,0.00804087
,-0.11846037
,-0.29953271
,-0.060566235
,-0.10096141
,-0.0060032425
,-0.016808297
,0.023351582
,-0.07193324
,-0.012111663
,-0.038708109
,0.063105933
,-0.10139307
,0.070481867
,0.052082349
,0.0937946
,0.010222283
,-0.048636459
,0.052090812
,0.10579634
,-0.0073332023
,-0.086471662
,0.14856131
,0.073989354
,0.15209737
,-0.12971543
,-0.095716789
,0.1552919
,0.098011255
,-0.054836217
,0.03707248
,-0.036990017
,0.5753659
,0.036083188
,-0.0094098318
,0.056074295
,-0.051461335
,-0.045615081
,0.0635139
,0.034034453
,0.041821677
,-0.0634295
,-0.044074647
,-0.024241522
,0.065552205
,0.04064117
,0.00097453321
,0.010675594
,0.01272097
,0.054572839
,0.025273995
,-0.079984285
,-0.027320353
,-0.010885378
,0.049713571
,0.023166031
,0.063500881
,0.022946464
,0.0091313021
,-0.040358309
,0.0065328162
,-0.050016031
,0.016484937
,0.046477906
,-0.033788059
,0.03053597
,-0.077864446
,0.019350659
,-0.066509366
,-0.038496897
,0.052323323
,-0.040013526
,-0.0676602
,0.0401322
,0.022429496
,-0.018657852
,0.024347156
,-0.03750468
,-0.002484147
,-0.083113305
,0.043344785
,0.074557029
,0.031415947
,0.021862749
,0.075284749
,-0.0685477
,-0.076190934
,0.046929579
,-0.081824206
,-0.11463191
,-0.08326418
,0.036141511
,0.026301311
,0.0073276036
,-0.021711351
,-0.089833386
,-0.00879993
,-0.035905447
,-0.047429159
,-0.00016069617
,-0.068618648
,-0.074405082
,0.070207916
,0.058684446
,-0.07717929
,0.042707849
,-0.10295832
,0.025747513
,-0.074230559
,-0.037156731
,-0.042170163
,-0.01588561
,0.053766038
,-0.0040168022
,-0.073406778
,0.0072342572
,0.069497854
,-0.027488627
,0.0426631
,-0.071922675
,-0.0428059
,0.070840038
,-0.029415356
,-0.081323646
,0.044920135
,-0.020143677
,0.019808605
,0.038540117
,-0.08182434
,-0.012599343
,-0.077378578
,-0.053273126
,0.075983949
,0.020432353
,-0.044354629
,-0.070274375
,0.038866453
,0.023698021
,0.081231795
,0.0044423267
,-0.076495312
,0.055537775
,0.027160712
,-0.022932168
,0.035396479
,0.059447818
,0.067452773
,-0.065137781
,0.040562455
,0.041695479
,0.041022908
,0.039762452
,0.058335569
,0.085053742
,-0.077808574
,0.044386152
,0.071525551
,0.08656992
,0.063578494
,-0.0077488646
,-0.092233859
,0.067294888
,0.086788096
,-0.076887861
,-0.048869211
,-0.01456202
,-0.0031103755
,-0.040805724
,0.062992632
,0.07573548
,-0.0064137252
,0.058742683
,-0.056666903
,0.032663021
,-0.00017885752
,0.00078731967
,-0.045194387
,-0.073122315
,-0.055098917
,-0.064856417
,-0.060739383
,-0.032914005
,-0.055383354
,-0.044216231
,-0.046483617
,-0.058581345
,-0.015678735
,-0.0030235283
,-0.04052788
,-0.058378197
,0.075624406
,0.079406135
,-0.056157246
,0.040400386
,-0.031954132
,-0.024961796
,0.071904771
,-0.080390975
,-0.033172816
,0.043447617
,-0.058714781
,0.055527121
,-0.034396581
,-0.0017446494
,-0.04646134
,-0.074256375
,-0.075845547
,-0.00043558559
,-0.092604682
,-0.038694847
,0.038588379
,0.013928472
,0.05386724
,0.04813239
,-0.038459461
,-0.054774027
,-0.0087431408
,-0.10127717
,0.0049284189
,0.048914362
,0.056139845
,0.045766152
,0.06377431
,0.02320911
,-0.00087611558
,0.064050548
,-0.075796254
,-0.082543723
,-0.014958138
,-0.053545512
,0.038631342
,-0.010498612
,0.074648172
,-0.11566672
,-0.088007145
,-0.083166495
,-0.010695879
,-0.0848212
,0.0094776889
,-0.058456086
,0.072777428
,-0.024691701
,0.027644832
,-0.043458775
,-0.071890645
,0.021269761
,-0.019114276
,0.058201797
,0.088166818
,-0.048617426
,0.013025861
,0.027114844
,-0.036605932
,-0.035268981
,0.0019235134
,-0.011350065
,0.061858587
,0.019322917
,-0.051359192
,-0.0018848274
,0.004934717
,0.026323142
,-0.014934774
,0.041999374
,-0.056887504
,0.015562691
,-0.084511757
,0.03338046
,0.047408961
,-0.0064970218
,-0.0039364919
,-0.034371983
,0.086131968
,-0.070442073
,-0.047067307
,-0.026897008
,0.082211204
,0.036967095
,-0.019454479
,-0.079489537
,0.058566168
,0.031635255
,-0.013253734
,-0.0670817
,-0.071224853
,-0.0451799
,-0.064505734
,-0.0021346884
,-0.074607626
,0.0082555655
,0.066747412
,-0.0553141
,-0.080256626
,0.010974134
,0.080666177
,0.043527007
,-0.050227758
,-0.025938252
,-0.010017884
,-0.026592473
,-0.048529416
,-0.061100669
,-0.043089889
,0.0030460695
,-0.02362527
,-0.0097093675
,0.023287091
,-0.060849383
,-0.031983979
,-0.067865081
,-0.044325463
,0.06590002
,-0.02572331
,0.03937044
,0.063060291
,0.013528216
,0.042595491
,0.051663592
,0.07223893
,0.020869425
,-0.070470922
,-0.018201163
,-0.051221307
,0.015713798
,-0.01448309
,-0.057548594
,0.023988243
,-0.070564419
,-0.016501715
,-0.043704964
,-0.032555982
,-0.084491953
,0.053609718
,0.081951164
,0.045445159
,0.036469307
,-0.10617469
,-0.035537612
,-0.042074345
,-0.0055150674
,-0.069859773
,-0.074806727
,0.065138847
,-0.027128872
,0.060525827
,-0.023014948
,-0.0051756115
,0.041052397
,0.045331918
,0.02829022
,0.0067943097
,-0.11759201
,-0.064803608
,0.079265259
,-0.012513474
,0.031313624
,0.049976923
,-0.07476183
,-0.023109281
,-0.034105249
,-0.0035480447
,-0.072457783
,-0.022357171
,0.022882504
,-0.0034271984
,-0.074559093
,-0.086107172
,0.035000466
,-0.060721271
,0.035141308
,-0.039626036
,0.041863482
,0.084894009
,0.016315395
,-0.018271167
,-0.013893253
,0.07604897
,0.011106871
,-0.063759647
,0.052787703
,0.043251093
,0.064987779
,0.068873554
,-0.081237622
,-0.030376241
,0.085328177
,-0.0509397
,-0.059657604
,0.023464572
,-0.026634194
,-0.012583984
,-0.020074679
,-0.066102721
,-0.024202466
,0.036770165
,0.033734035
,0.031176969
,-0.072415613
,0.041950185
,-0.034964159
,0.041722611
,0.0053682746
,0.031572308
,-0.0086161494
,-0.017167695
,-0.067742281
,0.057963029
,-0.064872786
,0.018554183
,0.083054096
,-0.050762147
,0.0020771627
,0.0065412568
,-0.075829685
,-0.0054043438
,0.067126065
,0.022107253
,-0.04415486
,0.086703785
,-0.014728001
,-0.034734096
,0.005840092
,-0.080363944
,-0.046266165
,-0.012028337
,0.023597039
,0.026152737
,-0.029757096
,0.085220084
,0.059930183
,-0.054106522
,-0.042223576
,-0.038058933
,0.019780584
,0.083835796
,0.043963127
,-0.086401753
,-0.025564097
,-0.079013392
,-0.016937304
,0.017795848
,-0.010457555
,0.050384589
,-0.016515449
,-0.0031518668
,-0.00014084869
,-0.061274856
,0.0043997425
,0.013802898
,0.034690343
,-0.061214909
,0.065232605
,-0.0693837
,-0.084439054
,-0.057464387
,0.0335098
,0.039530154
,0.043649673
,0.0024099476
,-0.057509258
,0.036161445
,-0.042246729
,0.0280992
,0.016244367
,-0.11062332
,0.050668523
,-0.0039797029
,-0.033219323
,-0.040711626
,-0.068690218
,0.07770361
,0.08049801
,-0.069168814
,-0.12308757
,0.06132184
,0.051741678
,0.049233265
,0.084218495
,-0.066317327
,-0.035413429
,-0.10249757
,0.001430622
,-0.084681325
,-0.036175918
,-0.013443442
,-0.03320767
,0.059797317
,-0.050918486
,0.065323092
,0.043235369
,-0.078115933
,0.063429825
,-0.053507727
,-0.026498348
,0.076141812
,-0.029645728
,-0.077606015
,-0.078796282
,-0.039223973
,-0.10688809
,0.0018588243
,-0.018734455
,-0.069690682
,0.0008031429
,0.074100249
,-0.077806123
,0.041911457
,-0.012702021
,0.0828049
,-0.028738769
,0.079710819
,0.067187749
,0.056243856
,-0.079549342
,-0.046745356
,-0.04870744
,-0.0064441324
,-0.036611348
,-0.012669066
,-0.047885865
,-0.036380805
,0.067522325
,0.071244545
,0.075475015
,-0.099096663
,-0.0390005
,-0.076148458
,0.00771839
,-0.031968962
,0.074021921
,0.083538361
,0.0087283235
,-0.066886216
,-0.050389577
,0.029620985
,0.029558897
,-0.080317065
,-0.08632794
,0.061020195
,-0.09517552
,0.045355007
,-0.001016815
,0.02042252
,0.03537963
,0.014258709
,-0.064842835
,0.022007914
,-0.081040226
,-0.03728351
,-0.10705983
,0.0099518532
,-0.015473563
,0.029598877
,0.024831902
,-0.070851229
,0.073435619
,0.076621957
,0.058105621
,-0.049734987
,-0.054773763
,0.039119322
,0.016735004
,-0.071057737
,-0.0400603
,0.067223117
,-0.065924287
,0.023929475
,0.053571276
,0.049557291
,-0.040527631
,-0.040383134
,0.07685338
,-0.076686211
,-0.050937053
,0.05606452
,0.037792347
,-0.013974722
,0.024054827
,0.032254327
,0.065697819
,-0.068760142
,0.00085146271
,0.059822932
,0.076125428
,-0.07424476
,-0.067266025
,0.039933145
,0.063101277
,-0.040744737
,0.039886843
,-0.072749205
,-0.06201224
,0.051332038
,-0.0229511
,0.077125952
,0.024191592
,-0.0025522944
,-0.020115938
,-0.060491227
,-0.013035574
,-0.012946849
,-0.097537652
,-0.003016508
,0.037256159
,-0.0093467813
,-0.064219877
,0.076937795
,0.026603039
,-0.067522369
,0.084155574
,-0.054445028
,0.0074282954
,0.034780394
,-0.055286534
,-0.073102847
,0.077831283
,-0.080198772
,-0.070020415
,-0.10149162
,-0.049339127
,-0.013930455
,-0.065908022
,0.04209746
,-0.0075699706
,-0.061585225
,-0.033562724
,0.012077991
,-0.074906625
,0.051039036
,0.03233555
,0.067883931
,0.010359661
,-0.072917424
,0.086815216
,0.0845661
,-0.08777196
,-0.033994753
,0.034113687
,0.042529855
,0.023847144
,-0.039346974
,-0.0641119
,0.060001366
,-0.067417264
,-0.026259989
,-0.0848603
,-0.0536016
,0.048281275
,-0.065237649
,-0.030169476
,-0.041340493
,0.058267567
,0.0024336984
,0.030144323
,-0.069735132
,0.013859264
,0.064491518
,0.075006992
,0.046934914
,-0.00750985
,-0.0033820481
,0.075635664
,-0.0021070037
,-0.037057582
,-0.031502608
,0.070641048
,0.062200233
,-0.04988315
,-0.051427715
,0.085815035
,0.058560133
,-0.027811034
,-0.068573624
,0.012857019
,-0.059586145
,0.012599289
,-0.00065010908
,0.072266035
,-0.075406164
,-0.016877178
,-0.024791835
,0.0781734
,-0.068571612
,0.0828951
,-0.08040303
,-0.010813408
,0.025065891
,-0.085202195
,0.0041209883
,0.038689993
,0.037620571
,0.016132975
,0.076731458
,0.0072439313
,-0.022324529
,-0.014080642
,0.040646374
,-0.0053561903
,-0.01424101
,0.059043609
,0.033487782
,0.052050836
,-0.03984189
,0.011936104
,-0.015780134
,0.016962068
,-0.023379574
,0.041799705
,0.011156341
,-0.010471288
,0.080654137
,-0.014603039
,0.032489464
,0.048981123
,0.056839161
,-0.094327122
,-0.033750363
,-0.038445331
,0.0410662
,-0.055402663
,-0.043965269
,0.0022703633
,-0.074180067
,0.037464179
,0.053069882
,-0.047716312
,0.055122148
,0.083914123
,0.06501244
,-0.098540053
,0.018492294
,0.041824277
,-0.025813304
,-0.00982728
,-0.020617535
,-0.056772739
,-0.037825849
,0.052342698
,-0.045005485
,0.067832313
,-0.04008688
,-0.0042733317
,-0.0059154886
,-0.0861556
,-0.065903045
,-0.050669588
,-0.020054828
,0.021406118
,0.08429116
,-0.060439996
,0.070993245
,0.073000252
,0.075984038
,0.055586454
,-0.0631586
,-0.058617216
,0.031982142
,0.070108071
,-0.0345672
,-0.09411478
,-0.048575938
,-0.08413735
,-0.005841081
,-0.0069306176
,0.039172325
,-0.02423414
,-0.06100028
,-0.055775031
,0.0097875027
,-0.023697482
,-0.092920117
,-0.039169796
,-0.018675696
,-0.026898943
,0.027179217
,-0.074848481
,-0.0067884969
,0.048344646
,-0.012641732
,0.042030834
,-0.041259941
,-0.019171134
,0.019795362
,-0.10801449
,0.08027111
,0.054216262
,-0.077718236
,0.078410007
,-0.017208245
,-0.0021976912
,-0.082560666
,-0.039501604
,0.048784755
,0.060400248
,0.044754896
,-0.069869705
,-0.03521876
,-0.066207126
,-0.083121195
,0.042030487
,-0.012446177
,0.085495569
,0.034716714
,-0.003520496
,-0.053826038
,0.05431347
,-0.036744028
,0.067815207
,-0.032057345
,0.031901516
,-0.067033343
,0.014815851
,-0.078987293
,-0.083224274
,-0.075340331
,0.076729253
,0.010494323
,-0.06729731
,0.054145504
,-0.01723998
,-0.029829189
,0.070335485
,-0.086934857
,0.069926947
,0.018166667
,0.029557843
,0.0051950379
,-0.051120192
,-0.058255911
,0.080052018
,-0.018817566
,0.056140468
,-0.055117413
,-0.024627734
,-0.0053382893
,-0.006548407
,0.061840422
,-0.021442538
,0.079125516
,-0.025269449
,-0.084734894
,-0.069694743
,-0.048017979
,0.02395987
,-0.063033193
,-0.082226478
,-0.023647703
,-0.0082837809
,0.010295849
,-0.03941796
,0.025341984
,0.084526382
,0.080171935
,0.015608968
,-0.05086432
,-0.058773238
,0.071979448
,-0.12576616
,0.075905927
,-0.078313619
,-0.077553429
,-0.052219141
,-0.010152157
,-0.12833993
,-0.11446505
,0.085568622
,0.065646254
,-0.0095370123
,-0.01972015
,0.079978526
,-0.007857671
,0.0045714909
,-0.00046081695
,-0.02906551
,-0.046362892
,-0.0084985774
,-0.0072649345
,-0.028841931
,0.011953921
,-0.05051557
,-0.074079625
,0.083974943
,-0.015648581
,-0.0097709391
,-0.0036851885
,-0.066273086
,-0.048367817
,0.017631013
,-0.027588736
,0.018317463
,-0.051859949
,0.066377856
,0.016950995
,0.0040219743
,0.043838754
,0.050453104
,0.0048485547
,-0.081195839
,-0.048542451
,-0.04988683
,0.058669228
,-0.036229562
,0.053382918
,0.00021311805
,-0.083820418
,0.081361331
,0.0084635057
,0.033373244
,0.037246838
,0.032007352
,-0.072976284
,0.018837543
,-0.0068494477
,-0.001281452
,-0.076254755
,-0.02619273
,-0.04538608
,0.017965456
,-0.054517087
,-0.03044324
,0.012256937
,-0.056773007
,0.027305502
,-0.0047045578
,0.014358172
,-0.074059747
,-0.015372967
,-0.0098215556
,-0.011923485
,0.080819733
,0.057308342
,-0.054302555
,0.0013377042
,0.021076104
,0.0054030209
,-0.023767741
,-0.0089400969
,0.0288596
,0.0021311543
,0.056353487
,-0.065113135
,0.065118909
,-0.040365327
,-0.050527882
,-0.0012402652
,-0.068428539
,-0.00656626
,-0.046577215
,0.03304407
,0.076102138
,0.034146514
,-0.079093695
,0.036254052
,0.043288853
,0.021241503
,0.030443862
,0.018760378
,0.079166591
,-0.0098862322
,-0.048203871
,-0.061889149
,0.076709844
,-0.0022219513
,-0.016718293
,-0.0079507986
,0.026659166
,-0.014493643
,-0.031583611
,-0.067421332
,0.075113609
,0.055254828
,-0.074315652
,0.007349934
,0.01871163
,-0.0701081
,0.01101882
,-0.027411491
,0.06171535
,0.0061617107
,0.012995614
,-0.048209429
,0.00085938832
,-0.080830842
,-0.040795725
,-0.069537543
,-0.0051591587
,0.066416368
,0.0059857918
,0.085394427
,-0.037505209
,0.011111621
,-0.097604364
,0.020243777
,0.072219126
,-0.046009019
,0.067075863
,0.049084615
,-0.056520231
,0.066389531
,0.020707436
,0.085499108
,-0.06159237
,-0.08388593
,0.040155496
,0.023059512
,0.045160409
,-0.01012174
,-0.0039327987
,0.011419894
,0.037698366
,0.0054887091
,0.023236742
,0.052029651
,0.052404374
,0.027345018
,-0.076427877
,-0.00040578379
,0.0067497781
,0.06916251
,0.076671049
,-0.040309437
,-0.064982794
,-0.031344403
,0.054392789
,-0.044860888
,-0.07657966
,-0.082387879
,-0.081082754
,-0.037495181
,-0.0441134
,-0.010434477
,0.027709151
,0.027419288
,-0.030374512
,-0.0028453884
,-0.038114969
,-0.0055075865
,-0.030180354
,0.013593052
,-0.080212265
,0.066450976
,0.06689816
,-0.071024187
,0.0057348255
,-0.078395426
,-0.055864103
,-0.060487315
,0.052368496
,-0.09287411
,0.06990914
,0.040487275
,0.055808976
,0.072907522
,0.038396619
,-0.046141729
,0.045320198
,-0.014776555
,0.0766865
,0.056207746
,-0.050233327
,-0.074995384
,0.031522948
,-0.00633658
,0.010768395
,-0.057176426
,-0.033149198
,0.063503861
,0.021291802
,-0.076873
,0.0093504069
,-0.023660727
,-0.030256443
,0.032315258
,0.057910983
,-0.00039083959
,-0.06476099
,-0.025693735
,0.026906943
,-0.059049983
,0.0051034167
,0.065648317
,-0.031312279
,0.020912407
,-0.079107814
,0.070913367
,0.061683983
,0.069194824
,0.087860651
,0.013560377
,-0.088862143
,0.013924967
,0.0085831806
,0.058280256
,0.0277958
,-0.030119184
,0.040433157
,0.010098505
,0.039884157
,0.083910622
,-0.01404501
,0.074273624
,0.015826883
,-0.10743188
,-0.036742546
,0.038200058
,-0.037613481
,-0.0079243872
,0.017296866
,0.039834045
,0.062642336
,-0.058429703
,0.051837459
,-0.00204188
,-0.13451523
,0.087660305
,0.066414304
,0.068997107
,0.0080735162
,-0.041028619
,-0.095039517
,-0.053479783
,0.022727247
,0.082071319
,0.027950501
,-0.08575061
,-0.0054467875
,-0.088017307
,0.054671153
,-0.073731437
,-7.8392215e-05
,0.042858437
,-0.052437011
,0.012286088
,0.05462075
,-0.03236058
,-0.040542897
,0.06668146
,-0.023966229
,-0.034454841
,-0.0958418
,-0.041526802
,0.082621545
,-0.0247688
,-0.0540823
,0.0070094639
,0.037967492
,-0.021619633
,0.071479045
,-0.031260483
,0.0049438658
,-0.077949449
,-0.0018609029
,0.041450728
,0.072162531
,-0.080790222
,-0.0098135844
,-0.015130714
,-0.085515186
,0.07055492
,0.065428428
,-0.023765631
,-0.014777328
,-0.00676221
,0.01335303
,-0.053405035
,-0.021470318
,-0.04586181
,-0.01984575
,-0.015647279
,-0.041732866
,0.033095296
,0.033044286
,0.039246786
,-0.033190742
,-0.051905572
,0.063565
,-0.037930537
,0.085660487
,0.0023550617
,0.013968339
,0.023793217
,-0.06136921
,0.059279792
,0.035622042
,-0.093596041
,-0.035578147
,-0.0834654
,-0.078396738
,-0.0556683
,-0.092829883
,0.066745371
,0.019587375
,-0.087307677
,0.065117016
,-0.0087412782
,0.057730604
,-0.039048683
,-0.071340263
,-0.035163522
,-0.014960129
,0.078067504
,0.0715802
,-0.084146708
,-0.081976078
,-0.022500759
,-0.014108047
,-0.015825054
,-0.010349536
,-0.0625793
,0.086316913
,-0.03232177
,-0.064749874
,-0.099243939
,0.041847732
,-0.083412282
,0.076573968
,0.046998449
,-0.05361351
,0.03219099
,-0.029271938
,0.054715864
,0.037329409
,0.058846548
,-0.058031604
,-0.047417015
,0.087347455
,-0.015269523
,-0.095548421
,0.052222934
,-0.067656174
,-0.078724593
,0.08215747
,-0.048886843
,-0.0015859936
,-0.014002814
,-0.075990923
,-0.005335439
,-0.022742122
,-0.03971253
,0.0099854441
,0.015203724
,-0.052510619
,-0.084868841
,-0.078092337
,0.040192522
,-0.011070254
,0.080460079
,0.0014908264
,-0.077871136
,-0.024699809
,0.041905761
,-0.0042819204
,0.0059970324
,0.038035687
,-0.022810852
,0.057258889
,0.032891136
,0.015059191
,0.010013628
,0.056199331
,0.040011916
,-0.061317809
,-0.0035753807
,0.049593844
,0.06385161
,-0.074954644
,-0.013858326
,-0.10256197
,-0.017342197
,-0.0043926067
,-0.072971143
,-0.0049340674
,-0.080904886
,-0.077286825
,0.033436026
,0.0029678827
,0.012087389
,-0.0018831497
,0.033197075
,0.032508865
,0.0065358444
,0.057165235
,0.013162946
,0.027722917
,0.082282178
,-0.047792215
,-0.058795221
,0.016415225
,0.018669799
,-0.040829025
,0.087592177
,0.07158234
,0.03179466
,0.070162512
,-0.08081764
,-0.032231361
,0.04050665
,0.029191166
,-0.082005657
,0.020044433
,0.071845815
,0.033059575
,0.063279741
,0.076612115
,-0.0659804
,-0.077406816
,0.015904352
,0.020515244
,0.05314327
,0.074427441
,-0.073072374
,-0.081316918
,-0.03250521
,0.063692406
,-0.0044078631
,-0.11312119
,-0.034012627
,-0.052172828
,0.0051734247
,0.048125561
,-0.027527662
,0.082146771
,-0.0070225764
,-0.0075780489
,0.061816692
,0.012661967
,-0.0750606
,0.040589131
,-0.061275527
,-0.0020134565
,0.071500622
,0.033230118
,-0.040585145
,-0.050581519
,0.052156325
,0.0018921255
,0.028703852
,-0.037208334
,0.046375956
,-0.023638675
,-0.09836293
,-0.0279661
,-0.062781736
,-0.002843661
,-0.075838394
,0.042700656
,-0.050434053
,0.082282886
,0.080548488
,-0.018480523
,0.023499282
,-0.0068068611
,-0.0017622255
,0.084232286
,0.017954119
,-0.079773478
,-0.07560835
,0.021737698
,-0.068871729
,-0.026331464
,0.033165369
,-0.044876233
,0.0030891013
,0.068424307
,0.051944818
,0.070349991
,-0.05362267
,0.085725367
,-0.077686928
,-0.036670286
,-0.04827268
,0.050681278
,-0.069995821
,-0.083185114
,-0.033773463
,-0.040722392
,-0.00855146
,-0.067619145
,0.044623557
,0.013439028
,0.057351183
,0.033512995
,-0.0712046
,0.039855853
,-0.0020243505
,-0.088895589
,0.010690881
,-0.051987655
,0.011282535
,0.069092505
,0.05163075
,-0.075845
,0.032926291
,-0.016743161
,-0.086639434
,-0.026295915
,0.025937047
,0.022498395
,0.041203279
,0.0045665996
,0.0074042832
,-0.018365813
,-0.056183
,-0.055484932
,-0.017294522
,-0.059808761
,0.020895515
,-0.05155281
,-0.045485295
,-0.055050034
,-0.086565293
,0.014834858
,0.029446431
,0.017253047
,0.0066869529
,-0.053089567
,-0.076159105
,-0.020893175
,-0.074578509
,0.009341307
,-0.00087261089
,0.040468797
,-0.061769083
,-0.11683246
,-0.022747079
,0.068399221
,0.0059293043
,-0.02916901
,-0.039743498
,-0.072703019
,-0.064809173
,0.070943594
,-0.075201795
,0.011223008
,0.023729976
,-0.057045896
,-0.034504585
,-0.039173696
,0.061390176
,0.0316788
,0.010286054
,-0.080563851
,0.011819138
,-0.0059544141
,0.011817864
,-0.012190646
,0.038144104
,0.061372973
,0.032106381
,-0.0050621815
,0.052047215
,0.085744694
,-0.00620443
,-0.0081796153
,0.0803703
,0.047088582
,0.018944586
,0.069946215
,0.023614202
,-0.00043425188
,0.038352318
,0.0073299422
,0.0011235533
,0.01160405
,-0.045561589
,-0.0010711286
,-0.081007972
,0.07223282
,-0.085875049
,-0.046362456
,0.070758291
,-0.0049541136
,-0.012324064
,0.057781857
,-0.0090436433
,0.064976275
,0.079180039
,0.079102539
,0.017543539
,0.048891753
,-0.039430697
,-0.061399393
,-0.054298244
,-0.020740679
,0.073116861
,-0.066185392
,0.002410552
,0.064129338
,-0.0016855507
,0.032977246
,-0.0879587
,-0.009490232
,-0.050761063
,-0.064799339
,-0.0781179
,0.054887816
,0.044330958
,0.010529755
,0.086837307
,-0.060268372
,0.0020527493
,0.013962753
,0.079006456
,-0.10726025
,-0.11029731
,-0.047904689
,-0.022878366
,0.036741164
,0.046064805
,-0.079098679
,-0.0780762
,-0.013616512
,0.0060251905
,-0.094339922
,0.054079954
,-0.026297707
,-0.016104598
,0.0086675482
,-0.07494168
,-0.022773555
,0.029104864
,0.057882879
,-0.094617248
,0.0077563124
,0.047294885
,-0.036175478
,0.039551985
,-0.06374494
,0.07868465
,0.080480233
,-0.049710754
,-0.085998319
,-0.010364677
,-0.054155372
,0.049945943
,-0.027671577
,-0.017701112
,-0.058878042
,-0.080033474
,-0.12295242
,0.031353164
,-0.084375717
,-0.0065480852
,-0.032054983
,0.063224375
,-0.0059445733
,-0.017485902
,-0.01861817
,-0.015991652
,-0.071542747
,-0.0032698482
,0.026038628
,-0.041403662
,-0.06563139
,-0.029674789
,-0.032424506
,0.059480574
,0.035853773
,0.0037915595
,-0.0024243612
,-0.053538527
,-0.033828173
,-0.049392253
,-0.021467559
,-0.013578578
,0.026344936
,-0.0014629451
,-0.010005473
,0.036359832
,0.079221033
,0.0369477
,-0.043269731
,0.037397124
,-0.096826851
,0.014429526
,0.083430961
,0.074941486
,-0.066452816
,-0.0081106387
,-0.041758366
,0.064338908
,-0.037967838
,0.0552951
,-0.05460266
,-0.042010691
,0.03931018
,0.025453933
,0.064613678
,0.037181318
,-0.066165216
,0.063491359
,0.054926682
,0.00900208
,-0.0077159749
,0.035807122
,0.045896083
,0.072572388
,0.05196213
,0.0099370321
,-0.066284925
,0.037241153
,0.03197078
,-0.011708548
,-0.027663969
,-0.036989439
,0.077096164
,0.08079914
,-0.047888026
,0.0020137236
,-0.0098790759
,-0.072822325
,-0.013632135
,0.019525198
,0.045396328
,-0.099241033
,-0.0094327293
,0.043215934
,0.035874557
,0.031948783
,0.055025388
,-0.0076363683
,0.032116849
,0.06824977
,0.052319665
,-0.059033155
,-0.068986349
,-0.031642631
,-0.051721588
,-0.0059955041
,0.070350595
,-0.025421763
,-0.12212066
,0.034388855
,-0.033194248
,0.016351689
,-0.020290827
,0.075592794
,0.07374905
,-0.031999949
,-0.028622042
,-0.06841924
,-0.034240227
,0.010023165
,-0.0026822025
,-0.011540074
,-0.090649672
,0.030300058
,-0.02613033
,0.068404116
,-0.0018716783
,-0.09868376
,-0.06774769
,0.0062158336
,0.083814688
,-0.084477663
,-0.019139916
,0.018549781
,0.003230996
,-0.025892192
,-0.049272507
,0.030073307
,0.028175002
,0.040597726
,-0.027045509
,-0.051142905
,0.062820345
,0.0043025836
,-0.06526228
,-0.046305895
,-0.081507556
,0.04156328
,-0.031980414
,0.040866442
,-0.053103074
,0.0707805
,-0.015062388
,-0.063352346
,0.056368407
,0.079450309
,-0.12003091
,0.0584858
,-0.067667529
,-0.026648397
,0.035477031
,-0.00030330129
,0.015544079
,-0.013336104
,0.080945723
,0.0043383869
,-0.039582822
,-0.025474584
,0.049184885
,0.030521948
,0.06207186
,-0.060028851
,-0.07674551
,0.023560334
,0.044898964
,-0.041714665
,-0.099011071
,-0.010678002
,-0.0828867
,0.011241698
,-0.061981127
,0.029421149
,-0.07263127
,-0.074186407
,0.011441095
,0.012400784
,0.074557751
,0.062087171
,-0.0777671
,0.012225716
,0.080313213
,-0.075122774
,0.020134177
,-0.020070491
,0.041538786
,-0.017582221
,-0.069881149
,-0.034436136
,-0.045251109
,0.041225996
,-0.073511712
,0.0042673848
,-0.080440231
,-0.025373392
,0.0060477392
,0.045806855
,-0.068477638
,0.027810929
,0.04008013
,-0.043018986
,0.014591318
,0.0872266
,0.06623888
,-0.075792544
,0.055762902
,-0.040945072
,-0.030961081
,-0.040768
,-0.070859224
,0.032431189
,-0.0020944118
,-0.023385722
,-0.078549042
,0.060788557
,-0.073090188
,0.030277424
,-0.016287003
,0.049892485
,-0.039945379
,0.053097025
,0.00959339
,-0.035076726
,0.066130385
,-0.042422771
,-0.01364187
,0.010980637
,0.014580085
,-0.10801886
,0.050979927
,-0.07106974
,-0.041276056
,0.079591036
,0.0497099
,0.076813072
,-0.033066586
,0.00926788
,0.032932669
,-0.034052476
,-0.078010142
,-0.044973638
,-0.014717123
,-0.04724732
,-0.02283418
,0.020666143
,0.0690617
,-0.070434578
,0.051290315
,0.020237716
,-0.024442347
,0.056882128
,-0.057485722
,-0.033488195
,-0.051937703
,0.066329874
,-0.049314737
,0.079769656
,0.010725453
,-0.06039834
,-0.0087193279
,-0.083164431
,-0.011133373
,0.0025855615
,-0.02855321
,-0.041336473
,0.022918241
,-0.036938842
,-0.019930968
,0.053364504
,0.022489918
,-0.041332904
,0.067693345
,-0.079857223
,-0.054218728
,-0.045478769
,-0.086375408
,0.084297292
,0.033849433
,0.055684458
,-0.068006709
,0.06064494
,0.063731648
,-0.083463825
,-0.046356089
,-0.090468347
,-0.063417472
,0.06723465
,-0.066642642
,0.036499042
,0.075125813
,0.06602443
,-0.049591485
,-0.096811779
,0.03614733
,-0.038068332
,-0.080020159
,0.060598694
,-0.1156443
,0.079111643
,-0.040620103
,-0.016864309
,0.025217507
,-0.083317913
,0.051155895
,-0.022441406
,0.064679585
,0.0055929152
,0.0540676
,-0.082595147
,0.082831375
,0.053255588
,0.064228229
,0.0075493613
,0.078523763
,0.0066963742
,-0.052397855
,0.065461487
,0.046783589
,0.037448891
,0.016323064
,0.0676587
,0.0046815518
,0.00026542949
,-0.0760494
,0.036634333
,-0.047374595
,0.0062894369
,0.024907617
,0.073785886
,-0.0013849752
,-0.046486121
,0.0083702784
,0.0017152767
,0.039142366
,0.072554305
,-0.10511736
,0.078793749
,-0.08051876
,-0.068095975
,-0.025291279
,-0.099274077
,0.011085111
,0.078685477
,0.052277125
,0.064007394
,-0.032500416
,0.042182054
,-0.046923425
,0.031870116
,-0.043298546
,0.037684087
,-0.028234133
,0.053608257
,0.047788687
,0.061973825
,-0.047769006
,-0.065457255
,-0.0788039
,0.0017929751
,-0.050765481
,0.0085131088
,-0.0584207
,0.052465469
,-0.063230231
,0.035070695
,-0.060448043
,-0.058348782
,-0.032663506
,-0.047510654
,0.025080815
,-0.0837879
,2.9019293e-05
,0.010036488
,-0.056531265
,0.030984212
,-0.048809886
,0.066173829
,-0.086460032
,-0.047551516
,0.028877208
,0.035764817
,0.060554013
,-0.033957236
,-0.04857919
,-0.033367421
,-0.013603522
,-0.035886865
,0.049614336
,0.048319615
,0.066902064
,-0.019890958
,-0.048536934
,0.026735464
,0.0847381
,-0.034164071
,-0.016527714
,-0.00022426652
,0.025800411
,0.047401033
,-0.043345008
,0.06282261
,0.028711101
,0.0023508724
,-0.12393357
,-0.0038299318
,0.023223296
,0.0762482
,0.025950238
,-0.069084764
,0.081817582
,-0.079952747
,0.041486513
,-0.016352553
,-0.045723263
,0.026227878
,0.019845353
,0.052392945
,0.0085989991
,0.029972769
,0.0052167024
,0.044847008
,-0.024606967
,-0.041492511
,-0.097119018
,0.00018323927
,-0.010977721
,-0.0058390796
,0.024215426
,0.038714781
,-0.049012456
,0.040223107
,-0.041695494
,0.0049389484
,0.082076982
,-0.05984699
,0.073479071
,-0.076311894
,0.061598651
,-0.047127236
,-0.0717748
,0.045766853
,-0.002486951
,-0.0066847592
,0.025008477
,0.077340908
,-0.077349246
,0.0075015873
,0.082103409
,-0.082539506
,-0.073113844
,0.065599859
,0.00068325392
,0.044858705
,0.05681802
,-0.062637866
,-0.020109365
,-0.0037591583
,0.018953072
,0.06794671
,0.0484581
,-0.10751155
,-0.051833022
,-0.0019400627
,-0.023979809
,-0.086659521
,0.033857211
,-0.063483186
,0.076064549
,-0.076626711
,-0.077374443
,0.062317632
,0.0038860766
,0.086931437
,0.063070469
,-0.017976062
,0.010756658
,-0.0021306016
,0.044445448
,-0.02378653
,0.032876052
,-0.062454514
,0.073644236
,-0.064980291
,-0.10506427
,-0.099028453
,-0.0040052896
,0.085767962
,0.066530615
,0.050357353
,0.00899916
,0.067213327
,0.059111804
,-0.052476563
,0.024132732
,-0.08137963
,0.062311456
,0.055757094
,-0.090489969
,0.054894283
,0.015870702
,-0.025811557
,-0.0013135637
,0.047778957
,-0.098206185
,0.007331029
,0.082782373
,-0.050088435
,-0.043815304
,-0.021896733
,0.038165092
,-0.0061401962
,-0.026391603
,-0.00631313
,0.034207832
,0.012702426
,-0.049992256
,-0.00074966514
,-0.0053528813
,-0.001452387
,0.046712488
,0.055137623
,0.010006423
,-0.015378887
,0.084485039
,0.03130319
,-0.017518442
,-0.085963719
,0.082444288
,0.021951368
,-0.083836012
,0.050769985
,0.0012118231
,-0.084871061
,0.040116433
,-0.076769352
,0.083537079
,0.044467866
,0.045705367
,0.021725163
,-0.0501835
,-0.06592232
,0.035673723
,0.049688511
,-0.056810517
,-0.063207522
,-0.069883764
,0.012748292
,0.056017362
,-0.075323611
,-0.039851964
,-0.076642737
,0.042785954
,-0.061569676
,-0.094190657
,-0.038630985
,-0.041592285
,0.065692849
,0.079224348
,0.0023649179
,-0.014635566
,-0.066549465
,0.060657479
,-0.010584043
,0.064642861
,-0.053075451
,0.066703975
,-0.034232765
,-0.077313021
,-0.05907803
,0.0072565875
,-0.062647223
,0.032638784
,-0.056682579
,-0.02714994
,0.0040365281
,-0.029384648
,-0.0051590246
,-0.056723926
,-0.019908136
,-0.047624547
,0.027289964
,-0.059600249
,0.0776078
,0.0069110976
,0.0047196532
,0.029327862
,0.084805116
,-0.066347331
,0.00075692643
,0.025509572
,-0.035837293
,-0.010461648
,-0.086536676
,-0.085061312
,-0.035523828
,-0.030326534
,0.04724424
,-0.075001061
,0.086450227
,-0.040115889
,-0.034689561
,0.073019087
,-0.0086171925
,0.0057201288
,-0.05594353
,-0.036167037
,0.064459451
,0.036978651
,-0.026093803
,0.027247438
,-0.085644007
,-0.0032321766
,-0.081141151
,-0.026191251
,0.0059136786
,-0.062686794
,-0.035550177
,-0.08987233
,0.058960635
,-0.0081907772
,0.066108279
,-0.0608683
,0.044465456
,-0.0071296347
,0.057018951
,-0.061281495
,-0.038585052
,-0.072574727
,-0.074548915
,-0.036905471
,0.00045287656
,-0.061006062
,0.0019116767
,0.0036151523
,0.007709357
,0.0083220005
,-0.050796665
,-0.016990274
,-0.0019234808
,-0.0044890484
,0.054328792
,-0.049001969
,0.070880733
,0.030759867
,-0.092076965
,0.020004777
,-0.073845789
,-0.11094216
,-0.028200453
,0.053189676
,-0.050974287
,-0.061125889
,0.055241361
,-0.053889111
,0.026572594
,0.020349108
,-0.0860173
,-0.017452188
,-0.016178727
,-0.1114377
,0.018335618
,-0.0089385714
,0.088269062
,0.037398715
,-0.0011998259
,-0.076561242
,-0.051467929
,0.029896758
,0.061499014
,-0.010378812
,-0.030872762
,-0.045376223
,0.026452329
,0.035271622
,-0.01454215
,-0.063357912
,-0.029812869
,0.029313654
,-0.030666303
,0.009284866
,-0.0396717
,-0.12113598
,0.021353848
,0.01003381
,0.068774037
,0.07687147
,0.019861838
,0.013137028
,0.063216716
,0.067641817
,0.084414229
,0.0081824688
,0.011044595
,-0.020322096
,-0.018440817
,-0.045811445
,-0.021323174
,0.050473921
,0.04763855
,0.060887076
,0.035747394
,-0.029831909
,0.033408318
,-0.067504525
,-0.056046531
,-0.070095576
,0.071444988
,-0.021791117
,-0.09711232
,0.014735975
,0.0661571
,0.052178856
,-0.0095399069
,-0.024373434
,-0.036486536
,-0.00858632
,-0.085959129
,0.010993526
,-0.074863
,0.033919062
,0.084718943
,-0.065738484
,-0.035677094
,-0.031102382
,-0.11378817
,-0.05780739
,0.050044466
,0.0046340944
,-0.016410971
,0.0064120768
,0.067666188
,-0.0054378957
,0.085682593
,-0.037755806
,-0.083775714
,0.087941
,0.070963942
,0.058065072
,-0.020991415
,-0.014281409
,-0.059590258
,-0.03988038
,0.048836939
,0.057913188
,-0.0086565288
,0.0011312009
,0.023802042
,-0.066233911
,-0.0010504756
,-0.041219145
,-0.0038117231
,0.082329139
,-0.031356573
,0.00036717887
,-0.071650028
,-0.082902819
,-0.032950494
,-0.013344076
,0.041679405
,0.028940555
,-0.029796977
,0.06896206
,0.044967391
,0.022165226
,0.00049998279
,0.026324335
,0.071416236
,0.047080435
,-0.029321283
,-0.0042145322
,-0.019796554
,0.0048600128
,-0.049363814
,0.042110048
,-0.03771773
,-0.075794093
,0.023289252
,0.024519164
,0.062146336
,0.057875484
,0.063023128
,-0.0015743284
,0.011095049
,0.080495067
,-0.060954913
,-0.0293833
,0.054415882
,0.011842063
,-0.025693333
,-0.041377224
,0.020835958
,-0.043947052
,0.083700247
,-0.0079482934
,0.051750965
,0.078096248
,-0.092300281
,-0.039961148
,-0.0091308765
,-0.099167921
,0.080834307
,-0.013912315
,-0.021017158
,0.027375463
,-0.082858466
,0.04812739
,0.05408404
,-0.10062268
,-0.011900423
,0.016710863
,0.019363794
,0.049576163
,-0.072133347
,-0.026452534
,0.036457021
,0.031632438
,0.051229704
,0.054090109
,0.0044246884
,-0.023994312
,-0.072932929
,0.029363664
,0.041847806
,-0.084951609
,0.062700339
,-0.023834124
,-0.023131238
,0.069599777
,-0.05813808
,0.062845707
,0.081372529
,-0.036210973
,-0.0076283831
,0.049221206
,0.01743773
,0.00036090132
,0.0045537567
,-0.024472903
,0.021538684
,0.062522434
,0.052278839
,0.0048971991
,0.070136108
,0.079487868
,-0.12863797
,-0.085635178
,-0.080227114
,-0.0017950657
,0.075405627
,-0.005716641
,0.027822463
,0.015196566
,0.035737954
,0.010207469
,-0.052168954
,0.083328471
,-0.0004845449
,0.019633139
,0.021575678
,0.016727345
,-0.019695718
,-0.06423977
,0.080859691
,-0.019980831
,0.066101223
,0.0013193227
,-0.0393932
,-0.068873458
,-0.027279651
,-0.014740461
,-0.046588868
,0.050058734
,-0.053015415
,-0.020049449
,0.028234575
,-0.088168494
,-0.089432336
,-0.0037960289
,-0.083791658
,0.023299346
,-0.045073148
,-0.013293254
,0.084592141
,0.046600252
,-0.047135718
,0.040580459
,-0.031239659
,0.038310498
,-0.0034663007
,0.027076526
,0.0023339996
,-0.066753045
,-0.069665693
,-0.040857796
,-0.025264023
,-0.021151796
,-0.060595311
,0.051045086
,0.016599055
,0.064965382
,-0.036367413
,-0.019311382
,-0.034048259
,0.0047230786
,0.031817682
,-0.059694208
,-0.073243886
,-0.013132302
,-0.052137896
,0.083256975
,0.069096521
,-0.049918711
,-0.063783035
,0.016559612
,0.0040480159
,-0.023367174
,0.050916508
,0.027815672
,-0.033167314
,0.046506528
,-0.064497307
,0.066651233
,0.026750658
,0.084660687
,-0.013949285
,0.049020067
,0.01184507
,-0.045036357
,-0.016454406
,-0.019295592
,0.038747251
,-0.079081111
,-0.06594047
,-0.019027969
,0.073455274
,0.0073304116
,-0.010295933
,-0.10172988
,-0.0035116149
,0.026473615
,-0.0074801948
,0.019530574
,0.0047505056
,0.057368338
,-0.075885855
,-0.054469593
,-0.053990915
,-0.0098969992
,-0.070930883
,0.019803315
,0.001066445
,0.0028609647
,-0.024413897
,0.02946768
,0.00036243416
,-0.072830573
,-0.033768259
,-0.0774626
,-0.012907019
,0.028298629
,-0.053875975
,0.084808379
,0.069965757
,0.02195962
,-0.04916862
,0.000543073
,0.014472437
,-0.033994813
,0.080394223
,-0.041792922
,0.0062734629
,-0.046782687
,-0.14192216
,-0.046158161
,0.031552896
,-0.025951553
,-0.062797911
,-0.085344315
,0.023286639
,0.081612952
,-0.0019775587
,-0.032062232
,0.070956483
,0.031175721
,0.033727407
,0.013811928
,-0.016213715
,-0.02615303
,0.019482963
,-0.013512404
,-0.0031749827
,0.06454999
,-0.07054244
,0.081191316
,0.087843269
,-0.097716093
,0.0334061
,0.053627253
,-0.025477996
,0.016350161
,0.01020392
,0.074742317
,-0.085765667
,0.0020847337
,-0.045389395
,-0.087066367
,-0.058692776
,0.045002077
,-0.079481073
,-0.091986574
,0.058861103
,0.0099182
,-0.045095231
,0.02617464
,0.0020177246
,-0.096374869
,0.035860088
,0.012043158
,0.013004326
,-0.033838652
,0.053540062
,-0.013354528
,-0.085489027
,0.06454204
,-0.016020777
,-0.035193354
,0.0064367861
,-0.021129457
,-0.0577255
,0.080053777
,0.020048637
,0.004084642
,0.046209808
,0.027808934
,-0.036450159
,-0.058540549
,-0.053421952
,-0.032704253
,0.019630255
,-0.052549049
,-0.052163675
,0.019202124
,-0.018313609
,0.0017802604
,-0.032988306
,0.064917959
,-0.077204704
,-0.051165808
,0.081544638
,-0.02384048
,-0.026569478
,-0.0070668915
,0.061321907
,-0.050569404
,0.035488222
,0.05816409
,0.02985239
,-0.012897874
,0.031398188
,-0.035501316
,-0.020687062
,-0.028477991
,0.040004946
,0.03042325
,-0.069650084
,-0.063800663
,-0.030135095
,-0.062108189
,-0.055944424
,0.0235166
,-0.045729257
,0.036566839
,-0.035096359
,-0.018630635
,0.045784187
,0.045735024
,-0.0020776044
,0.083618678
,-0.054033086
,0.0061824583
,-0.084005818
,-0.0457978
,0.051784139
,0.0096184956
,-0.07033699
,-0.068581924
,-0.088035017
,-0.037677713
,0.014892925
,0.00068574323
,0.074054413
,0.0024256315
,0.029193673
,0.042774834
,0.0095308926
,-0.033319838
,-0.059402619
,-0.078301258
,0.0034704751
,-0.054416273
,-0.0046568685
,-0.083181635
,0.072337784
,-0.046089713
,0.064695939
,0.069340229
,0.025173748
,0.063502073
,0.033937074
,0.0021937655
,0.056375992
,0.033225916
,0.0086480938
,0.080586731
,-0.007441855
,-0.04187417
,-0.055242103
,0.039684594
,-0.046703409
,0.049020074
,0.056380473
,0.0071711
,-0.021991346
,-0.12597723
,-0.10224181
,-0.07378038
,0.021807753
,0.027887458
,-0.014723201
,-0.033901207
,0.045787506
,-0.0010093761
,0.013415447
,-0.03641339
,-0.10478937
,0.0706545
,0.043046262
,0.026001453
,-0.023798365
,-0.045324992
,-0.028901368
,0.054782785
,-0.027354468
,-0.0728662
,-0.018025069
,-0.061246209
,-0.0086884005
,-0.10515445
,0.059230842
,0.0044562919
,0.01899964
,0.051867619
,0.077603579
,-0.070330463
,0.062090002
,-0.014680529
,-0.011808734
,0.0856818
,0.060889751
,-0.074440591
,-0.013174931
,-0.078527607
,0.031875145
,-0.02922342
,-0.014515196
,0.019916195
,-0.032383855
,-0.022695076
,-0.062786594
,0.023964863
,0.018353745
,-0.04770634
,-0.053919461
,-0.00011478702
,0.013383242
,0.051697664
,0.029807493
,0.037008282
,0.071882807
,-0.047720831
,-0.041263007
,-0.041925121
,0.016446868
,-0.057821658
,0.052785009
,0.037431225
,0.061667591
,0.053110372
,-0.08945398
,0.059038211
,-0.041098796
,-0.067330867
,0.070330746
,0.04435705
,-0.080372088
,-0.018624196
,-0.08896599
,0.053413298
,0.051214423
,-0.030264523
,0.064368166
,-0.025849411
,0.0371702
,-0.089958265
,0.086762466
,-0.018760458
,0.003920936
,0.0033891462
,-0.049263254
,0.0059868605
,0.0619846
,0.058296774
,-0.04885995
,-0.052031875
,0.043965422
,0.063840039
,-0.04400843
,0.043970127
,0.045036949
,-0.072575226
,0.07707151
,-0.058764637
,-0.0067203152
,0.034943558
,0.081386477
,-0.040882267
,0.016609915
,0.056121469
,-0.10119681
,0.066138409
,0.086097792
,-0.017979925
,-0.085469417
,0.0714237
,-0.055751558
,0.063826531
,0.049957927
,0.0050266623
,0.030953616
,0.036098726
,-0.023573132
,-0.064732261
,-0.01067776
,0.055449877
,-0.069615908
,-0.088898338
,-0.05712384
,-0.025552232
,-0.067803986
,0.087164827
,-0.075755358
,-0.0037084145
,-0.08658421
,-0.03068215
,-0.080368206
,0.016922029
,0.063910171
,-0.069241226
,-0.015265847
,0.083620839
,-0.083306611
,0.041887484
,-0.091915235
,-0.068913579
,0.087093815
,0.036323335
,-0.0034213739
,0.082110532
,0.087394163
,-0.056675371
,0.01800799
,-0.038600005
,-0.0801869
,0.006141901
,-0.050609414
,-0.076576933
,-0.064738356
,0.033150464
,0.079130389
,-0.030390546
,-0.075125143
,0.053633589
,0.087084368
,0.047239732
,-0.039184537
,-0.081872612
,-0.071860068
,-0.082581773
,0.053824741
,0.082670607
,-0.074498057
,0.068507768
,-0.026840117
,0.0479425
,0.019711077
,-0.05414414
,0.045709468
,-0.024998942
,-0.043429285
,-0.064588338
,0.026044372
,0.047013264
,0.0068855346
,0.0086903106
,0.030760285
,0.04621876
,-0.0083964951
,0.011519283
,0.0079174619
,0.030781526
,0.0685766
,-0.01606239
,0.045041911
,0.036068853
,0.026682701
,-0.0082395608
,-0.010679595
,-0.006849946
,-0.009469117
,-0.049184319
,-0.0091971466
,0.043782797
,-0.060059413
,-0.057242185
,-0.026620375
,0.0047683422
,-0.020805391
,-0.031022459
,-0.060459182
,0.0815685
,-0.053936206
,0.077083573
,0.06351541
,-0.074416265
,-0.025340633
,-0.027510822
,-0.060652271
,-0.0067646797
,0.030193053
,-0.074849404
,0.0053460067
,0.046050183
,0.019996122
,-0.074240908
,0.042453054
,0.046527475
,-0.053716749
,-0.03359247
,0.032029092
,-0.064006157
,-0.034331817
,-0.05111108
,-0.0094538592
,-0.080915391
,-0.019612567
,-0.078270629
,-0.10253367
,0.071033455
,0.055914484
,-0.019838205
,0.073116228
,-0.040554926
,0.0066377297
,-0.04514407
,-0.042808414
,-0.001633707
,0.021933315
,-0.0076483544
,0.046050344
,-0.05829142
,0.044563662
,-0.032208934
,-0.068924926
,-0.074967079
,0.0791498
,0.027186191
,-0.066594064
,0.052475847
,-0.0076195868
,-0.064742468
,-0.075949207
,0.082259707
,-0.082698882
,-0.011322085
,0.037889112
,-0.031229232
,-0.057374854
,-0.073818713
,0.069096088
,0.024155889
,-0.10367428
,-0.07923086
,0.025412073
,-0.055741157
,-0.049163323
,0.085540749
,0.027727138
,0.07567063
,-0.036484186
,0.044597745
,-0.030005299
,-0.059764378
,0.022794992
,-0.10098077
,0.066835709
,0.0056984355
,0.022529781
,-0.037287693
,-0.022047801
,0.065072335
,-0.079503357
,0.021158
,-0.017503319
,-0.04175787
,-0.10712953
,-0.068220891
,0.06577237
,0.034915809
,-0.039007381
,0.039073471
,-0.020264674
,-0.05059997
,0.088117644
,0.052641794
,0.06025026
,-0.072175413
,0.042613439
,-0.050422162
,-0.034083057
,0.049033556
,0.031860892
,0.010582155
,0.00088410644
,-0.039675687
,0.032523941
,0.049193658
,0.072672188
,-0.040584847
,-0.057713475
,0.030321088
,0.034312263
,-0.035666935
,0.07749033
,-0.069661118
,-0.028218061
,-0.0014617052
}
