w_t _weights_ip1[57600] = {
0.037117787
,-0.060442276
,0.034886584
,-0.018691787
,0.0073077176
,-0.020569379
,-0.011106018
,-0.0081914589
,-0.0014817348
,0.0021444808
,-0.039857011
,0.070068672
,0.056162637
,0.0057194866
,0.0092522455
,-0.21747203
,-0.052824635
,-0.015430891
,0.049490083
,0.022413185
,-0.050382361
,0.059981383
,-0.029634884
,0.020629458
,-0.019643065
,-0.041699722
,-0.0341777
,-0.011913253
,-0.027108887
,0.02954315
,0.012764261
,0.00041142243
,0.01287492
,0.029495865
,-0.027040608
,0.039836735
,-0.030139644
,0.0059007793
,0.043385334
,0.03438798
,0.013649195
,0.033814039
,0.038708162
,-0.0073422142
,-0.039353408
,-0.031878151
,-0.014043569
,-0.040531892
,0.042781528
,-0.010923904
,0.033192445
,0.081957534
,-0.037541609
,-0.08114545
,0.020654984
,0.0090030488
,-0.041757111
,-0.079711705
,-0.0075030173
,-0.0088297855
,0.061804004
,0.0018024199
,-0.030487407
,-0.035010211
,-0.00024457811
,-0.0065154335
,0.031288065
,-0.018334405
,0.020666864
,0.055629849
,-0.014945672
,0.051353216
,0.0364204
,0.016754869
,0.0022010317
,0.038916629
,0.014041586
,0.03228822
,-0.040684018
,-0.014011587
,-0.00867035
,0.030467657
,-0.038462907
,0.010625095
,-0.0013467791
,-0.023598388
,0.0013883745
,0.10022872
,-0.087475449
,-0.033048339
,-0.049996514
,0.0031051859
,-0.010755704
,-0.014776967
,-0.024282718
,-0.038614579
,-0.048360694
,0.05942921
,-0.059517894
,0.043175172
,-0.010342364
,0.036779352
,-0.028769175
,0.052452043
,0.055380136
,0.032522336
,0.00923683
,0.0015886449
,0.047305867
,0.058645036
,0.053875603
,-0.090576477
,0.029666606
,0.013454873
,-0.030744495
,0.050447121
,-0.04413693
,-0.0078938752
,0.023016157
,0.051353745
,0.077027425
,0.043810986
,0.039374873
,0.0091237044
,-0.035799209
,-0.061344963
,-0.072813891
,-0.042095173
,-0.10327824
,0.063246578
,-0.058255032
,-0.03401665
,0.11388129
,0.023684865
,0.017129675
,0.0053288457
,0.0012787035
,-0.0543344
,-0.0061342386
,0.018907061
,0.031836011
,0.01523457
,0.0035071766
,-0.039339479
,0.0080076493
,-0.034832839
,0.0099005355
,-0.0064696334
,0.01666401
,0.074308828
,-0.055928785
,0.034581706
,-0.0030685831
,-0.042227663
,-0.059085149
,-0.045032188
,0.08007586
,0.056621011
,0.010472066
,0.050126322
,-0.029899424
,0.0077849897
,-0.018552732
,0.0031369003
,-0.019740259
,-0.035733905
,0.014328964
,-0.016519157
,-0.11608233
,-0.03463557
,0.065628894
,-0.063485093
,-0.071171016
,-0.015785549
,0.035596181
,-0.059030704
,0.050821647
,-0.023876797
,0.0029161756
,0.035429642
,0.032170847
,-0.020926306
,0.018279342
,0.0040476015
,0.025384242
,0.022414472
,-0.018403025
,0.050274033
,0.021470426
,0.05781002
,0.0390781
,0.021023577
,0.013128325
,-0.0010250377
,-0.0533361
,-0.10843576
,0.0077571017
,0.0016642665
,0.020099074
,-0.041912276
,0.010421768
,-0.014329265
,0.015481552
,-0.028802441
,-0.055220116
,0.029888369
,-0.037519634
,0.025947466
,-0.0305911
,-0.010261621
,-0.035946954
,0.03413884
,-0.038164727
,-0.031391479
,0.030870806
,-0.023220783
,-0.059200034
,-0.010693225
,0.022584172
,-0.048241429
,-0.0053859241
,0.0027874627
,-0.092601329
,-0.0042032627
,-0.0390922
,-0.013344648
,-0.033769827
,-0.034952287
,0.089930743
,0.0066989837
,0.034130942
,0.0075807748
,-0.024726888
,0.01119994
,-0.019009672
,-0.014000268
,-0.024564415
,-0.029372748
,0.01726998
,0.0063948929
,-0.013324368
,0.01986336
,-0.040347084
,0.004177528
,0.012561996
,0.0227811
,0.033715852
,-0.0020095205
,-0.042164497
,0.068692043
,0.0019973065
,0.043609433
,-0.030730236
,0.050473627
,-0.038757868
,-0.049198426
,0.004027985
,-0.043807991
,0.025574958
,0.014435463
,0.035163619
,0.00078766228
,0.010135491
,-0.010042888
,-0.042416736
,-0.0097618941
,0.024255974
,0.0094843619
,-0.042982947
,0.043798082
,-0.017568225
,-0.048915606
,-0.044144217
,0.01029347
,0.022274744
,-0.026329232
,-0.01874339
,-0.063827991
,-0.053109609
,0.057042312
,-0.011687328
,-0.0086105959
,0.082163714
,-0.03419036
,-0.033175278
,0.06852252
,-0.023892792
,-0.039873149
,0.049732953
,0.020686582
,0.022631548
,0.0736832
,0.078606412
,-0.059167691
,0.046898495
,0.015887739
,0.010853835
,0.011360074
,-0.00982282
,-0.049637068
,-0.018934166
,-0.03591824
,0.036323331
,0.030835042
,-0.026966244
,0.022237163
,-0.012182035
,0.017535625
,0.022459671
,-0.016597852
,-0.022875708
,-0.035327923
,-0.058488045
,0.047920197
,0.066449381
,0.064780958
,-0.0070955157
,-0.036988609
,0.029059203
,-0.050381381
,-0.00766261
,-0.058853488
,-0.076231465
,0.0040661381
,0.029936731
,-0.033298019
,0.025121393
,0.018886555
,-0.023864612
,0.045316294
,-0.061213009
,-0.02140777
,0.014986586
,-0.044600725
,-0.060776468
,0.014326274
,-0.037905976
,-0.019130317
,0.0067502353
,-0.032845989
,0.059862968
,-0.045401562
,-0.0098999515
,0.066823334
,0.030623429
,-0.090733528
,0.035953462
,0.021469895
,0.034840729
,0.10080913
,-0.051839817
,-0.0029044123
,0.0052506351
,-0.024833715
,0.017838018
,0.045163084
,0.0037394306
,-0.0050125998
,-0.03279876
,-0.017572932
,0.047947507
,0.025034953
,0.03135303
,-0.10997981
,-0.022648081
,0.053768486
,-0.058356076
,0.051895015
,-0.055205032
,-0.012261165
,0.023913851
,0.029282428
,-0.046213843
,0.04933589
,0.010787849
,0.060046602
,0.0066669164
,0.051128682
,-0.015972257
,0.016561409
,0.0536953
,0.029704938
,-0.023623621
,-0.075707383
,-0.11355471
,0.048867103
,0.053065162
,0.009260783
,0.01148943
,-0.047964945
,-0.092870943
,0.0055527971
,-0.004277003
,0.09981288
,0.049834423
,-0.063999243
,0.017816527
,0.0021809344
,-0.067727268
,0.04401242
,0.02397218
,-0.044582255
,0.0065170694
,0.0013287883
,-0.023230605
,0.031776216
,0.020162886
,-0.0032759109
,-0.03219771
,-0.018498715
,-0.074662052
,0.031888973
,0.050826453
,0.0703306
,-0.033325274
,0.024887888
,0.015874144
,-0.0033679206
,0.030706523
,-0.022013562
,-0.021911275
,-0.0025760278
,0.029071182
,-0.057849847
,-0.030417405
,0.064598374
,0.017760847
,-0.046340954
,0.022585159
,-0.055480316
,0.013668372
,-0.046054281
,0.035349376
,0.043199454
,0.025652258
,0.01511752
,0.042759124
,-0.064673305
,-0.017821258
,0.084770463
,-0.0030894694
,0.0086342627
,0.062708408
,0.011805212
,0.012619152
,-0.021061774
,0.011921244
,0.0076073352
,-0.0069565605
,0.0012542165
,-0.023641283
,-0.083831809
,-0.042478591
,0.023127994
,0.051299453
,-0.0727404
,-0.049557142
,0.10542851
,-0.025894919
,-0.22874746
,0.091226421
,-0.074078649
,-0.072814591
,-0.063685596
,-0.079064891
,0.041566193
,-0.042747166
,-0.013743039
,-0.083835684
,0.061216742
,-0.082687534
,0.046396535
,0.073199019
,-0.0245108
,-0.010341359
,-0.0037434923
,0.080334865
,0.0074745803
,0.0390122
,0.0033825445
,-0.080538437
,-0.11103256
,-0.020725999
,0.075506262
,-0.033430878
,0.13436368
,-0.0082778074
,-0.091310248
,0.037226737
,-0.040573604
,0.020498777
,0.01312277
,0.030563064
,-0.037816059
,0.024277193
,-0.30330446
,0.122215
,0.047915384
,0.016660839
,-0.12193126
,-0.037555311
,-0.040967762
,0.0754536
,0.018243758
,-0.011335406
,0.17151751
,-0.0066800998
,0.14761901
,0.036511235
,-0.093786992
,3.8826947e-06
,0.050999038
,0.010765555
,-0.025394589
,0.0015203488
,0.054116484
,0.055111889
,0.084055312
,0.033348113
,-0.066358954
,-0.018329257
,0.044334665
,0.13979296
,0.17335038
,0.0068056406
,-0.1393386
,-0.0031662402
,-0.016711695
,-0.12522626
,0.018824365
,0.045808781
,-0.1610119
,0.16286434
,-0.048967816
,-0.20822601
,0.066155441
,0.07227648
,-0.11890588
,0.030681532
,0.0015091958
,0.015925262
,-0.0083099008
,-0.0087369038
,0.012528996
,0.015202735
,-0.031629823
,0.00024540798
,-0.024982363
,-0.026592156
,0.13158831
,0.12380537
,0.030995874
,0.0036669439
,0.024999781
,0.023032472
,0.060392369
,-0.07714384
,-0.017782103
,-0.013073289
,-0.15329129
,0.042814825
,0.20813192
,-0.12744048
,-0.066588953
,0.024613537
,-0.010716371
,-0.11348181
,-0.06907934
,-0.020612778
,-0.024942804
,-0.063160196
,-0.0819454
,0.012215358
,-0.12833318
,0.025667571
,-0.037526827
,0.22743303
,0.15227398
,0.11345673
,-0.1184871
,0.11285616
,-0.092208289
,-0.17062244
,-0.0018465827
,-0.01059927
,0.11269428
,0.17067552
,0.057923082
,-0.086797625
,0.059019592
,-0.017741147
,-0.042535778
,-0.048368625
,0.066933848
,0.015020147
,-0.076816946
,-0.049121663
,-0.052025605
,-0.0056155822
,0.013160083
,-0.046205427
,-0.023801029
,0.076545812
,0.063112296
,0.19722532
,0.096801437
,-0.23297784
,0.097142756
,0.028736766
,-0.22026917
,0.026061695
,0.097692735
,0.022605903
,-0.015679795
,0.022504492
,0.087766163
,0.00095015252
,-0.057489511
,0.0040814811
,-0.074799493
,-0.046894539
,0.054990303
,0.022743059
,-0.057007033
,0.061118171
,0.050478987
,0.00781936
,-0.10513288
,0.071536817
,0.059948444
,-0.13587862
,0.027095128
,-0.060516845
,-0.1370164
,0.0032663343
,0.062545732
,-0.0050427727
,-0.10563711
,0.11015891
,-0.018844394
,-0.060910694
,-0.028218158
,0.30574557
,-0.022379817
,0.019692685
,0.013984772
,0.099418759
,-0.10095649
,0.10235167
,0.010361223
,-0.033841897
,-0.020394366
,-0.042119112
,-0.016763246
,0.10979553
,-0.0014588084
,-0.01401361
,-0.0017808491
,-0.032885086
,-0.094251893
,0.022821112
,0.0065716314
,0.0041107223
,0.056254465
,0.060818873
,0.015535412
,0.049438957
,-0.044704318
,0.068290047
,0.0097073885
,-0.011289342
,0.0868536
,0.039454881
,0.03582022
,-0.01145368
,0.096370868
,0.14703657
,-0.00073624676
,-0.16089016
,-0.06228058
,0.046274103
,0.024570175
,0.018579548
,0.050118733
,0.068532035
,0.011750971
,0.096768141
,-0.028812861
,-0.0091034258
,-0.024480103
,-0.039842412
,0.029978445
,0.031778987
,-0.051353808
,-0.15226939
,0.06587445
,-0.0090298811
,0.048535954
,-0.10044201
,-0.088395722
,0.040741242
,0.014781553
,0.083715126
,0.017981915
,0.075876288
,0.11833917
,0.013420321
,-0.084722556
,-0.098206989
,0.02159949
,-0.061414473
,0.12286619
,0.001940484
,-0.032925557
,0.046749759
,-0.079203352
,0.042792775
,0.0086185383
,0.054070033
,0.020173976
,0.028863192
,-0.059135828
,-0.013691939
,-0.042972837
,0.097042456
,0.037862733
,-0.16297287
,-0.045438085
,0.13076176
,-0.049081154
,0.053628329
,-0.025975388
,-0.14586772
,-0.00023703126
,-0.016640764
,0.020582231
,-0.043632098
,-0.0052318769
,0.048776913
,-0.019707542
,-0.03494079
,-0.14200039
,-0.024404481
,-0.049657792
,-0.06454958
,-0.036257848
,0.10825931
,0.11659128
,0.15104184
,-0.04109516
,-0.090033554
,0.010514488
,0.031042514
,-0.036104526
,-0.014347722
,-0.047304519
,0.30427024
,0.11185778
,0.057927165
,-0.14426023
,0.17726855
,-0.041074745
,-0.16368078
,-0.052444495
,-0.027043259
,0.093235016
,0.17855984
,0.067366965
,-0.12683873
,0.13563919
,-0.053524625
,-0.10182606
,-0.049410351
,0.043480542
,0.0625528
,-0.10007518
,-0.12485712
,0.053392377
,0.024090469
,0.077335089
,0.030139795
,0.10749199
,0.054156706
,-0.018041568
,0.082732812
,0.0084371082
,0.16225775
,-0.029558431
,0.047617972
,0.040254615
,0.035098989
,-0.094483666
,-0.025452182
,-0.12872441
,0.077499524
,0.17490758
,-0.029783169
,-0.15989295
,0.10482123
,-0.01111481
,-0.067457311
,0.071034715
,0.052091677
,-0.0019234383
,-0.12272902
,0.0011246291
,-0.054839332
,-0.12334482
,-0.0070520332
,0.037456766
,0.171526
,-0.11245111
,0.019596491
,0.14119466
,-0.17101018
,-0.10127647
,0.037891664
,-0.036506951
,-0.12488116
,-0.048141357
,-0.0099445023
,-0.039948467
,-0.12560983
,-0.037303865
,0.043781769
,-7.2388793e-05
,0.02347859
,0.11896367
,0.1484389
,-0.075417481
,-0.052894574
,0.084213376
,0.0086109359
,-0.008146055
,0.010210484
,0.006443935
,0.052394323
,-0.018401623
,-0.025358127
,0.11124331
,0.076593526
,-0.018232357
,-0.088848844
,0.011767635
,-0.024223657
,-0.063864842
,0.043949325
,0.067656204
,0.029832747
,0.035364155
,0.010822937
,-0.0034991265
,0.020136639
,-0.0019281
,-0.072042845
,0.048195679
,0.012874478
,-0.0051616654
,-0.023245962
,-0.076687329
,-0.023969095
,0.015756313
,-0.044352263
,-0.04502083
,-0.13760018
,-0.0030766609
,-0.060499955
,-0.0047294884
,-0.016687393
,0.054789532
,0.00033874816
,0.051389713
,-0.034148816
,0.082177162
,-0.015206698
,0.03214211
,0.071934678
,-0.061474003
,-0.0088628437
,0.098016888
,-0.052465349
,0.022165168
,0.10980622
,-0.034414496
,0.088407427
,-0.022894517
,0.087187134
,-0.077419296
,-0.026680661
,-0.035667636
,0.002221392
,-0.0081556169
,-0.060783874
,-0.0892743
,-0.013609272
,0.038379878
,-0.0098007964
,0.081800327
,-0.053287491
,-0.017689578
,-0.017574463
,0.030182378
,-0.024409506
,-0.055923872
,-0.0020897635
,0.015391805
,0.023838282
,0.041783329
,0.037976682
,0.0095379781
,0.00092240167
,-0.0023288974
,0.033759277
,0.0079120891
,-0.07451348
,-0.03463126
,0.055635408
,-0.04849299
,0.039398763
,-0.030046629
,0.0066574123
,-0.063906647
,0.02770539
,-0.043164607
,0.019228397
,-0.012614606
,0.04460587
,-0.020035239
,-0.029004239
,0.049297262
,0.003243861
,-0.043176536
,-0.045594294
,0.03972308
,-0.041135594
,0.0075736577
,-0.0094912387
,-0.028317563
,0.002361831
,-0.0084053967
,0.0014307618
,-0.016152797
,-0.024344927
,0.028807892
,0.026060706
,-0.029801993
,-0.06458918
,-0.023869075
,-0.0336396
,0.028978774
,-0.056990612
,0.037278954
,0.018295065
,0.009242719
,0.064051419
,0.033871222
,0.0642015
,-0.065188892
,-0.038903337
,0.027336821
,0.039996538
,0.031557512
,0.010036244
,-0.0089511517
,0.014484582
,8.8430024e-05
,-0.050234392
,-0.018205725
,0.011461055
,0.015770832
,-0.0037049144
,-0.020817596
,0.058313817
,0.032577157
,-0.023951974
,-0.032986473
,0.019958494
,-0.0071384488
,0.029196629
,-0.015486447
,0.05825004
,0.019315939
,-0.016030403
,0.029946022
,-0.046991594
,0.030493544
,0.029607225
,0.017525971
,-0.05075407
,0.011510764
,-0.037188392
,-0.033477906
,0.030150933
,-0.027017938
,-0.0080294274
,-0.036545672
,0.015927304
,0.042416982
,0.016399892
,-0.0089977188
,-0.053837676
,-0.041138515
,0.022330772
,0.015326262
,0.0021978808
,0.01216717
,1.7610981e-05
,-0.044894464
,0.017766593
,0.032259226
,-0.0095729325
,0.038455609
,-0.011684329
,0.01895434
,0.033683702
,-0.050140493
,-0.021748303
,0.0075721717
,-0.0071161627
,0.0090911025
,-0.054617614
,-0.032377668
,-0.033519037
,0.02199924
,0.0067422683
,0.0055735521
,-0.037728854
,-0.026032204
,0.0021400165
,0.010412586
,0.022075735
,-0.037053261
,0.029242778
,0.013832518
,0.046072967
,-0.040354237
,0.009886425
,0.010001786
,-0.036597818
,0.048909057
,-0.028842175
,-0.030079925
,0.031226648
,0.024854572
,-0.011522772
,0.055382412
,0.011503565
,-0.034586146
,0.045370892
,-0.01637055
,0.033697322
,0.0065939925
,-0.004101106
,-0.038613856
,0.00016583988
,-0.027837034
,-0.0089052981
,0.011499699
,0.057004612
,0.0022949371
,0.015599094
,-0.02114594
,0.021963555
,-0.03903503
,0.022970306
,0.030191457
,0.02238836
,-0.014668815
,0.025055079
,-0.02133484
,-0.01744521
,0.0058999108
,0.013219479
,0.029207027
,-0.028170696
,0.038177293
,0.061061
,0.015205548
,-0.015019681
,0.033934359
,-0.020832425
,-0.013969315
,0.014023249
,-0.056941815
,0.014265172
,0.0760738
,-0.056481749
,-0.021995418
,0.0036764855
,-0.013150067
,-0.028887514
,0.04351633
,-0.014437089
,-0.0047636074
,0.014765828
,-0.0049606841
,-0.031792432
,-0.028825896
,0.03474512
,0.016677115
,0.0048269089
,-0.0045807911
,-0.021029716
,0.043463591
,-0.025432529
,-0.052830778
,-0.05521965
,-0.011348573
,-0.007949478
,-0.024305407
,0.03870213
,0.030925989
,-0.041691005
,-0.042182934
,0.010994761
,-0.019492475
,0.037029896
,0.033157121
,-0.026862441
,-0.048181687
,-0.06515377
,0.0020452624
,0.060618494
,-0.0096976887
,0.03956322
,-0.048421741
,-0.073272765
,-0.1023711
,0.032498378
,0.040128913
,0.0707044
,-0.0022819012
,-0.029831629
,-0.012870293
,-0.039578684
,0.034306265
,-0.010476624
,0.053846113
,0.026223399
,-0.0086312192
,-0.015879836
,0.015531149
,0.011626698
,-0.019160362
,-0.012187415
,0.022210164
,0.025645804
,-0.023377519
,-0.037760317
,-0.012972838
,-0.011679311
,0.02360223
,0.040381949
,0.071105838
,0.0080901412
,-0.069949329
,-0.003622036
,-0.034928467
,-0.021804772
,-0.00014003203
,0.031383213
,0.010661048
,0.035167128
,0.040711451
,-0.038974397
,0.0016416673
,0.02141724
,0.011038071
,0.012219364
,0.036796857
,0.028296921
,0.020007659
,-0.029030252
,0.012141971
,0.027237274
,0.014291776
,0.031657808
,-0.025041185
,0.0074948091
,-0.040036451
,0.028151562
,0.057454828
,-0.035204981
,0.029979823
,-0.025432119
,0.010289469
,0.029382421
,0.030565666
,-0.053046867
,-0.047553349
,-0.027341599
,0.022328101
,0.0023882391
,0.023392048
,0.044382326
,0.02804108
,0.05729622
,-0.003788461
,0.01431456
,-0.033371978
,-0.011660618
,-0.050002091
,-0.06189163
,-0.0039905235
,0.00023459597
,-0.024220845
,0.032260764
,-0.0039039718
,-0.059861463
,-0.033288229
,-0.0053432626
,0.055684913
,-0.061778188
,-0.055142496
,0.055637147
,0.025098499
,0.03371552
,0.014833997
,0.027119173
,-0.057651594
,-0.0051643043
,0.019156693
,-0.035721235
,0.03885784
,0.020911189
,0.043905761
,0.059826389
,0.017054293
,0.016804518
,0.050881349
,-0.047772396
,-0.040095318
,-0.013385369
,0.013906736
,-0.019906973
,-0.03951256
,-0.029657502
,0.015979035
,0.0065032579
,0.033777203
,-0.027410178
,-0.037784472
,0.03100739
,0.036950778
,-0.0515905
,-0.01537692
,-0.02178124
,0.0092653232
,-0.041782137
,-0.024891937
,-0.0073296851
,0.049788807
,0.027781213
,0.01853201
,-0.016649941
,0.030777952
,0.022601256
,0.042284869
,-0.036662806
,0.028898511
,0.082629822
,0.024987485
,0.060079943
,0.011399854
,0.055076934
,0.079185419
,-0.048436258
,0.0062447474
,-0.0044836872
,0.011767834
,0.0097151492
,0.011100646
,-0.019459302
,-0.010788521
,0.029371424
,-0.010458695
,0.0254771
,0.0089109289
,-0.025941625
,0.036879394
,-0.0088173663
,0.035181507
,0.015495303
,0.022252068
,0.0090801846
,-0.038165469
,0.017330609
,0.013615746
,0.01058735
,-0.00336239
,0.0071172407
,-0.0061562876
,0.067146815
,0.020433608
,0.016737489
,0.0055335318
,0.010171395
,0.019750748
,0.017686404
,-0.016875591
,0.033920258
,0.0037216137
,-0.038503639
,0.035295695
,-0.002254603
,0.049599361
,-0.017689308
,-0.046667274
,0.020706428
,0.031389065
,0.049042225
,-0.022532031
,0.061779968
,0.048840098
,-0.016454665
,0.013892039
,0.051067695
,0.023874499
,0.0024832189
,0.045158319
,0.0084850322
,0.0066259652
,-0.0418116
,-0.019990614
,-0.0040224805
,0.027030798
,0.010175554
,0.019848015
,0.010008006
,0.01285536
,0.014335806
,0.03898624
,0.00040970379
,0.053184386
,-0.0045926562
,0.035872482
,0.034255028
,0.014484659
,-0.0047978316
,0.03396346
,0.015869696
,-0.012426435
,-0.0092712557
,-0.053308323
,-0.027510526
,-0.06278576
,-0.00979083
,-0.038067084
,0.016444704
,-0.023057304
,0.012767519
,0.15411924
,0.14823671
,-0.02488214
,-0.18996088
,-0.00089234038
,-0.0085079083
,-0.083495192
,-0.23227605
,0.041973386
,0.043874186
,-0.092700809
,0.13182098
,-0.035345804
,-0.20581567
,-0.054509614
,0.043626174
,-0.06491407
,0.039178386
,-0.064403407
,0.023380147
,0.08025261
,-0.039619379
,-0.03365352
,-0.037388485
,-0.011999059
,0.067538768
,-0.0840769
,0.052765787
,-0.0056599746
,0.026745623
,-0.020435445
,-0.046478868
,0.042060476
,-0.018769061
,-0.08927568
,0.035495587
,0.17306612
,0.058821827
,0.12818438
,-0.053006947
,-0.078463733
,0.11719568
,0.0033876966
,-0.1446844
,0.068513617
,0.09604878
,0.12479576
,-0.022601845
,0.036357824
,0.022819681
,0.099978916
,0.0077965171
,0.051977016
,0.14138596
,0.06488277
,-0.035663635
,0.035237577
,0.020791551
,-0.020961789
,0.023198629
,-0.12688883
,0.020090207
,-0.0062703104
,-0.03343568
,-0.14836167
,0.0031905074
,0.036517411
,-0.054108169
,0.019237813
,0.094562933
,-0.0040643332
,0.11575425
,0.12373068
,0.20221502
,-0.00034914195
,-0.0601419
,0.10889119
,0.047826018
,-0.23874243
,-0.45127022
,0.18898581
,0.0885829
,0.17370056
,0.11721328
,0.011959722
,-0.1095963
,-0.026935257
,0.011564331
,-0.10181916
,-0.003412036
,-0.080340065
,-0.0020163802
,0.0080235982
,0.011072096
,0.058307044
,-0.13485789
,0.10943241
,0.12280895
,0.0763661
,0.24501882
,0.11206377
,0.077629834
,-0.05834518
,-0.079743825
,-0.038749605
,-0.01583367
,-0.032393493
,-0.32018173
,-0.26136553
,0.10092864
,-0.054618355
,0.011801662
,0.06720154
,0.066035405
,0.11610036
,0.22840148
,0.088661976
,-0.034762032
,-0.038002908
,0.038368616
,0.039769333
,-0.027194612
,0.049442597
,-0.024905123
,-0.0022653241
,0.16543449
,0.0076176189
,0.23397322
,0.025505412
,0.157687
,0.16160995
,-0.040518168
,-0.08153607
,-0.19037908
,0.18504016
,0.13265702
,0.27016136
,-0.02832246
,0.036725283
,-0.070390083
,-0.21276614
,-0.064711615
,-0.15235023
,0.086449273
,0.061836321
,0.050960716
,0.014189039
,0.0049168612
,-0.24428315
,-0.0060205911
,-0.13328719
,-0.28943214
,0.36440665
,0.21991432
,0.16866128
,0.049126785
,-0.057643112
,-0.067940846
,-0.034283902
,-0.085495181
,-0.17463508
,-0.0323136
,-0.06224281
,-0.0664918
,-0.087989762
,-0.052834783
,-0.072505757
,-0.11672414
,0.083569892
,0.13511677
,0.21315169
,0.050017554
,0.24770312
,-0.037672717
,-0.087980755
,-0.2442521
,-0.052423008
,-0.038124159
,-0.26086167
,0.12451998
,0.18853962
,0.055847034
,0.14250427
,-0.1426879
,-0.36768162
,0.005717712
,-0.08486598
,-0.2246692
,-0.42333367
,-0.16032791
,0.014923682
,-0.12098297
,-0.12071018
,0.012357977
,-0.0096262489
,0.17436288
,0.35631925
,-0.12132237
,0.074790061
,-0.084877744
,0.02553335
,-0.013287784
,0.035862196
,0.095486216
,0.13617103
,0.15816626
,0.013900789
,-0.10085929
,0.078347854
,-0.088631257
,0.016294697
,0.030195475
,-0.070526578
,-0.07128267
,-0.11178485
,-0.010844869
,-0.13207038
,-0.090821296
,-0.081833728
,-0.091902994
,-0.0060082264
,0.11335342
,0.089217432
,0.1102391
,0.17610495
,0.48994932
,0.28704515
,0.034414437
,-0.23823117
,-0.14927828
,0.058420971
,-0.19629076
,-0.39793608
,-0.00014339782
,-0.0674345
,0.068691105
,0.10609578
,-0.063392922
,-0.029210649
,0.06370838
,0.12627411
,0.018765153
,-0.15371968
,-0.060798734
,0.005911056
,-0.14702274
,0.073954992
,0.080030814
,-0.0072882529
,-0.070645243
,-0.0094760889
,0.0041498276
,-0.15797107
,0.029787898
,-0.042074248
,-0.03911072
,0.084167361
,-0.0031914248
,-0.18120967
,-0.065194651
,-0.052057307
,-0.061637525
,0.093603887
,0.10175823
,0.041187532
,-0.0551778
,0.087676786
,-0.076674685
,-0.041613597
,0.23487559
,0.17796811
,0.02395571
,0.032603353
,0.030908465
,-0.13103293
,0.11945053
,-0.043446217
,-0.11744463
,0.069778331
,0.17810746
,0.10699099
,0.16761519
,-0.014453989
,-0.21140707
,0.025652714
,-0.094039164
,-0.2159196
,0.090803519
,-0.01334196
,0.28282082
,-0.003863761
,-0.12996005
,-0.07058683
,0.23488803
,-0.13184413
,-0.41931912
,0.064378478
,0.0071967291
,-0.023994368
,0.089100726
,0.011275493
,0.02340891
,0.019285573
,-0.035781093
,-0.0075778035
,0.28181469
,-0.012145297
,0.15717405
,0.012322627
,-0.080440074
,-0.021213843
,-0.040617555
,-0.032587219
,-0.22965953
,0.08099319
,0.13785912
,0.09191972
,0.11237779
,-0.0075273695
,0.015326772
,0.016128208
,-0.053680781
,-0.1935167
,0.029236164
,-0.088182725
,0.029059466
,0.02145287
,0.004088006
,-0.19201897
,0.00071430905
,0.026652062
,-0.06135311
,-0.150216
,0.0062916642
,0.058878295
,-0.11294117
,-0.054539785
,-0.040581994
,0.051291905
,0.030104814
,0.15410689
,-0.1735301
,-0.15930149
,-0.025505397
,-0.13319813
,0.11261155
,0.10775393
,0.11790774
,0.10648128
,0.30575478
,-0.08675734
,0.10466826
,0.1683189
,0.07311748
,-0.030126762
,-0.0048271413
,-0.0051132105
,-0.11893944
,-0.11462963
,-0.21349852
,-0.14099321
,-0.024687573
,-0.0761757
,-0.082216062
,0.10418972
,0.028000509
,-0.073099189
,0.16120711
,-0.031063737
,0.0021037864
,0.096697964
,0.0087070214
,-0.10638662
,-0.078979343
,0.010449424
,-0.063759938
,-0.1888781
,0.15817083
,0.22785597
,0.13957638
,-0.08598578
,-0.083696619
,-0.091806486
,-0.10240164
,-0.080811158
,-0.34032688
,-0.071982414
,-0.070117973
,0.14912388
,-0.14122392
,0.094597913
,0.041804705
,0.23288338
,0.14909419
,0.24330696
,0.11216771
,-0.041398928
,0.12719788
,0.022779604
,0.10296559
,-0.025422374
,-0.009993773
,-0.010900253
,-0.098094352
,0.013929104
,-0.0018310965
,-0.052026756
,0.027836002
,0.0011452771
,0.083920546
,-0.1348355
,-0.028993659
,-0.050538622
,0.15502314
,-0.03966805
,0.0407313
,-0.021125741
,-0.0993007
,-0.17480537
,-0.00049129809
,0.046681657
,-0.041597739
,0.12581111
,0.038767263
,0.075304478
,0.084329121
,-0.11020175
,-0.051241256
,-0.11054075
,-0.090945683
,-0.21649933
,-0.018194588
,0.025526172
,0.11272614
,-0.053237967
,0.013702166
,-0.00044726604
,0.076818891
,-0.090141013
,-0.17192641
,0.040533092
,-0.12128473
,-0.070656173
,0.10342144
,-0.0073804627
,-0.11658137
,-0.10981652
,0.069154374
,-0.23421101
,0.057276852
,-0.047389992
,0.063386939
,-0.034677237
,-0.023997696
,0.055758603
,0.020322844
,0.043109197
,0.034737796
,0.026477864
,0.0038478493
,0.040433254
,0.024854623
,0.0093699852
,-0.023029059
,-0.050908983
,-0.0015931724
,0.020697536
,0.0285687
,0.026403122
,0.04443289
,-0.012716136
,-0.040241167
,0.0072542597
,-0.014135833
,-0.0031337047
,-0.01711791
,-0.032259461
,0.013944224
,-0.041681919
,-0.0393115
,-0.0037652808
,-0.027262492
,-0.041196521
,0.018807054
,0.038850434
,-0.05103429
,0.02959786
,0.021169627
,0.032192163
,-0.028445471
,-0.023094418
,0.022273455
,-0.010610031
,0.028094066
,0.04799217
,-0.0055193733
,0.034755085
,-0.033720609
,-0.0689036
,-0.02316555
,-0.059012629
,0.027614808
,-0.028583219
,0.03196473
,0.0057135182
,0.039559167
,-0.013876108
,-0.02571379
,-0.015967751
,-0.029068286
,-0.030300656
,-0.022786681
,-0.010049472
,-0.061699819
,-0.02674563
,-0.018124938
,-0.026346706
,0.040378369
,-0.031267647
,0.02288413
,0.0085468823
,-0.013845735
,-0.040214293
,-0.0019743915
,0.042112164
,0.035601854
,-0.020460622
,0.041040804
,-0.031298921
,-0.0012665641
,0.036213685
,-0.058123376
,0.023351483
,-0.050060637
,-0.055378623
,0.048798464
,0.065950915
,-0.016275242
,0.011055977
,0.029289257
,0.053179346
,0.0073758308
,-0.029284872
,0.038813636
,0.023862055
,0.025906211
,-0.0045209532
,-0.03955492
,-0.017224122
,-0.030491674
,-0.022543719
,-0.041048348
,-0.004233534
,0.037728593
,-0.00947179
,0.0071510584
,-2.7491674e-07
,-0.082653239
,0.031668775
,0.032903228
,0.049380563
,0.0176962
,0.018700816
,0.0026472684
,-0.013053007
,-0.0656603
,0.0014693092
,0.044835471
,0.038783379
,-0.010914714
,0.0028820196
,0.047732424
,0.017641906
,-0.014838956
,-0.0031478927
,0.0013936951
,0.011582213
,-0.05016489
,-0.049649931
,0.013121936
,-0.011983724
,-0.025530051
,0.008750868
,-0.029922249
,0.0060129203
,-0.027598094
,-0.021552248
,0.073501684
,0.041818392
,0.066584565
,-0.032830745
,-0.057654619
,0.047471952
,-0.028983586
,0.0096194511
,0.014179136
,0.053866558
,0.0030727077
,-0.053376123
,-0.02434588
,0.0080767591
,0.022013573
,0.0047709886
,0.061518032
,-0.036135782
,0.04174028
,0.023454025
,-0.010566717
,-0.0027830298
,0.031642053
,0.008896728
,-0.034155086
,0.028178154
,0.046493694
,0.03575746
,0.039085537
,0.047507647
,-0.042352028
,-0.0042307894
,0.0234658
,-0.0025717132
,0.0050037066
,-0.0072987
,0.011894238
,0.0097122686
,-0.017785693
,-0.0030769594
,-0.055488765
,-0.0093528731
,0.0020361079
,-0.069376022
,0.039019786
,0.027528746
,-0.045687292
,-0.034395054
,-0.059501003
,-0.023200555
,0.056787394
,-0.0088661266
,0.0050675836
,0.019589458
,-0.0183116
,-0.0020428998
,-0.066810511
,-0.087750517
,0.036095869
,-0.075844087
,0.0059531452
,0.02500041
,0.030307544
,-0.010330607
,0.055136006
,0.055992052
,0.025875157
,0.016479807
,-0.049838673
,-0.033233132
,0.0048426692
,-0.020459179
,0.039558914
,-0.033640828
,0.034003023
,-0.013145157
,-0.012659608
,0.030020811
,-0.036901448
,-0.012848328
,-0.061327234
,-0.041673049
,0.036649369
,-0.044172697
,-0.023885412
,0.039323572
,-0.046577159
,-0.014983545
,-0.063552879
,-0.063889518
,0.0014937337
,-0.04899773
,0.0332321
,-0.027846681
,-0.024278598
,-0.043079477
,-0.030864911
,0.044510391
,-0.015373955
,0.029971892
,-0.00024487483
,0.029093308
,0.013864
,-0.035767309
,0.027766217
,-0.038850203
,0.061310124
,0.031728685
,0.022558123
,0.033222608
,0.020276405
,-0.027583988
,0.020547835
,-0.053471286
,-0.040898293
,0.01916356
,-0.015137835
,0.02748443
,0.03392515
,-0.057940725
,-0.037142064
,-0.0015499678
,0.027896265
,-0.016417794
,-0.011190405
,0.029389855
,0.03176995
,-0.015474208
,0.024788281
,0.026902314
,-0.027307678
,-0.016527031
,-0.018555697
,-0.0014718913
,-0.016641118
,0.037915822
,-0.056938447
,0.038810913
,0.00524312
,0.0048673511
,-0.027448423
,0.00594007
,-0.055430274
,0.036169957
,0.017237382
,0.015725611
,0.036716897
,-0.052908447
,0.0398665
,-0.03143169
,0.0078008785
,0.0090786321
,-0.0098234275
,0.030706424
,0.008205208
,0.068772048
,0.021010119
,0.043363735
,0.010682835
,0.028295673
,-0.013182104
,-0.064487882
,0.067474686
,-0.012163576
,0.031961031
,-0.058856349
,0.025657237
,-0.036679775
,-0.046102822
,-0.00551268
,-0.0013518297
,0.043214887
,-0.028791254
,-0.0069323666
,-0.012677715
,-0.061605148
,-0.022808824
,-0.005858066
,0.018052479
,-0.052800797
,-0.019954175
,-0.0044786772
,-0.0091926763
,-0.0270221
,-0.053559124
,0.02993051
,0.029416522
,0.016166063
,0.02959167
,0.012440239
,0.051697403
,0.029437862
,-0.0099803312
,-0.03484989
,0.03061047
,-0.014381078
,-0.038663793
,0.020777892
,-0.014746713
,-0.043805432
,0.048451234
,-0.076467268
,-0.010778161
,-0.047559351
,-0.023965435
,0.016952991
,-0.015842646
,0.0063699293
,-0.024130838
,0.039270926
,-0.012246497
,0.039670743
,-0.001849749
,-0.010158472
,-0.047752857
,0.05251791
,0.013960071
,0.045488115
,0.031455312
,-0.030073198
,0.010863034
,0.044561543
,0.066566706
,-0.0082877176
,0.028945031
,-0.014684741
,-0.021852674
,-0.013287225
,0.00203122
,0.0208342
,-0.048384782
,0.03521695
,0.027014928
,0.034409754
,-0.0557793
,-0.036354259
,0.049347624
,-0.012146394
,-0.065796375
,-0.051988464
,0.0037734993
,-0.019694777
,0.013803108
,0.051013272
,0.030693673
,-0.06243962
,-0.049375061
,-0.047403328
,-0.030436272
,-0.023983404
,0.038064547
,-0.053780161
,0.0034343004
,0.032918409
,0.023400767
,0.046258669
,0.039442159
,-0.0948564
,-0.008925342
,-0.027584167
,0.032768164
,-0.030762102
,0.024057191
,0.043923244
,0.012537147
,0.0019470927
,-0.017488187
,0.034814082
,0.045440111
,0.035458677
,0.038781282
,0.066723265
,0.041110527
,-0.02701965
,-0.047794048
,0.014298361
,0.029063411
,0.025577568
,0.029566344
,0.00073933438
,-0.01907623
,0.01692584
,-0.016127223
,-0.053181298
,-0.03284432
,0.006296997
,0.014835114
,0.035084315
,0.03180068
,0.034096204
,-0.0024557088
,-0.025197811
,-0.054247182
,0.012007746
,-0.014650123
,-0.0070763137
,0.028205076
,-0.0022021527
,0.003228334
,0.027093258
,0.0080700042
,-0.039710313
,-0.010881674
,-0.062154554
,0.02921021
,-0.033475213
,-0.0347053
,0.0014696956
,0.0018802958
,0.033914506
,-0.049816418
,-0.005008962
,-0.014918351
,0.05471798
,0.10967425
,-0.032118522
,0.02195017
,0.053359274
,0.00010789465
,0.04441943
,0.092663258
,0.095114544
,-0.018481914
,0.092403427
,-0.0086075189
,-0.0058874297
,-0.037647426
,-0.14223568
,-0.023063706
,-0.020566978
,0.030139158
,0.024622809
,-0.019286057
,-0.016831471
,0.00013653115
,0.0540305
,-0.025701584
,-0.038847093
,-0.026297845
,0.021754488
,-0.02499927
,0.028836429
,0.0086138295
,-0.0418895
,-0.027973877
,-0.003554845
,-0.019775957
,-0.0094245439
,-0.01045353
,0.0004347022
,0.003884542
,-0.029312076
,0.036401838
,0.02132773
,-0.081110127
,0.02090844
,0.007844789
,0.085161984
,-0.05975325
,-0.019028174
,-0.01817118
,0.046696167
,-0.009213672
,-0.00013500052
,-0.091326065
,-0.022824313
,-0.064329915
,-0.092447579
,-0.0041061747
,-0.00450164
,-0.045639243
,0.086446181
,-0.012894859
,0.0414249
,0.047751524
,0.0070227855
,-0.040539235
,-0.067281537
,0.041665643
,-0.066288441
,0.0246367
,-0.043158665
,-0.025689851
,0.0043384163
,0.014810289
,-0.14228567
,-0.060144525
,0.03022645
,-0.033266731
,0.085191794
,0.014630843
,0.045565557
,0.022811731
,0.033331715
,0.040491723
,-0.091143981
,-0.005009681
,0.012541403
,-0.0047063255
,-0.021440607
,-0.051480748
,0.04194105
,0.10023782
,0.0073289224
,0.062449686
,-0.029279962
,-0.010789215
,-0.01129437
,-0.067549363
,-0.016767336
,-0.075879991
,-0.010701506
,-0.099462487
,-0.083127022
,0.00011510755
,-0.014621489
,-0.00906812
,-0.034047864
,-0.035994124
,-0.083565995
,-0.15228853
,0.11709195
,-0.011697577
,-0.050887506
,0.031193888
,-0.0082628233
,0.10298552
,0.0997391
,-0.051550962
,0.033103626
,-0.015103666
,-0.0045122169
,0.035801549
,0.047212493
,-0.011720727
,0.025265787
,0.018112279
,-0.036836527
,-0.069342725
,0.0095388256
,-0.16921116
,0.060524385
,-0.099801913
,-0.052313909
,0.007740553
,-0.023876002
,0.042250279
,-0.039417036
,-0.044810586
,-0.07481128
,0.013063706
,-0.004901439
,-0.045187488
,-0.0055912607
,-0.075565241
,-0.0014113146
,-0.045701817
,-0.026019815
,0.0776986
,0.011577239
,-0.041184328
,0.1010008
,-0.092613466
,-0.012693969
,0.02668412
,0.011983123
,0.010060283
,-0.17024767
,0.09603636
,-0.0039322139
,-0.037334304
,-0.0256603
,-0.0082561187
,-0.040957958
,0.0012981815
,-0.029155949
,0.08260233
,-0.087556019
,-0.0077570989
,-0.0051870826
,0.035442244
,-0.008546887
,0.013996431
,-0.014041417
,0.022579728
,0.1023249
,-0.059363343
,-0.01298889
,0.011072257
,-0.019421415
,-0.0065925736
,0.094704412
,0.010054703
,-0.046449304
,0.042603686
,0.038347747
,-0.0025080515
,0.062638789
,-0.0877346
,-0.00091009034
,0.09298566
,-0.063756451
,0.009667594
,0.041513104
,-0.033054419
,0.049732771
,-0.012833218
,0.068953671
,0.058282875
,-0.05332442
,-0.051757678
,-0.0728316
,0.091882117
,-0.040335704
,0.034140732
,0.01181144
,-0.0023480915
,0.0092347329
,-0.019823719
,-0.057651106
,0.014864625
,0.00087318884
,-0.051822081
,-0.035148643
,-0.0417033
,-0.056819096
,-0.033396889
,0.011578966
,-0.016436975
,-0.007647092
,0.03321996
,-0.026257986
,-0.042177025
,-0.086424738
,-0.014501506
,0.014820678
,-0.026012039
,-0.047413431
,-0.048406802
,0.061341278
,0.10346191
,0.10613877
,-0.047683544
,-0.090988532
,0.055878844
,0.07804957
,-0.04025254
,0.020498544
,0.023361968
,0.03937104
,0.04018569
,0.013263949
,-0.019394729
,-0.041011669
,-0.058670096
,0.082097843
,-0.014004104
,0.014469109
,0.029711833
,0.0046512829
,0.0040033204
,0.011238072
,-0.011274583
,-0.057752293
,-0.038756177
,-0.039574571
,-0.072998382
,-0.029332386
,0.0353364
,0.069446594
,-0.0094342241
,0.044492889
,0.04100069
,-0.023042949
,-0.050094169
,0.0097420644
,-0.053795915
,0.030798934
,-0.0077147749
,-0.075079195
,0.074498832
,0.022835109
,-0.011504705
,0.049522229
,-0.01726068
,0.047595404
,0.078132316
,-0.093974717
,-0.038777791
,0.027000338
,-0.034385584
,0.024390932
,-0.068148911
,0.0077619264
,0.0839133
,-0.021687299
,0.0075217057
,0.010827281
,0.039822452
,0.074515469
,0.023440914
,0.0079912441
,0.064412773
,0.097719714
,0.062590919
,0.034704629
,-0.035142057
,-0.024603862
,0.054442588
,0.028754158
,-0.11531229
,-0.016340591
,-0.0062520946
,0.018398266
,0.006572701
,-0.033671841
,0.028513646
,-0.020681996
,-0.10163821
,-0.026619069
,-0.045126114
,-0.021593926
,0.021515992
,-0.06178686
,-0.01776891
,0.066590846
,0.0015474263
,-0.013253208
,0.000978072
,-0.056553841
,0.0068864729
,-0.020351591
,0.060976647
,-0.0077607837
,0.0050484249
,0.066776372
,-0.0078556482
,-0.011791753
,0.061413065
,-0.052294984
,0.010765395
,-0.0057848962
,0.03433853
,0.064455271
,0.045707859
,-0.086905368
,0.085699737
,-0.043492351
,-0.047581382
,0.029359968
,-0.0041924831
,0.064345345
,0.021130271
,-0.039401568
,-0.031509273
,-0.0050460231
,0.035044618
,0.021695316
,-0.027728086
,-0.035878312
,0.069473289
,8.0224774e-05
,-0.05736804
,-0.04707798
,-0.00550988
,0.02491278
,0.0095064007
,0.032141015
,0.0057350411
,0.021457706
,0.039688822
,0.012649768
,-0.071780324
,0.0028614046
,0.054354094
,0.0012188525
,0.060997177
,0.014038092
,0.0329349
,0.07420247
,-0.018439092
,-0.0016391528
,0.022580395
,0.029106583
,0.0067799343
,0.010835872
,0.088419
,0.013105564
,0.041824237
,0.057131853
,-0.11487163
,0.028434867
,0.12886922
,-0.065676019
,-0.041205935
,-0.052906152
,-0.052461311
,0.0087794485
,0.0772546
,-0.0097662043
,-0.0076621962
,-0.20569091
,0.04408206
,-0.08901681
,-0.068418652
,0.067669518
,0.058670111
,-0.031764008
,0.0010595019
,0.035378139
,-0.039334912
,-0.00041352544
,0.015624375
,-0.031502753
,0.031227369
,0.031803984
,-0.0026218051
,0.028478798
,0.0087412456
,0.025038103
,0.0070796767
,0.0025790567
,-0.004715024
,0.033776041
,0.015821612
,0.032338236
,-0.001242522
,0.0028114943
,0.030497687
,0.038528509
,0.075508952
,0.024106717
,-0.036699235
,0.037283085
,0.0061883605
,-0.042120073
,-0.061219279
,0.060899667
,-0.019426739
,-0.020570975
,0.077699475
,-0.015578259
,0.031738896
,0.070506081
,0.0083901566
,0.080045961
,-0.05652082
,0.029957589
,-0.065270439
,0.025280863
,0.03457126
,0.044565268
,-0.0031760428
,0.017357005
,0.045273263
,-0.036999654
,0.048024829
,0.004987292
,0.023118829
,-0.039720688
,-0.046608098
,-0.0027562878
,0.013447296
,0.016168134
,-0.046139359
,0.073102742
,0.0023396211
,-0.025648434
,0.021014377
,0.0017607405
,-0.18886676
,0.090924114
,-0.040566545
,-0.063569814
,-0.027399933
,-0.035287652
,0.019978099
,0.033023532
,0.0014199498
,0.011516571
,0.0039524343
,0.027508013
,-0.02112814
,-0.0010235121
,-0.03716737
,-0.011694523
,0.016643358
,0.038542666
,0.066560172
,0.033053946
,0.013331369
,0.02648109
,0.0632403
,-0.01190249
,0.0085478714
,0.0033003027
,0.06709259
,-0.0692635
,-0.0066214022
,0.033233888
,-0.07632494
,0.000726351
,0.0016741554
,0.054965012
,0.0195837
,0.0366734
,0.073497057
,0.0985562
,0.060924191
,0.0026287716
,-0.081102215
,-0.016208682
,-0.0028940241
,-0.030691395
,-0.012927507
,0.14774302
,0.060044136
,-0.0087899128
,0.031323534
,-0.026501795
,0.019112695
,-0.085109621
,-0.12411013
,-0.037461113
,0.034385651
,0.0025369695
,0.06935636
,0.0059925406
,-0.018167643
,0.0074414979
,0.039359864
,0.035376139
,0.031228814
,-0.057130493
,0.087306604
,0.071834147
,0.046223704
,-0.0025416575
,-0.034234814
,-0.079816945
,-0.0029923443
,-0.0057639913
,-0.059529
,0.1109274
,0.10600463
,-0.070244655
,0.013003867
,-0.030061137
,-0.048264094
,0.078189135
,0.00912982
,-0.012029028
,0.00076659373
,-0.019595848
,0.034271017
,-0.0079269437
,-0.0031718058
,0.03073688
,-0.0754348
,0.0099077914
,0.085196115
,0.058286443
,0.13766989
,-0.0032103942
,0.018956013
,-0.014876626
,-0.052934658
,-0.014760735
,-0.051487375
,0.00864446
,-0.062653854
,0.027009945
,0.063705757
,-0.03566929
,-0.03286406
,0.045233198
,-0.056223031
,-0.092210293
,-0.051224966
,0.017773004
,-0.0096470593
,-0.008103813
,0.027648645
,0.033398047
,0.0043317778
,0.019960051
,-0.0031202
,-0.0038880291
,0.04437153
,0.11986734
,0.065553978
,0.11731858
,0.00894094
,-0.05561718
,0.074894652
,0.031815019
,0.028453015
,0.047523752
,0.010268313
,0.010148752
,0.034124605
,-0.028598662
,-0.00094480254
,-0.014628686
,0.031175455
,-0.096017033
,0.049821604
,0.01706521
,-0.072045624
,0.013284087
,0.0079530291
,-0.072969377
,0.014170158
,-0.023846455
,-0.17028406
,0.020459387
,0.10349109
,0.038769282
,0.070091
,0.033300322
,-0.045160882
,0.011042025
,-0.051855825
,0.023275675
,-0.014467965
,-0.051858708
,0.015881389
,-0.076625757
,-0.0005981219
,0.069896467
,-0.02077326
,0.005417862
,0.0063732825
,-0.0045627337
,-0.046009738
,-0.07303147
,-0.03456739
,-0.11443616
,-0.11501482
,0.059214156
,0.033235878
,-0.14783639
,0.061767742
,0.011658511
,-0.076755069
,0.016916014
,0.027909212
,-0.077829674
,-0.022762731
,0.065496713
,-0.111911
,-0.10691534
,-0.070334695
,0.015025685
,-0.11718294
,0.0729876
,0.11056619
,-0.056630362
,-0.0017264512
,0.16572841
,-0.018075205
,-0.0065324041
,-0.074877366
,0.015593723
,0.03408432
,0.075902045
,-0.050817762
,0.03495824
,0.010889035
,0.015406294
,0.02626631
,-0.067383513
,-0.0064677354
,-0.056749519
,-0.0067147673
,-0.065355577
,0.0049798214
,-0.051946394
,0.0195397
,0.0060708364
,-0.011513096
,0.053654503
,-0.015052283
,0.050553173
,0.030585697
,0.045386255
,-0.022201322
,0.07113415
,0.11362129
,-0.11123072
,0.0024836725
,-0.0031058842
,-0.026305182
,0.0099347252
,-0.01999916
,-0.13228036
,0.041199107
,-0.028203515
,-0.0088707358
,-0.0083461618
,-0.067252539
,0.052502587
,0.10163548
,0.035089254
,0.0033277525
,-0.02018504
,-0.065950505
,-0.044877514
,-0.019987699
,0.010406619
,0.037649583
,-0.049414396
,0.012030294
,0.043925662
,0.0043147579
,0.026246645
,0.012309134
,-0.036279056
,-0.07784684
,-0.046513014
,0.041712698
,-0.05823721
,-0.011041072
,-0.03757564
,-0.0053764354
,-0.080593705
,0.0027649244
,-0.0058019366
,-0.039131761
,-0.0010500356
,-0.0021738724
,0.0034124337
,0.0011327397
,-0.016701421
,0.0077617541
,0.015135392
,0.045422554
,-0.048418231
,0.08018589
,-0.0017417223
,-0.048947938
,0.058468528
,0.0015965833
,0.011462485
,-0.011925114
,0.0085862083
,0.017952178
,-0.0018427626
,-0.010271986
,0.01874925
,0.084075637
,0.022575714
,-0.13446967
,-0.0978723
,-0.071137026
,0.035398785
,-0.017577026
,0.044249944
,-0.16213222
,0.086543061
,-0.00080533151
,0.0067073083
,-0.0144939
,0.0011840252
,-0.0731139
,0.0350242
,-0.086187579
,-0.053312484
,0.017336272
,0.026350033
,0.011577044
,0.019213315
,-0.053467561
,-0.063205272
,-0.043993313
,-0.053498473
,-0.079769582
,0.053003028
,0.08108101
,-0.020493317
,0.13170341
,-0.024221027
,0.0096703833
,-0.01141611
,0.047534216
,-0.00091253035
,0.0037231762
,-0.05775106
,-0.075913824
,-0.017538615
,0.019368861
,0.017114408
,0.016854642
,0.055836532
,-0.054722745
,-0.038270287
,-0.021253169
,0.074613847
,-0.042273425
,0.06903296
,0.02536528
,-0.045584287
,0.049825657
,0.12364922
,-0.063179865
,-0.008229183
,0.091535687
,-0.041898895
,0.10185412
,-0.0057882434
,0.042570017
,-0.040694181
,0.063302651
,-0.03587357
,0.12509972
,-0.038526658
,0.078566656
,-0.025756089
,-0.094812781
,0.0042715007
,-0.042258911
,0.064078175
,-0.10244931
,-0.093241237
,0.031761866
,0.020199453
,-0.033521388
,-0.065066405
,-0.033581648
,0.019355576
,0.016605554
,0.0604445
,-0.013190676
,-0.0632049
,0.068714425
,-0.060838807
,-0.038158875
,-0.062827937
,-0.023168018
,-0.043224376
,0.015180295
,-0.00053805893
,-0.026529651
,0.03568333
,-0.012414321
,0.032299675
,0.020908443
,0.088336915
,-0.12059408
,0.0039977306
,0.0083634844
,0.14360592
,-0.057987556
,-0.021305563
,0.019626865
,0.030007783
,-0.064868972
,0.087246664
,0.027606983
,0.03685154
,0.051846948
,-0.032648262
,0.034871988
,0.035014741
,0.011252887
,-0.062318098
,-0.043651786
,-0.033714589
,0.058689408
,0.004976958
,-0.045267541
,0.028614044
,0.068049945
,-0.072125107
,-0.018761499
,-0.029183248
,0.022528334
,-0.0022583611
,-0.038272008
,0.02964925
,-0.088174514
,-0.052992988
,-0.008447581
,-0.032736391
,-0.061116885
,0.10007463
,0.014005092
,-0.051467624
,0.026897695
,0.066920176
,-0.073157065
,-0.024203638
,0.071143657
,-0.083548754
,-0.046335466
,0.037853967
,0.022837572
,-0.056933664
,-0.024931489
,0.010068721
,-0.0049462956
,-0.0065127513
,-0.034583814
,0.033073921
,-0.070744738
,-0.058013845
,-0.002904583
,-0.020740042
,0.028729847
,-0.10145875
,0.0822468
,-0.055385545
,-0.12040991
,0.026696995
,0.1076968
,-0.083145581
,-0.050107285
,0.051417358
,-0.0335333
,0.11034996
,0.1457902
,-0.15668081
,-0.0018161177
,0.22134176
,-0.02404044
,0.12515506
,-0.048517279
,0.13851973
,0.060552783
,0.21358532
,-0.10596762
,0.0058785439
,0.077971771
,0.068665087
,0.038757097
,-0.04794376
,0.069311254
,-0.043383054
,0.12575692
,-0.0041540475
,-0.0035533821
,0.11998563
,0.00082205085
,-0.032856587
,-0.03592588
,-0.015247649
,-0.010922983
,0.068790361
,-0.039730914
,0.081024982
,0.035585288
,-0.12127004
,-0.065183155
,0.085555442
,-0.072541289
,0.068125151
,0.068766207
,-0.15364848
,-0.01046803
,0.018663554
,0.056907713
,-0.0059341965
,-0.016337192
,-0.0030182663
,-0.04182614
,0.032555196
,-0.0750716
,-0.070066608
,-0.04018712
,-0.034891061
,0.032396346
,0.038503628
,0.024458416
,0.036971759
,0.11848854
,0.0011363636
,0.018941561
,-0.05833431
,0.066295832
,-0.069975577
,-0.030894957
,-0.0014476436
,-0.02172875
,0.059663538
,-0.18569833
,-0.24373069
,-0.043495044
,0.0011635366
,-0.0092133572
,0.085540257
,-0.0481535
,-0.059645914
,0.1161863
,-0.17636438
,-0.11293685
,-0.0086658746
,-0.048624624
,0.045329034
,-0.058613785
,0.020701336
,0.082308315
,0.087681577
,-0.030904172
,0.0084491307
,0.067316875
,0.0053677731
,-0.014166667
,-0.035491906
,-0.0052095396
,-0.066963889
,-0.020801673
,-0.017825134
,-0.085408948
,-0.054681472
,-0.07408879
,-0.04244348
,0.019778781
,0.0016631796
,0.024673583
,-0.016334075
,0.24577077
,0.14583589
,-0.0082226656
,0.13132551
,-0.018688846
,-0.091790535
,-0.043088168
,-0.016530894
,-0.15922864
,-0.033069964
,0.088413432
,0.049813677
,-0.076824293
,0.05543359
,0.072928317
,-0.071106717
,-0.06407436
,0.006768961
,-0.1049232
,-0.19184063
,-0.23884404
,-0.12335172
,-0.0043351497
,0.00914779
,-0.040220197
,-0.15606321
,0.0086589186
,-0.1453037
,-0.16687115
,-0.072115846
,-0.061631355
,-0.046850126
,-0.00094288023
,0.1439313
,0.028970828
,0.21160468
,-0.06822148
,0.0810007
,0.068015143
,-0.024181448
,0.052877478
,0.071360521
,0.082345121
,0.062649481
,0.21666743
,-0.27483436
,-0.17943865
,-0.21050233
,-0.13335744
,-0.095058315
,-0.059439629
,0.0041717524
,0.12341785
,0.11748159
,0.087560773
,0.032137617
,0.0095733469
,0.032772992
,0.036190327
,-0.049922828
,0.039804682
,0.023519035
,0.017371317
,0.0036236851
,0.0051289783
,0.31821963
,-0.11052103
,0.0964784
,0.077035829
,-0.057755474
,0.08752621
,0.17482226
,-0.15600756
,-0.060058862
,0.23716691
,-0.0058149984
,-0.055266496
,0.14707439
,0.0010155041
,-0.02033538
,0.21006937
,0.24503636
,0.17520311
,0.10955632
,0.099658825
,0.029057652
,-0.28096703
,0.10279527
,-0.011994843
,-0.25075191
,0.13025415
,-0.018322719
,0.19473444
,-0.030623099
,0.045576535
,-0.086216956
,0.1274371
,-0.056348
,-0.084259771
,-0.023718622
,-0.022855628
,0.066019773
,-0.014643522
,0.066107467
,-0.046139635
,0.072630756
,-0.042285874
,0.095124438
,-0.0051820432
,-0.016378999
,0.026051376
,0.063123204
,0.062442914
,-0.020891095
,-0.01503724
,-0.066412345
,-0.0096830418
,-0.28024003
,-0.15062638
,0.12098095
,-0.20615703
,0.096744373
,0.076957963
,-0.0066595
,0.01554291
,0.21931887
,-0.003736055
,0.047695108
,-0.030572934
,-0.051802225
,0.010462884
,-0.057418145
,-0.084743634
,-0.050386947
,-0.028433491
,-0.012035634
,0.10967422
,-0.0051618433
,0.0036824036
,-0.018598495
,-0.054556902
,-0.052992281
,-0.025967864
,-0.053811513
,0.025706757
,-0.047101676
,-0.14237657
,0.0039398838
,0.0650348
,0.056958642
,-0.0977714
,0.018499104
,-0.099100836
,0.0023161178
,0.09291476
,0.054776479
,0.021083418
,-0.012845461
,0.048943877
,0.049560443
,0.014124528
,0.081627242
,-0.15525217
,-0.057268728
,0.0067217881
,-0.1473788
,-0.019377837
,0.046294391
,-0.1118108
,0.067306243
,0.15908538
,-0.065511331
,-0.028969027
,-0.015003829
,0.0053706975
,-0.013792993
,0.064796321
,-0.01637264
,0.076334819
,0.056304909
,-0.091354065
,-0.026746156
,0.17424175
,-0.0051693069
,0.059599251
,-0.0064812573
,0.045993134
,-0.10755408
,0.17073347
,-0.11283732
,-0.14335969
,-0.033801977
,-0.029004803
,0.011546426
,-0.0062975925
,-0.042877905
,0.016077908
,0.034690689
,-0.081550822
,-0.22169052
,-0.017953955
,0.052496392
,0.09635812
,0.050902765
,0.043414161
,0.05079595
,0.028607013
,-0.21110177
,-0.13375573
,-0.032152519
,-0.16902328
,-0.012483956
,0.10733627
,0.078177854
,0.051190984
,0.095383927
,-0.012157221
,0.075721025
,0.12137873
,-0.0033488667
,-0.044681106
,-0.0047298693
,-0.0844351
,0.017747318
,0.055328198
,0.14024733
,0.00023807622
,0.027545925
,0.093566515
,-0.058058921
,0.030127732
,0.13722663
,-0.064322278
,-0.13349544
,0.2831884
,0.10960034
,-0.08487431
,0.17031738
,-0.18715511
,-0.071626253
,-0.060103942
,-0.13714011
,-0.24117295
,0.057721719
,-0.11091103
,0.0037417323
,-0.001371484
,0.02555806
,0.053217471
,0.043711018
,0.010666702
,-0.061733294
,0.071743
,0.05922528
,-0.025915146
,0.0936518
,0.0094125317
,-0.019457528
,0.0075681582
,-0.0432074
,-0.0641624
,-0.012752237
,0.061278105
,-0.019054096
,-0.026704611
,0.10079257
,0.11202066
,-0.016802629
,0.095186174
,0.034735948
,-0.079435073
,-0.016977377
,0.16732116
,-0.010341337
,0.10390887
,-0.093941219
,0.067057349
,-0.04577915
,0.092089742
,0.0853672
,0.10356811
,-0.34282461
,0.18535528
,-0.082740679
,0.0032051858
,-0.22395529
,-0.098315991
,-0.25951153
,-0.02316243
,-0.0059441538
,0.01391301
,0.025676131
,-0.0081804413
,-0.043085452
,-0.033122625
,-0.018614626
,0.034823071
,-0.016743826
,0.01962186
,-0.02967485
,0.050305951
,-0.080988772
,-0.049753472
,0.076274037
,-0.010311726
,-0.020376882
,-0.036112629
,0.062359326
,0.034701414
,0.02997297
,0.0059626591
,0.0021385772
,-0.088868082
,0.031886812
,0.066499159
,-0.12717944
,-0.13819505
,0.10606272
,0.090764157
,0.0016030457
,0.23249696
,0.03328887
,0.11805908
,0.13719705
,0.094226457
,-0.020478746
,-0.015596106
,0.041001372
,-0.028468212
,0.046263848
,0.049833287
,0.0611137
,-0.071610183
,-0.085988976
,0.049057227
,0.10886209
,-0.0492017
,0.10401499
,0.066751093
,0.056723412
,0.037694667
,0.13463634
,0.042056117
,-0.039425723
,-0.052634891
,0.030331917
,0.086657278
,-0.14960155
,0.064512581
,0.1465175
,0.17425023
,0.098243035
,-0.04007012
,-0.13009472
,-0.01475739
,-0.031957153
,0.012798262
,0.12717579
,0.067256875
,0.081875779
,0.0069536534
,-0.0023639665
,-0.0019623959
,0.051831827
,-0.065411717
,0.05896252
,0.024412347
,0.084850378
,0.035194214
,0.043760188
,0.085152507
,-0.038678333
,0.031736236
,-0.15647106
,-0.043587342
,0.019163961
,0.058111668
,0.13715129
,-0.013555127
,0.044916518
,0.024635442
,0.053909544
,-0.027674919
,-0.0031269458
,-0.0099326679
,0.060811341
,0.024413783
,0.036431663
,-0.041205578
,0.00921426
,0.031965993
,0.025172094
,-0.01642807
,0.052540939
,0.042899486
,-0.062542513
,-0.051727246
,-0.14346254
,0.046733972
,-0.013519229
,-0.020383893
,-0.04305153
,0.033227429
,0.0063825254
,-0.055686042
,0.094003677
,0.038892649
,-0.02424055
,-0.017523024
,-0.0039840541
,0.11855608
,0.0031313067
,-0.012884397
,-0.071813345
,-0.086500481
,0.068417788
,-0.011049067
,0.0051570786
,-0.17107451
,-0.21587379
,-0.0099017024
,-0.018613826
,0.14283521
,-0.034692388
,-0.002040372
,-0.028715445
,-0.044245087
,-0.055282895
,-0.03012995
,0.073787242
,-0.0041945432
,0.21061623
,0.022260826
,0.086126581
,0.049610924
,0.017069621
,0.056505866
,0.065411486
,0.022540487
,-0.039932836
,-0.042774271
,-0.025216943
,-0.026992267
,-0.034706913
,0.035326712
,0.052237689
,0.031292412
,0.048420977
,-0.090056218
,-0.054721229
,0.013781696
,0.085337222
,0.16028932
,-0.090255581
,0.010698332
,-0.022348361
,-0.15146458
,-0.073350728
,-0.10601529
,0.036023997
,-0.030233642
,-0.11564647
,-0.045551475
,0.0056862533
,0.0041976664
,0.031352323
,-0.0075524561
,-0.030209288
,-0.077906318
,0.0701102
,-0.080191366
,0.00825738
,-0.028507959
,-0.015290822
,-0.010230736
,0.005145309
,-0.075412363
,-0.088711455
,-0.12990688
,-0.11580573
,0.03654189
,0.028944366
,-0.0028448931
,0.16633496
,-0.096663192
,0.081449613
,-0.040706515
,-0.037241109
,-0.16815569
,0.013903907
,0.057415161
,-0.038582165
,0.0814486
,0.17761821
,0.17238489
,-0.10770545
,-0.1181901
,-0.028802179
,0.087318137
,0.052261963
,0.041887183
,0.0050784256
,0.0080727553
,0.0068388167
,0.0627759
,-0.028631933
,-0.030748717
,0.007768169
,-0.019719843
,0.026163103
,-0.020075025
,-0.084304512
,-0.060992043
,-0.091271818
,0.011713326
,-0.23720504
,-0.031067302
,-0.057311077
,-0.028856829
,-0.023380309
,0.10942525
,0.14021157
,-0.033837494
,-0.015489326
,-0.16945902
,0.017057614
,0.012044302
,-0.092305176
,0.14283198
,0.10151538
,0.12386236
,0.15536815
,0.063743487
,0.069661349
,-0.017909303
,-0.0054433178
,-0.027560534
,-0.064308785
,-0.039679263
,-0.21819654
,0.050147358
,0.025578294
,0.14452337
,-0.0059034894
,-0.014607765
,-0.038353167
,0.022523051
,-0.05755185
,-0.083156131
,0.025957452
,0.0947953
,-0.13028675
,0.015244143
,-0.069465
,0.0060395603
,0.0036396985
,0.056440141
,0.066804476
,-0.030671015
,0.0174285
,-0.032123785
,0.076232471
,0.028266564
,0.11382186
,-0.065196007
,-0.045729287
,0.037000507
,-0.015222609
,0.0026641681
,-0.15975326
,0.0058784666
,0.032951582
,-0.14073552
,0.060059238
,0.022867026
,0.039841551
,-0.00999589
,0.059957407
,-0.052154873
,0.027362863
,-0.003820502
,-0.038287353
,-0.055213537
,-0.056665249
,0.058229059
,0.022737725
,-0.029352453
,0.077487841
,0.022943122
,-0.063998654
,-0.069744654
,0.0065656346
,0.022174146
,0.063526183
,-0.023777546
,-0.042448658
,0.12261706
,0.040649444
,-0.070256017
,-0.11798891
,-0.027246386
,0.056298018
,-0.063423134
,0.026342303
,-0.045666482
,-0.046623223
,-0.12731056
,-0.068495691
,0.064771734
,-0.073109195
,0.0586274
,0.1011686
,-0.11184196
,-0.10351798
,-0.12662138
,0.088448353
,0.048921797
,-0.026749233
,0.017163124
,0.001781581
,0.048459657
,-0.025829006
,-0.036542002
,-0.018112181
,-0.054474082
,-0.0093381163
,-0.083522066
,0.05541588
,0.0060387938
,0.051826123
,-0.055671807
,0.095481858
,-0.084634744
,-0.026662275
,-0.081972584
,-0.082645714
,-0.046535619
,0.13420403
,0.16734482
,-0.014258848
,0.0098677771
,-0.032052796
,0.043377809
,0.031638782
,-0.0239066
,-0.03166553
,0.10980336
,-0.012205813
,-0.11912418
,0.043647628
,-0.10662296
,0.091194741
,-0.076661795
,-0.106971
,0.024197634
,0.13713987
,0.041388191
,0.0053037945
,-4.1828942e-05
,-0.13629863
,0.040687807
,-0.14460258
,-0.047336183
,0.02911027
,0.15464893
,0.092248008
,-0.09427508
,-0.10392459
,-0.098899178
,-0.043364644
,0.022865757
,0.013475222
,0.023911307
,0.03842013
,0.11555484
,0.031061511
,0.012472191
,0.020453641
,0.0016955581
,0.10072226
,0.046428777
,-0.0053028888
,0.070481136
,-0.061668478
,0.0072019035
,0.031774398
,0.1985074
,0.1090731
,0.046185263
,-0.017047651
,-0.10498269
,0.03909136
,-0.137359
,0.02557121
,0.088002011
,-0.070757665
,-0.05701438
,-0.063269138
,-0.092531614
,0.019730764
,-0.097078107
,-0.012496931
,-0.015703248
,0.036361363
,0.045219108
,-0.12138168
,0.012587428
,-0.14663778
,-0.10198469
,0.093893923
,-0.056769021
,-0.0039507472
,0.010735132
,-0.021157963
,-0.093010582
,0.01092962
,-0.036835451
,0.024237869
,0.012641985
,0.0865597
,-0.015318249
,-0.035539128
,-0.112363
,0.0042162468
,-0.047021952
,0.039487675
,0.10259321
,0.082646273
,0.077412054
,-0.034181442
,0.038713269
,0.080755495
,0.042827465
,0.11958108
,0.067547128
,-0.0779487
,-0.16848487
,-0.24276827
,0.010559909
,0.078613274
,-0.047660884
,-0.0049190456
,-0.0021402396
,-0.033195164
,-0.020408319
,0.10186122
,0.012852903
,0.0014792683
,0.049316414
,0.014548261
,0.058064796
,0.049571726
,-0.06846606
,0.0082564689
,0.0099022463
,0.0048233131
,-0.0070694452
,-0.04807445
,-0.053676937
,-0.0045969239
,-0.010408503
,0.019468367
,0.056695718
,0.0052803173
,0.061845943
,0.045891929
,-0.040681195
,-0.17557311
,-0.096221767
,-0.0064274319
,-0.07849557
,0.054091226
,-0.027269442
,0.071321651
,-0.015037054
,8.9001216e-05
,-0.023109026
,-0.065369122
,0.0099841747
,-0.059337575
,-0.083541721
,-0.028526606
,0.010226629
,0.015940763
,-0.034854613
,-0.11365524
,-0.058901735
,0.06055614
,0.075458527
,0.016160745
,-0.10787337
,0.021699632
,0.093899749
,0.027088892
,-0.024729567
,0.043389522
,-0.029182116
,0.023339529
,-0.033176012
,-0.021158671
,0.043556072
,-0.013862676
,0.036992647
,-0.064808205
,0.068569846
,-0.079987749
,0.0046639103
,-0.09460979
,-0.0021007191
,-0.023236224
,0.0035547127
,-0.015064757
,0.033068005
,0.042406868
,-0.0038049554
,-0.029795857
,-0.010999705
,0.020808086
,0.047361143
,-0.0031574692
,-0.025639774
,0.024373649
,-0.034191474
,-0.026260281
,-0.02230457
,0.029559322
,0.068624929
,0.028869161
,-0.044809636
,-0.0042767352
,-0.029922359
,0.026429433
,-0.032598712
,0.021590622
,0.0016895698
,-0.032827791
,-0.004449069
,0.07404884
,0.028727653
,-0.054525219
,0.015824012
,0.067088015
,-0.031356413
,0.042760629
,-0.066266857
,-0.019551348
,-0.015270051
,-0.062057979
,-0.0460385
,-0.076344036
,-0.018687621
,0.021765266
,0.0042916671
,-0.030176451
,-0.0326854
,-0.055966195
,-0.027446909
,-0.033142857
,-0.014626475
,0.043430451
,-0.025044052
,0.0093841264
,-0.029020377
,-0.045775689
,-0.0087804971
,-0.042111818
,0.0092892274
,0.023083905
,0.034099303
,0.033154327
,-0.022902155
,-0.014776331
,-0.049219333
,-0.036243282
,0.00056954578
,-0.029642195
,-0.016359175
,-0.017107274
,0.012058711
,0.040905777
,-0.037418
,-0.0029479719
,0.020835992
,0.0020370325
,0.01325707
,-0.0043588686
,0.0072884113
,0.055402502
,-0.044199973
,-0.0016771738
,-0.070338629
,-0.03416067
,-0.055218905
,0.020027012
,-0.01592801
,0.021453151
,-0.02354552
,-0.020167248
,-0.020812104
,-0.062526189
,-0.0080511253
,0.0063396026
,0.036196459
,-0.0080344928
,0.01183953
,0.010061213
,-0.026977826
,0.049727947
,-0.035583407
,0.025785232
,-0.0085252831
,-0.014948512
,0.071721
,0.025180878
,-0.0014945534
,0.068179265
,-0.028794777
,-0.015304315
,-0.074443519
,-0.045306854
,0.011760136
,0.054275148
,-0.0072956583
,0.032403976
,-0.0061381818
,-0.010725949
,-0.00094781013
,-0.0088632125
,-0.0053136684
,0.020439969
,0.0036143267
,0.0066566612
,0.023593988
,0.0080159632
,-0.04775802
,0.0047923154
,-0.050822381
,0.022716289
,-0.032381047
,0.018470751
,0.027551437
,-0.0471959
,-0.024172155
,-0.027077153
,0.057949789
,-0.0069146063
,-0.036772776
,0.0043593519
,0.012785794
,-0.043624565
,-0.016662121
,0.0094108824
,0.05053753
,-0.048106417
,-0.014449443
,-0.010608746
,0.042843819
,0.055102237
,-0.050814372
,-0.051088385
,0.020503027
,0.028592218
,-0.031639874
,0.019363651
,0.058401935
,0.025557885
,0.055632554
,-0.047569163
,0.043714255
,-0.011717423
,-0.038683392
,0.012262767
,0.0088243494
,0.031240754
,-0.030934213
,-0.0059128846
,-0.068721823
,0.012066497
,-0.035842028
,-0.049363613
,0.077057488
,0.016110806
,-0.0402944
,-0.048978657
,0.012719019
,-0.054893807
,-0.0061497865
,-0.026006671
,0.056035969
,-0.056605186
,-0.011314477
,0.012676804
,-0.032860883
,-0.014715482
,-0.040181965
,-0.037149016
,-0.0028412673
,0.00832177
,0.026567774
,0.025035731
,-0.037340458
,0.01852447
,-0.021214722
,-0.009035782
,0.013579527
,-0.013854377
,0.016965253
,-0.0036824315
,-0.0017353452
,0.037986334
,-0.020088809
,7.243119e-05
,0.015515763
,-0.006756336
,-0.069977827
,0.089366049
,-3.4439021e-05
,0.064359196
,0.0808671
,-0.023489136
,-0.015048579
,0.029466942
,-0.036772735
,0.0050656735
,-0.01916655
,-0.053089473
,-0.032169521
,-0.016628662
,0.0046496103
,0.033854336
,-0.0034672602
,-0.0063027227
,-0.025145099
,-0.030057065
,0.013964403
,0.023094269
,-0.030360729
,0.064483747
,0.04855762
,0.012082776
,0.022937011
,-0.01831709
,-0.049628731
,0.013005885
,0.0097120022
,0.030714098
,0.0041689873
,-0.0081326962
,0.02398859
,-0.015371813
,0.034868259
,-0.053331289
,-0.061130106
,-0.013860791
,-0.043579411
,0.016683687
,-0.0027370709
,-0.034244929
,0.0012645365
,-0.018569259
,0.0092788273
,0.0099634025
,0.11456409
,0.00052182353
,0.00078735425
,-0.027785663
,-0.030814273
,-0.007435495
,-0.0055900225
,0.010777885
,0.040124923
,-0.011500768
,-0.021791838
,0.013263152
,0.067097649
,0.042466119
,-0.0067888605
,0.046750721
,-0.018934678
,0.026988253
,-0.033334222
,0.045272406
,0.062956631
,0.043923546
,0.013099323
,-0.040861342
,0.056188382
,0.047555067
,-0.023176001
,-0.062113538
,0.050554357
,0.025068808
,-0.036828045
,-0.027488561
,0.040978093
,-0.011700841
,-0.0323731
,-0.038745113
,-0.066239625
,0.020981876
,0.0099589908
,0.0055943285
,-0.027973169
,-0.044400621
,0.017336516
,0.092894226
,-0.028505083
,-0.021180438
,0.056883257
,0.0033449233
,0.047260787
,-0.0091625676
,0.048108742
,-0.060324721
,-0.070566304
,-0.029488312
,-0.0083552236
,-0.0029117924
,-0.0038194265
,0.031411704
,-0.052705824
,-0.04358729
,0.0052421172
,-0.0089969989
,-0.0015820608
,0.049578834
,0.0087830741
,-0.021100851
,-0.042451691
,-0.0043474967
,0.023642996
,-0.011161258
,-0.04242292
,-0.038193535
,0.034043796
,0.079284132
,0.013001558
,-0.012629776
,0.021901263
,-0.075611338
,-0.023644958
,0.074416675
,-0.014465414
,-0.0546542
,0.037961394
,-0.0039881342
,-0.015435307
,-0.032804392
,0.036941454
,-0.052513015
,-0.021084704
,0.045174759
,0.033674076
,0.026176298
,0.042526804
,-0.017680772
,-0.051961303
,-0.061654687
,-0.028695595
,0.013591116
,-0.038602103
,0.032504834
,-0.065459259
,0.040759064
,0.034517564
,0.05810716
,-0.032079402
,0.035459626
,-0.023798207
,0.00091995223
,0.029673692
,0.10557906
,0.020998292
,0.071572542
,-0.017190289
,-0.02245765
,-0.093144283
,0.069650136
,-0.047294069
,-0.00600647
,0.027416939
,0.042463329
,-0.020874513
,0.015253442
,-0.054464292
,0.043434244
,0.066779189
,-0.027979523
,0.00681451
,0.012785629
,-0.01742522
,0.028978916
,0.015848178
,-0.020564286
,-0.0038894548
,0.016407877
,-0.02197323
,0.012571177
,-0.0045714015
,-0.05299785
,-0.02898971
,0.020453885
,0.0037673239
,0.014611052
,0.039516866
,0.062414613
,0.026985552
,0.0518253
,-0.033741586
,0.010207596
,0.0025368228
,-0.0151807
,-0.0068041719
,0.048042089
,-0.022547876
,-0.049752604
,0.072949186
,0.011178792
,0.036849052
,-0.038240694
,0.016111232
,-0.052611914
,-0.0646019
,0.030433875
,0.004977725
,0.0018419264
,0.0075735841
,-0.040495366
,0.061246265
,-0.054629132
,-0.012246865
,0.012952727
,0.017203523
,-0.023818176
,0.024320481
,-0.0078216018
,0.0017813346
,0.0033396953
,-0.01129781
,-0.0062874374
,-0.036760766
,-0.028393289
,-0.011696439
,0.028719842
,0.14576633
,0.15640557
,-0.14115423
,-0.022870956
,-0.025694732
,-0.038024366
,-0.1312542
,-0.30181879
,-0.065469049
,0.068068355
,0.2513828
,0.020876089
,-0.049512789
,0.055225685
,0.11696997
,0.20333849
,-0.15159279
,-0.025960162
,0.10189722
,0.10770187
,0.13886195
,-0.10127419
,0.019484248
,-0.0466258
,0.12258911
,0.017948406
,0.090088449
,0.10729251
,0.00071449234
,0.026601246
,-0.0071168179
,-0.014534337
,0.083295569
,0.012708195
,-0.04282866
,0.064764515
,0.0046614017
,0.049832694
,-0.049953837
,0.10076854
,0.11055104
,0.099117383
,-0.091659591
,-0.31248844
,0.10053109
,-0.04345258
,0.067043662
,0.0873516
,0.062218584
,0.37066898
,0.055288184
,0.026140567
,-0.00025964918
,-0.098044947
,-0.045128237
,-0.28241783
,-0.10513264
,0.075453982
,0.070077516
,-0.010292168
,0.084620111
,-0.11219662
,-0.061797079
,-0.11692538
,0.023066172
,0.076645389
,-0.041442256
,0.19835693
,-0.00063415593
,-0.074624948
,0.039117519
,-0.054807764
,-0.011147902
,-0.22227477
,0.17557789
,0.11269883
,-0.097116336
,-0.04898439
,0.061805911
,-0.30463663
,-0.14286856
,0.056925248
,-0.11535159
,0.0529495
,-0.089510411
,0.19791171
,-0.018079931
,0.018962467
,-0.12594092
,0.056128863
,0.038176589
,0.021884736
,-0.030288287
,-0.01420593
,0.073556729
,0.098757714
,0.047255658
,-0.15357667
,-0.003957706
,0.042682994
,0.058553044
,-0.039308775
,0.034881033
,-0.013393474
,0.1390792
,0.0045171315
,0.34904838
,0.05410789
,-0.15219262
,-0.16164251
,-0.046856638
,0.049454652
,-0.24952433
,-0.11702587
,0.03621278
,-0.23051162
,-0.011463612
,0.036338072
,0.042778894
,0.012825303
,0.0019752854
,0.049908154
,-0.0040988876
,-0.076921821
,-0.017344
,-0.056239877
,-0.069232345
,-0.05682303
,0.065354273
,0.040800828
,0.04990102
,-0.068122886
,-0.12057294
,-0.14692128
,-0.025166733
,-0.058081616
,-0.03623363
,-0.0046845782
,-0.017131127
,0.020261286
,0.019900046
,0.03601
,-0.12446743
,0.12582803
,0.013922759
,0.12166204
,0.060786273
,-0.075889915
,-0.0014616183
,0.09921474
,0.098316394
,-0.3196694
,-0.22162922
,-0.023410693
,-0.18583335
,-0.10830119
,-0.018823357
,0.37651494
,0.110764
,-0.034482125
,0.1210753
,0.055819061
,-0.090289228
,0.2061832
,0.036621992
,-0.060135547
,-0.20912598
,-0.049771734
,0.061293408
,-0.10588396
,-0.046618853
,0.20568216
,0.0997172
,0.019024346
,-0.0064369882
,0.036961026
,-0.0994205
,0.023815898
,-0.072182216
,0.035307102
,0.16626674
,-0.06764178
,-0.080547415
,0.0659293
,0.086221769
,0.048644245
,-0.082494736
,0.31866542
,-0.000785599
,0.075324357
,0.15185973
,-0.042389058
,-0.0018384104
,-0.24604775
,-0.21256773
,0.11061481
,0.224153
,0.0031709217
,0.1089472
,-0.0697206
,0.014639146
,-0.012735186
,-0.0089819189
,0.038342882
,-0.017747613
,0.096401423
,0.0083017675
,0.011095782
,0.032210678
,0.12546173
,-0.083104514
,-0.11390666
,-0.029955106
,-0.032970019
,0.084725708
,-0.0012962727
,0.018185887
,0.095539548
,-0.12051713
,-0.10578368
,-0.055999007
,0.059400335
,0.0631575
,-0.13592604
,-0.011284532
,0.060255542
,-0.11778935
,0.0312812
,-0.0060964189
,0.23688151
,0.031839281
,-0.040202368
,0.18849312
,0.014995782
,-0.086904772
,0.10749222
,-0.043713961
,-0.016498579
,0.02879056
,-0.028163727
,0.031844117
,0.030042361
,0.11196771
,-0.081899554
,-0.17331186
,0.025077946
,0.0733798
,0.07263568
,-0.024527203
,0.028518025
,0.22033894
,0.035179269
,-0.13386279
,-0.2773594
,-0.037959
,0.095889628
,0.040733498
,-0.14470743
,0.028098714
,0.0053846408
,-0.078610204
,-0.022860629
,-0.062603451
,0.087341771
,0.049566951
,0.046278905
,-0.044458523
,0.04762397
,0.00091117312
,-0.059555542
,-0.051060103
,0.14938536
,-0.0086351689
,-0.058090962
,-0.0014418961
,0.02066049
,0.058354449
,-0.044583403
,0.15415616
,-0.065777682
,0.010529053
,0.10380049
,-0.036920827
,0.19228138
,0.056720141
,-0.080005892
,-0.12822953
,-0.021397535
,0.055982932
,0.14480904
,-0.035982221
,0.01389131
,0.21526821
,-0.18424739
,-0.12992735
,-0.036053535
,-0.096635856
,0.16118236
,-0.19837983
,-0.019220019
,-0.041599914
,0.095737562
,-0.011346832
,0.10186821
,0.24107088
,-0.020040287
,0.013459384
,-0.11180109
,-0.0064203921
,-0.016775869
,-0.0025892763
,-0.070522167
,-0.10244025
,-0.12357307
,-0.054048289
,0.050912242
,-0.012225793
,0.069565915
,-0.039235413
,0.10531907
,0.15090588
,0.035098609
,0.053238057
,-0.017985696
,0.10394305
,0.079905652
,0.0502284
,-0.076969326
,-0.14641659
,0.012746278
,-0.043813698
,0.14408056
,0.10101739
,0.03567091
,-0.028921135
,-0.052128054
,-0.032331057
,-0.18535776
,-0.13369188
,0.12855181
,0.20615344
,0.11921489
,-0.071130961
,0.1272265
,0.0048607863
,0.064068928
,-0.30385846
,-0.048606791
,0.071210712
,0.070143618
,0.00957634
,0.034860529
,-0.13981853
,-0.071875609
,0.046086848
,-0.1898914
,-0.07406044
,-0.026776921
,0.40139136
,-0.013149631
,-0.16251658
,-0.24410798
,-0.062158547
,0.078396745
,0.10639094
,-0.10706675
,-0.10604302
,-0.042179793
,-0.10949283
,0.150512
,0.010890469
,-0.038440324
,0.0668918
,0.089729846
,0.059477795
,-0.15499184
,0.12068293
,0.05650802
,-0.0014743048
,-0.027765391
,0.049770374
,-0.027455473
,-0.22235847
,-0.080340646
,-0.15717734
,0.17658652
,0.016369762
,-0.10536838
,-0.025261108
,-0.0714326
,0.028242692
,-0.0523658
,-0.08646296
,0.10695317
,-0.034340061
,-0.071032636
,0.014852853
,0.092507116
,0.052124787
,0.0034468092
,-0.11152352
,-0.057378545
,0.065566272
,0.043781295
,-0.0088271964
,-0.081125781
,-0.1067159
,-0.1228754
,0.10110478
,-0.064607561
,-0.028443521
,-0.087834015
,-0.1477533
,-0.055969428
,0.077532083
,-0.12721497
,0.032870639
,-0.14731048
,0.17009413
,0.096239142
,-0.0094899908
,-0.092397206
,0.0075888028
,-0.11345729
,-0.011447099
,0.072626673
,0.18647842
,0.070790045
,0.0096966606
,-0.030791452
,0.010071184
,0.091299117
,-0.056844536
,-0.12717082
,0.012594349
,0.086515881
,0.017275868
,-0.082316957
,-0.14204159
,-0.06631732
,-0.029385444
,0.045679156
,-0.006004686
,-0.13900787
,0.014872747
,0.045572482
,0.10406096
,0.088979274
,-0.043123778
,-0.017062102
,-0.054542456
,0.032629926
,0.045341559
,-0.056344088
,0.02741513
,-0.017813258
,0.039103348
,0.0067927749
,0.0039091627
,-0.01292609
,-0.039264698
,0.010762745
,-0.032836396
,-0.081573658
,-0.02255304
,0.017799521
,-0.037310354
,0.020218883
,0.003105521
,-0.011394327
,-0.056983709
,0.012971662
,-0.030422477
,0.029637177
,-0.0018631498
,0.0096673789
,-0.0001611659
,-0.0017595321
,-0.0027223905
,-0.040636472
,0.040299121
,-0.0539757
,-0.029797152
,-0.015228515
,-0.044538181
,0.033300772
,-0.032508135
,0.011844589
,-0.052210946
,0.017208325
,-0.0092314705
,0.0024572194
,-0.030129351
,0.033567093
,0.035498857
,-0.059300009
,-0.026693435
,-0.048934292
,-0.042102054
,0.027604442
,-0.030175647
,0.047981225
,0.046652105
,0.012589253
,0.029990844
,-0.047986317
,-0.0097417692
,-0.0056582992
,-0.042378373
,-0.028092628
,0.018373296
,0.004603886
,-0.011174987
,-0.025952827
,0.00531187
,-0.0028599282
,0.0088307709
,0.01730247
,-0.05305687
,0.032112572
,0.055964313
,0.062277336
,-0.07207378
,-0.058321439
,-0.0002874012
,-0.054162182
,-0.025431838
,0.010571847
,0.0081610456
,0.041655749
,0.022726351
,-0.040305041
,0.044340089
,-0.032904875
,0.020060996
,0.065900847
,-0.0036619718
,-0.015760263
,-0.011374088
,-0.043412529
,-0.01208664
,-0.042741433
,0.027028037
,-0.034655157
,0.0098960707
,-0.024274789
,-0.0026710939
,0.043320395
,0.022611454
,0.034479447
,-0.020667076
,-0.016845081
,0.0047217039
,-0.012863428
,-0.028465053
,0.037606698
,0.066527262
,0.010805187
,0.04682197
,-0.015623605
,0.018586297
,0.019981107
,0.029573124
,-0.0078660659
,-0.036946993
,-0.044065572
,0.017573973
,-0.0053444235
,0.023352092
,0.029356385
,-0.0081963036
,0.014661863
,-0.021797186
,-0.032108553
,0.02427065
,0.0047146608
,-0.0026003837
,-0.045560952
,-0.081264891
,0.01386422
,-0.0067172432
,0.01426266
,0.031364869
,0.036670577
,-0.0082576741
,0.0432907
,0.032939222
,0.028672216
,0.0094197905
,0.0015728337
,0.0073919115
,-0.028423361
,-0.040436339
,-0.03306454
,-0.030916339
,0.043525916
,0.014387185
,-0.010573926
,0.044449266
,0.036706466
,-0.008633418
,0.095487759
,0.058572073
,-0.0069096074
,0.074621424
,-0.0023902329
,-0.031396694
,0.012132979
,0.024395935
,0.023924913
,0.010623205
,0.019285424
,0.037650641
,-0.028741779
,0.0039348151
,-0.0040599587
,0.0070305821
,-0.021303646
,-0.041377857
,-0.032696009
,-0.027758867
,-0.0052977442
,0.022678822
,-0.0091325622
,-0.013180687
,0.042892233
,0.013756668
,0.0333272
,0.038240366
,0.039309673
,-0.037979372
,0.010220062
,0.0022492404
,-0.043106571
,0.066286348
,-0.042774703
,-0.023617683
,-0.0063505848
,-0.046461709
,0.076368071
,-0.011374315
,-0.054698907
,0.021343749
,-0.0077717174
,0.057217889
,0.040177435
,-0.029386671
,0.025456049
,-0.0066135377
,-0.036375068
,-0.0553956
,-0.017213851
,0.052172586
,0.038835153
,-0.037911888
,-0.0474049
,0.042726766
,0.014973897
,0.032348718
,-0.0050210031
,0.012064367
,0.03080075
,-0.020457255
,-0.0095358593
,0.019461179
,0.028951731
,0.031543031
,0.019274771
,-0.018056529
,0.023237983
,-0.018236903
,-0.025691807
,-0.060158603
,0.0012648548
,0.085674942
,0.027321478
,-0.01377158
,-0.016041776
,-0.0093590729
,0.020957991
,-0.017585764
,-0.066954225
,0.011301547
,-0.027622646
,-0.022172624
,-0.00059354265
,0.025202774
,0.015198348
,-0.020563884
,-0.016221913
,-0.011964272
,-0.0063616727
,-0.009209482
,-0.011512875
,-0.024063421
,0.029054744
,0.017541273
,0.02478205
,0.00045809435
,-0.058427088
,0.0049162409
,-0.0029345977
,-0.025390787
,-0.020426076
,0.042797357
,-0.050809469
,0.0054544187
,-0.014416352
,-0.050887212
,-0.0483512
,-0.027583783
,-0.016814655
,0.017380936
,-1.5566862e-05
,-0.0050489213
,0.028443342
,0.02737774
,-0.050069597
,-0.021688178
,0.0012240107
,0.030500473
,-0.018897483
,-0.051125977
,-0.0076590558
,-0.017029723
,-0.034157138
,-0.0077046305
,0.038745768
,-0.010354456
,-0.012681566
,-0.033466227
,0.00078864681
,-0.026518703
,0.018201802
,0.0022909995
,-0.01401637
,-0.015916444
,0.0048411652
,0.02136727
,-0.0019288638
,-0.0024588872
,0.012529568
,-0.037738197
,-0.013857412
,-0.022663087
,0.032272957
,0.053330023
,0.0039079874
,-0.018597661
,0.0072917561
,-0.055809189
,-0.048876844
,-0.015983723
,0.0082178162
,-0.0079153171
,0.022017904
,-0.040869877
,0.0029423304
,0.0076033808
,0.033238761
,-0.0083384132
,-0.051344816
,-0.047786675
,0.015093446
,0.023782609
,0.016544409
,-0.004749828
,0.023255097
,-0.011699136
,0.014410363
,-0.039609104
,-0.03580993
,-0.017821994
,-0.019438287
,-0.040608082
,0.018599739
,-0.028599111
,-0.0070881927
,0.050928518
,-0.025189588
,-0.0027426253
,0.014409347
,0.0095524173
,0.023666473
,0.043723322
,-0.018874841
,-0.0456398
,0.025075007
,0.010110416
,-0.0068886261
,-0.042006772
,-0.040805683
,0.071701
,-0.041226108
,-0.070225991
,-0.025309296
,0.067437142
,-0.0033062056
,0.020185998
,-0.011888339
,-0.029275162
,0.054067649
,-0.012845349
,-0.01344416
,0.02564121
,-0.028978206
,0.03056873
,-0.030909477
,0.050439812
,-0.034539066
,-0.02036676
,-0.047134917
,-0.051042207
,-0.011888034
,0.063550167
,0.039852172
,0.0056436025
,0.03340983
,-0.042374492
,0.0021384866
,-0.0058078668
,0.023378711
,-0.021873053
,0.0069066915
,-0.028729824
,0.01167358
,-0.027466204
,0.019018916
,-0.028589709
,-0.030195011
,-0.054937944
,0.030668354
,0.051535558
,0.023619423
,0.0056050629
,-0.040190466
,-0.042561911
,0.039376788
,-0.023777954
,0.034592766
,0.036373563
,0.030735884
,-0.063474387
,-0.044219926
,0.024633903
,0.047876589
,-0.032752279
,-0.043787464
,0.0040423563
,0.028413311
,0.032758463
,-0.013723291
,0.031055758
,-0.0009657382
,0.049967248
,-0.027686371
,0.041559607
,-0.014460737
,-0.02940993
,0.028569769
,-0.021365151
,-0.041019529
,0.016688978
,-0.044230368
,-0.047187924
,0.032309182
,0.02985331
,0.026511831
,0.061916925
,-0.011334128
,-0.035294797
,0.039431542
,-0.063175917
,-0.028249417
,-0.011640134
,0.0048590638
,-0.049649719
,0.017821262
,0.014262459
,0.042101134
,0.054252114
,0.00035555998
,-0.04157865
,-0.018799365
,0.027042247
,0.0023594841
,0.013166563
,-0.022706471
,0.043885745
,0.0069451109
,-0.026957419
,-0.0049190288
,-0.022460936
,0.00081721041
,-0.015109583
,-0.024954556
,-0.018481288
,0.033434439
,0.014104143
,-0.012805089
,-0.13205037
,-0.0478179
,0.052000139
,0.061763126
,0.021193545
,0.02713793
,-0.16176338
,0.033318117
,0.011533221
,-0.055331644
,-0.0029163456
,0.02253137
,-0.0095662912
,0.068238735
,-0.055681087
,-0.063176371
,0.033479076
,0.0056305504
,0.053821124
,0.020384455
,-0.031827334
,0.054785583
,-0.015286733
,0.021843763
,0.06542512
,0.0948478
,0.035916723
,0.011142134
,-0.011265227
,-0.019259399
,0.024661101
,0.075132683
,-0.00663374
,-0.077625088
,0.0035130072
,-0.020120637
,-0.0031781429
,0.097545095
,0.032003075
,-0.0040741106
,0.032593414
,-0.10418933
,-0.093130022
,0.0671982
,0.033934202
,0.016074898
,-0.053219762
,0.074745245
,-0.015890004
,0.04930101
,0.10678845
,-0.016554762
,0.05008563
,-0.008031507
,0.017634666
,0.07044223
,0.035577338
,-0.041268412
,0.051061451
,-0.069646843
,-0.038478322
,0.06821163
,0.045068182
,0.11111768
,0.07285241
,-0.14051044
,-0.053818021
,0.0074638953
,0.0074145934
,0.0061206166
,0.072483294
,-0.018065222
,0.019392783
,0.0025943136
,0.10906534
,-0.10348114
,-0.050881755
,-0.10288502
,-0.014859139
,0.13388309
,0.18645382
,-0.051068284
,-0.054467525
,0.036080677
,0.046021931
,0.0012666184
,0.075212166
,-0.047700688
,0.058284745
,0.020281516
,-0.051195432
,-0.053000133
,0.066280961
,0.036874179
,-0.049154688
,0.004601086
,0.078047849
,0.096201852
,0.0061392351
,0.062037181
,0.087826431
,0.1036991
,-0.0070599965
,0.0038533234
,-0.049126614
,-0.073600605
,-0.13348095
,0.039241541
,0.12004273
,-0.14442036
,-0.026637359
,0.0070883166
,-0.063758045
,-0.038730457
,0.011493776
,-0.05551834
,0.0088533368
,-0.044510495
,-0.050201215
,-0.0082492549
,-0.098639213
,0.17712381
,0.013494128
,0.042695638
,0.027371973
,-0.062402133
,-0.10964157
,0.08070448
,-0.020105604
,-0.020150812
,-0.027037211
,0.0019590328
,0.096367985
,0.079036392
,-0.022363689
,0.025797406
,0.0023350618
,0.014984659
,-0.094007105
,0.058481127
,0.05245449
,-0.042132549
,-0.036139365
,-0.12146151
,-0.019120069
,0.098477177
,-0.046636086
,-0.06671264
,0.066692129
,0.021169851
,-0.096772514
,0.021528099
,0.0979185
,-0.080647737
,0.071459606
,0.084039286
,-0.04243369
,0.13903627
,0.001288505
,-0.0029453451
,-0.028149048
,0.023367893
,0.032079879
,-0.023586
,-0.029222457
,0.025737276
,-0.14389969
,-0.049056578
,0.037838358
,0.044259466
,0.067983054
,-0.14715731
,0.061795004
,-0.11063655
,-0.11923362
,0.055940688
,-0.092040867
,-0.11639147
,0.030403037
,0.042968895
,-0.061962854
,0.024969576
,-0.012967058
,-0.014918079
,0.14840771
,-0.0327944
,-0.21458913
,-0.08198785
,-0.024791632
,0.011831022
,-0.067994513
,-0.037386447
,0.11729494
,-0.090604767
,-0.051655266
,0.17595719
,0.0657096
,0.019974213
,-0.032071508
,0.023747928
,0.019414019
,0.068723284
,0.047961671
,-0.090530358
,0.033953991
,-0.0049529155
,0.063976683
,-0.052890636
,0.062665813
,-0.038144894
,0.026643431
,-0.10643493
,-0.0028927459
,-0.034677487
,-0.063789569
,-0.017429601
,0.033403441
,-0.0060877507
,-0.098022796
,0.0791293
,0.049288422
,0.0032296628
,0.023393799
,0.056570679
,-0.10007554
,-0.089594737
,0.098035708
,0.0047227642
,-0.025457917
,0.079832658
,-0.029148057
,-0.19761656
,-0.073213108
,0.045885704
,-0.036657561
,-0.091869466
,-0.02419162
,-0.0010940247
,0.12346893
,-0.0017534402
,0.090775773
,-0.02576592
,-0.075816423
,0.077116661
,0.12194381
,0.056068216
,0.10953895
,-0.013728101
,0.023469431
,0.026644778
,-0.022327907
,-0.0069857705
,0.043058772
,-0.025519356
,0.061392482
,-0.011577168
,0.017871743
,-0.066506542
,0.095735975
,0.031490847
,0.0428786
,0.007034346
,-0.020097611
,-0.11066759
,0.059601195
,0.039947495
,-0.042802505
,-0.044903815
,0.078407973
,0.024921538
,-0.055714358
,0.068916075
,0.018810654
,-0.031940088
,0.062888317
,0.034383874
,-0.019574149
,0.027034219
,0.016917098
,-0.035879318
,-0.079210609
,6.744796e-05
,-0.028199835
,0.096973814
,0.02759549
,-0.068463475
,0.018112376
,-0.015921028
,-0.037103985
,-0.057153881
,0.061673407
,-0.046083957
,0.022343198
,-0.037111111
,-0.11733034
,0.072916657
,0.066564441
,-0.11901684
,-0.0065080333
,-0.10279182
,-0.017509252
,0.093034975
,0.064491116
,0.06217451
,-0.0839757
,0.083984919
,-0.013463832
,0.022513809
,-0.084847733
,-0.022048468
,0.074831992
,-0.034690131
,-0.02892682
,0.083459489
,0.14450526
,-0.084285282
,0.1274852
,-0.039253131
,-0.01632593
,0.09644565
,0.024584869
,-0.10555814
,-0.04520952
,-0.014551425
,-0.061766196
,-0.0605559
,-0.046078064
,0.013066664
,0.1009404
,0.0654934
,-0.085735552
,-0.014483471
,-0.01420585
,-0.047129024
,-0.018039443
,0.0053931
,0.015700791
,-0.0648296
,0.054716356
,0.12456477
,-0.014739273
,0.035128225
,0.19038309
,-0.016080752
,-0.0705045
,-0.13214688
,-0.03969508
,-0.048580259
,0.19325767
,0.021932149
,0.018979618
,-0.028986214
,-0.038911443
,0.062817618
,-0.04493726
,-0.078096762
,-0.055126984
,0.072861254
,-0.09214215
,-0.043388661
,0.10460897
,-0.0333226
,0.049704451
,-0.0045437729
,0.012274785
,0.089832447
,-0.027199602
,0.0026658094
,0.056602683
,0.040973492
,-0.012715394
,-0.0023304222
,-0.053754952
,0.0019924964
,-0.00077480776
,-0.12077006
,-0.00033510732
,-0.062867761
,-0.14804082
,0.077345267
,0.016761813
,0.0059385072
,-0.014240567
,-0.01411414
,-0.042310055
,-0.12507324
,0.011279174
,0.13311723
,0.008612589
,-0.022394769
,0.011988865
,0.044559844
,-0.0017914259
,0.13724703
,0.046280887
,0.031367384
,-0.068856627
,-0.030108796
,-0.024511516
,0.0041547138
,0.088074535
,-0.01778654
,-0.050283361
,0.00024681172
,0.087045796
,0.032463953
,0.0038013151
,-0.074985296
,0.079327554
,-0.03827589
,-0.054366209
,-0.057144407
,-0.058310881
,0.051571153
,-0.021915715
,-0.0030039533
,-0.10492055
,-0.073789656
,0.098739594
,-0.10998321
,0.00068261585
,0.036057305
,0.047046185
,0.05839631
,0.094973683
,-0.0037184367
,-0.10868017
,0.048115004
,-5.8090532e-06
,-0.10870456
,-0.024615442
,0.04089031
,0.013783426
,-0.018883042
,0.04037486
,-0.0030711496
,-0.039559182
,-0.095579341
,-0.024981663
,0.053581316
,0.018722637
,-0.032652229
,0.047636677
,-0.079249106
,-0.073815584
,0.023851506
,0.04629986
,-0.088006847
,-0.011456752
,0.17325413
,0.10905524
,-0.02304358
,-0.083277531
,-0.012086135
,0.034689803
,-0.0182785
,-0.29752362
,0.047897343
,0.078730471
,0.0059442339
,0.043316182
,0.045176771
,-0.093051963
,-0.036289059
,0.061789695
,-0.011582059
,-0.07697358
,-0.038455248
,0.080013007
,0.0019193576
,-0.024807487
,-0.030946428
,0.022197302
,0.037470993
,0.12357134
,-0.057277609
,-0.014260934
,-0.030712575
,0.04629286
,0.054399304
,0.040292408
,0.069028169
,0.046864904
,-0.13144799
,0.034346689
,0.10269422
,0.064340211
,0.03440306
,-0.012996083
,0.070952766
,0.026882945
,0.047951467
,-0.12652478
,0.086738721
,0.0088314386
,0.095411114
,0.0014913874
,-0.0089686122
,0.0051634386
,0.0035561207
,0.026539536
,0.089126334
,0.10031267
,0.013468754
,0.032159559
,-0.027802488
,0.040840972
,0.010013211
,-0.013698723
,-0.11391287
,0.04532145
,0.064876117
,-0.030499788
,-0.098014221
,0.097926274
,-0.0055902475
,-0.048760407
,0.12674364
,0.099822581
,-0.0040333481
,0.0655232
,0.062563911
,0.012487986
,0.058371719
,-0.0033364659
,0.16026896
,-0.021067532
,-0.0609514
,-0.332738
,0.074799024
,0.0020174556
,0.12113647
,-0.035931159
,-0.01738332
,0.020097375
,-0.037046172
,-0.0043267445
,0.00092212367
,0.0065242988
,0.073235236
,0.042021606
,0.063293733
,0.040974148
,0.049681649
,-0.096353583
,0.12890179
,0.019755755
,0.043733124
,0.054532245
,0.02163073
,0.038832076
,-0.097346708
,0.0057174019
,-0.045815129
,-0.03361005
,0.12565441
,-0.093442455
,-0.090318479
,-0.0378271
,-0.11112865
,-0.040443625
,0.02950065
,0.076423481
,0.033264022
,0.040798824
,-0.037558507
,0.033516768
,-0.031795729
,0.036649872
,-0.041085221
,0.014447618
,-0.048860885
,0.0090017132
,-0.013911458
,0.11361269
,-0.0050432468
,0.22931015
,-0.0668056
,-0.061121445
,0.16946641
,-0.0094535379
,-0.070420578
,-0.061160363
,-0.0096694231
,0.15225993
,0.15839167
,-0.047361843
,0.01290938
,-0.031045927
,-0.15783708
,-0.053539533
,-0.1068849
,-0.0439799
,0.092324905
,0.070016973
,-0.0169019
,0.095806494
,-0.16357218
,0.0076163169
,-0.010510193
,-0.24834391
,0.14320262
,0.066790804
,0.13440423
,0.0024034351
,-0.051757731
,-0.016212149
,-0.098269604
,-0.043029904
,-0.12460402
,0.051885467
,0.084802411
,0.0091946088
,-0.11197551
,0.036329
,-0.058856472
,-0.064785384
,0.023128305
,0.062364351
,-0.069757693
,0.075576119
,0.2045477
,0.046760835
,-0.021001758
,-0.131641
,-0.081500933
,-0.037872214
,-0.16113953
,0.070625611
,0.092392892
,0.11092573
,-0.017847301
,0.029837541
,-0.15228191
,-0.053682275
,-0.024143612
,-0.19324316
,-0.13702141
,-0.037263189
,-0.044865943
,-0.071795918
,-0.021800593
,-0.02328171
,0.092707023
,0.053287584
,0.20466317
,-0.078647174
,0.014326692
,-0.041699294
,0.047884446
,0.10278688
,0.027968559
,-0.021615125
,0.17267291
,0.16391855
,0.015969252
,-0.021734146
,0.1124223
,-0.030602777
,-0.015818983
,0.04215591
,-0.090320267
,0.028521443
,-0.0745531
,0.096769206
,-0.03165685
,-0.021704135
,-0.021517754
,0.06714794
,-0.044009246
,0.063344695
,0.11931555
,0.057224154
,0.13274564
,0.2406543
,0.21382937
,-0.0053413124
,-0.087615937
,-0.01603012
,0.029242458
,0.021242332
,-0.21475129
,-0.040467009
,-0.019734198
,0.011884868
,0.052820105
,0.00254395
,0.038910508
,0.079715408
,0.094627991
,0.020352567
,-0.05631626
,0.015175634
,-0.04028092
,-0.15450121
,0.02212565
,0.12211777
,0.026463108
,-0.071265467
,0.010427419
,-0.073521264
,-0.018912718
,-0.0827429
,-0.10414916
,0.0066026519
,0.083809271
,0.0012887242
,-0.046561666
,0.016810719
,0.0066910619
,-0.00064475165
,0.071607567
,0.020415904
,0.02777222
,0.025379946
,0.076487064
,-0.0228678
,-0.034893587
,0.06868948
,0.087216847
,0.11502309
,0.06194821
,-0.062016279
,-0.13809747
,0.058252733
,0.0259335
,-0.078021407
,-0.0185674
,0.084648415
,0.084256329
,0.17362249
,0.010353584
,-0.06061573
,0.050303642
,-0.11614913
,-0.13833953
,-0.047444284
,-0.0041943779
,0.11913046
,0.043999713
,-0.066295885
,-0.062029902
,0.063910447
,-0.088911042
,-0.27141833
,0.032414939
,0.061250187
,0.085434042
,0.068835542
,-0.023519885
,0.051842753
,0.0010708534
,-0.013724566
,-0.026510278
,0.050534446
,-0.061713256
,0.028924078
,0.043355007
,-0.10568014
,-0.040626418
,-0.076159239
,-0.0067182556
,-0.11385127
,-0.027505735
,0.090364233
,0.086569369
,0.081802383
,-0.049741786
,0.06178464
,-0.011254916
,-0.017362595
,-0.11095501
,-0.1244604
,0.056354713
,0.087550193
,0.022736339
,0.043799605
,-0.12231441
,0.0094756382
,0.038043626
,-0.035420388
,-0.039492141
,0.12522134
,0.044906918
,-0.027342159
,0.062520109
,-0.083352946
,0.016526418
,-0.023312034
,0.058678482
,0.0011754954
,0.0019039467
,-0.095016249
,0.03342681
,0.010611393
,-0.022405136
,0.06997408
,-0.049151469
,0.24206933
,-0.0385101
,0.039550602
,0.052206725
,0.028560063
,-0.040944446
,0.06461215
,-0.052417241
,-0.052610625
,-0.044165786
,-0.072535634
,-0.092365839
,-0.080890827
,-0.073119536
,-0.073394284
,-0.0051443968
,0.11793865
,-0.1026849
,-0.040718541
,-0.043209668
,0.060036581
,0.041641887
,-0.043078624
,-0.0037451591
,0.0061540646
,0.032597672
,-0.0518502
,-0.19971655
,0.14194213
,0.19007124
,0.19915219
,-0.034469426
,0.014811364
,-0.0047586397
,-0.052333336
,-0.034869507
,-0.28079122
,-0.024108987
,-0.097941034
,0.021232797
,-0.010372006
,0.0018138061
,-0.011665788
,0.025887338
,0.019932579
,0.22027975
,0.011448163
,-0.0247307
,0.10678376
,0.036144327
,0.054661345
,0.02679429
,0.030262461
,-0.024490496
,-0.012206303
,-0.0081087109
,0.013923804
,-0.050710481
,-0.048783947
,-0.0214124
,0.047106754
,-0.026920216
,0.027285144
,-0.11182629
,0.077208795
,-0.049832206
,-0.035973329
,-0.082415804
,-0.10231071
,-0.18641055
,0.048361976
,0.069962114
,-0.066619433
,0.054598544
,0.120998
,0.061295174
,-0.011256082
,-0.043985203
,-0.013813103
,0.02259353
,-0.065982193
,-0.19898178
,-0.059989471
,0.041707318
,0.028708406
,-0.039996825
,-0.0045294403
,0.04225703
,0.078990415
,-0.052944731
,-0.21120042
,0.079989113
,-0.04604163
,-0.057568226
,0.007783758
,0.034062728
,-0.099992551
,-0.0559808
,-0.036612276
,-0.085390516
,-0.00838393
,0.051252931
,-0.0018646143
,-0.006336933
,-0.019982096
,-0.095987767
,0.002991782
,-0.037864745
,-0.031812895
,-0.092604719
,0.058208868
,-0.080308966
,-0.018346293
,0.13070752
,-0.10149065
,0.21324067
,0.060079228
,0.099048428
,-0.054224659
,-0.1028366
,-0.015950147
,0.01916082
,0.040826906
,-0.0014351645
,0.037274912
,0.036013719
,-0.016493743
,-0.013099412
,0.0056545637
,-0.034721885
,-0.065649614
,0.013976823
,-0.051428288
,0.0035124251
,0.039629087
,0.00043661243
,-0.061915733
,0.0012698123
,-0.021627128
,-0.087399289
,-0.014321476
,-0.077103496
,0.017594883
,0.09270969
,-0.04427759
,-0.16738139
,-0.045349624
,0.043894067
,0.046245884
,0.00069252861
,-0.017362546
,0.066967927
,0.03107604
,0.11347662
,-0.063899763
,0.0058604246
,0.016801603
,0.016913092
,0.047073819
,-0.050178703
,0.00092824927
,-0.028092284
,-0.012396931
,-0.01219259
,-0.037106741
,-0.045050055
,0.052394785
,-0.054750007
,-0.0014099492
,0.044757623
,0.036631729
,0.051876228
,-0.0017684664
,0.1008081
,0.042293165
,-0.054033577
,-0.019561434
,-0.033694904
,-0.035701886
,-0.040241614
,-0.022725094
,-0.0020602318
,0.037943102
,0.049419656
,-0.0536045
,0.035679661
,-0.024917705
,-0.0066441526
,0.077289723
,-0.022521311
,-0.05049919
,-0.015115337
,-0.032919023
,0.02826602
,-0.021791717
,-0.028196458
,0.024132507
,-0.018202374
,-0.029338397
,-0.049550019
,0.088974021
,0.057316072
,-0.0022186635
,-0.058666218
,-0.064671323
,-0.03672678
,-0.004903744
,0.0074451067
,0.17972656
,-0.037012778
,-0.064336233
,0.11142909
,-0.032955594
,-0.046108961
,-0.13310051
,-0.12753084
,-0.043544427
,-0.054707009
,-0.027542049
,0.011068121
,0.035603575
,0.063676424
,0.035212863
,-0.10358934
,0.044725113
,0.05271975
,-0.014028675
,-0.044648372
,0.13136709
,-0.064857513
,0.047168892
,0.10069615
,-0.05851445
,-0.04802515
,0.015278558
,-0.024495972
,-0.044745091
,0.091378935
,-0.0691609
,0.10200676
,0.067038193
,0.028422415
,-0.012427384
,-0.050924931
,-0.012721556
,0.018774748
,-0.025545672
,0.048716139
,0.021584312
,-0.033154994
,0.19297308
,0.11206174
,0.059097547
,-0.13845834
,0.023368955
,0.096026972
,-0.1474919
,-0.034292635
,0.061306555
,0.054427996
,0.068914294
,0.038151018
,0.040468127
,0.017027935
,0.0027671475
,0.010488135
,-0.006545553
,0.01585215
,0.048658427
,0.028634196
,0.050481349
,-0.004394928
,-0.005782153
,-0.01335744
,-0.0025383108
,0.071416043
,-0.047314215
,-0.024840526
,-0.0026980194
,-0.023674961
,-0.00937938
,-0.0080914013
,-0.051196598
,0.0042349258
,-0.049866606
,0.0017773913
,0.1512005
,0.0041135703
,0.009473457
,0.12378859
,-0.013034801
,-0.062138878
,0.077792265
,-0.040364888
,0.023844384
,-0.11342023
,-0.099034071
,0.035443306
,0.074905343
,0.021676652
,-0.078027382
,-0.028221557
,-0.065324552
,0.0043898937
,0.051507961
,0.035503868
,-0.043080166
,-0.0050557293
,0.012058974
,-0.028898548
,0.027145613
,-0.02341382
,0.035684992
,0.010932024
,-0.022270992
,0.0081178881
,0.016587617
,0.027803881
,-0.021047415
,0.073185556
,-0.023715327
,0.034017649
,0.017746391
,-0.012437943
,0.0043171053
,0.0039602546
,0.063688189
,-0.0585728
,-0.13318151
,-0.11296838
,-0.0083682267
,0.043411277
,0.0089716529
,-0.027797166
,0.049387377
,-0.0043888241
,0.0056417855
,0.045610111
,-0.043612171
,0.034392435
,-0.070214428
,0.0029349742
,-0.038590051
,-0.035765637
,-0.031419896
,0.02811354
,-0.0061848746
,-0.019665662
,-8.0127611e-06
,0.036633059
,-0.002520158
,-0.0788683
,0.054736618
,0.045028053
,-0.02503507
,0.05159492
,-0.02325283
,-0.0068192086
,0.021966161
,-0.061241996
,0.01745183
,0.069908768
,-0.00474883
,-0.011624241
,-0.065853357
,0.045382991
,-0.05916664
,0.014906292
,-0.038701024
,0.038360719
,-0.097849786
,0.0061389138
,-0.090071753
,-0.018058648
,-0.046709921
,0.02649058
,-0.014932315
,0.095165059
,-0.028136395
,0.022203604
,0.016675653
,-0.007352801
,-0.027556855
,-0.052617066
,-0.010743849
,0.01767122
,0.022597697
,0.047819156
,-0.030445212
,-0.038052157
,-0.066588521
,-0.12259416
,-0.051634934
,-0.036995385
,-0.0061654719
,-0.018398451
,-0.053831119
,-0.042140208
,0.01899799
,0.03919854
,0.026940551
,-0.018002419
,-0.044667736
,-0.019471077
,0.0073100976
,-0.0043786317
,0.075108267
,-0.0019422407
,0.064129069
,-0.037039462
,0.059306882
,-0.029972479
,-0.023225455
,-0.031496163
,-0.042392969
,0.00049025944
,-0.031528115
,0.051343806
,-0.053110577
,0.0094328849
,-0.033657007
,0.047996927
,0.082827725
,-0.038988933
,-0.0084191337
,0.076649062
,-0.0036602251
,0.074699238
,-0.021379692
,-0.048808951
,-0.060600162
,-0.037827048
,-0.062701717
,0.053078435
,-0.021259746
,0.012518452
,0.036893871
,-0.030081162
,-0.034825463
,-0.090089738
,-0.0061182482
,0.063927673
,0.12734377
,0.013783956
,-0.058392648
,0.078545235
,-0.050612863
,-0.013008845
,-0.20435008
,-0.082658686
,0.0708452
,0.083042569
,0.00039514207
,0.034398846
,0.017793864
,0.010498089
,-0.0078226179
,-0.045525044
,0.0085933292
,-0.021338552
,0.1732419
,0.018851772
,-0.026821155
,0.025056215
,-0.036352403
,0.083565645
,-0.07319577
,-0.078608938
,0.052154824
,-0.010762896
,0.0086811334
,-0.04812495
,-0.038551211
,-0.09391804
,-0.012723439
,0.019626742
,0.029242052
,-0.0067718723
,0.074053876
,-0.015666898
,-0.0947073
,0.032067087
,-0.039397907
,-0.029907914
,-0.055235177
,-0.038680889
,-0.11049423
,0.087112
,0.051763818
,0.11546689
,0.088348
,-0.024991732
,0.038669936
,-0.19832802
,0.021633998
,0.094995975
,-0.015306513
,-0.064016081
,-0.014107393
,0.060032837
,-0.046566986
,-0.031950917
,-0.023804517
,-0.020648038
,0.044795115
,0.01885899
,0.014284014
,-0.039082341
,0.016329631
,-0.015900472
,0.10074994
,0.023056326
,-0.0870988
,-0.062868021
,0.0026559657
,-0.040992189
,0.00661845
,-0.038681906
,0.04062064
,-0.040656552
,0.006097822
,0.060685623
,-0.025739821
,-0.042442348
,0.012531237
,-0.06327337
,0.015490079
,-0.059968021
,-0.0073706838
,0.016170768
,0.038563143
,-0.0056366576
,0.075304016
,-0.0065583829
,0.025957618
,-0.055728983
,0.025249017
,0.065071657
,-0.056559078
,-0.053425152
,-0.01218905
,-0.054431014
,-0.044347033
,-0.10053047
,0.085338153
,0.01700142
,0.039028179
,0.088561423
,-0.042066447
,-0.029785
,-0.0091970582
,0.019276323
,-0.016097721
,-0.0048470628
,-0.012792406
,0.041170914
,-0.041876361
,-0.013411804
,0.034017041
,0.0058034505
,0.0077675674
,0.01429693
,-0.038722545
,-0.038990624
,0.055032033
,0.017101482
,0.066968195
,-0.064458042
,-0.015431462
,-0.047668561
,0.030747835
,-0.035216618
,0.020386271
,0.00060246326
,-0.017364761
,0.013835138
,-0.044945784
,0.020403573
,-0.0062585957
,-0.040263068
,-0.022294661
,0.020994013
,-0.017736297
,0.011790046
,0.038532663
,0.030278191
,-0.011273558
,-0.02979037
,-0.017227454
,-0.021866456
,-0.036331568
,-0.055727988
,-0.019629208
,0.040264439
,0.0079557095
,0.0034665798
,-0.038632538
,0.03369835
,-0.016744368
,-0.040859621
,-0.0097572226
,-0.0023431664
,-0.043508638
,-0.049907602
,0.0098702768
,0.0013254893
,-0.02581862
,0.011096075
,-0.026765967
,-0.038859468
,-0.018581096
,-0.014722556
,-0.028512798
,0.0061786142
,0.022312587
,0.043298766
,0.03271836
,-0.038069218
,-0.0062846644
,0.062274326
,-0.016608967
,0.026239114
,-0.048300769
,-0.036414366
,-0.016617464
,0.059909582
,0.042587917
,-0.041033953
,0.034190726
,-0.070849657
,0.051682591
,0.016438058
,-0.024078071
,-0.027236996
,0.021550514
,0.010747404
,-0.0025571045
,-0.041089643
,0.0070283995
,0.036433581
,-0.05116621
,0.017610356
,0.018752346
,-0.049958736
,-0.017506592
,-0.0079933247
,-0.0049710996
,-0.025876945
,-0.052250657
,0.040481687
,-0.017408978
,-0.020226922
,-0.031884
,-0.017409157
,0.022900654
,0.039035548
,-0.0088318111
,-0.031455439
,-0.023141835
,0.027894672
,-0.032388173
,-0.020941442
,-0.035458229
,-0.023696082
,0.026022667
,0.010309494
,-0.046273272
,-0.015054566
,-0.046422724
,0.023600409
,0.0020364432
,-0.0092927329
,-0.007624615
,0.0040313895
,-0.019200172
,-0.051465649
,-0.023571566
,-0.047190621
,-0.0054202075
,-0.028261121
,-0.01590837
,-0.021941978
,-0.038920317
,-0.031846557
,-0.039408885
,0.022046825
,-0.032184165
,-0.011366059
,0.038952332
,0.037150107
,-0.029147798
,-0.046623375
,0.011428495
,-0.021810476
,-0.021192608
,0.042282242
,0.019122271
,0.024434609
,0.026583387
,0.027351884
,0.00643847
,0.033276584
,0.022882737
,0.022031661
,-0.012681614
,0.028596343
,-0.00027918091
,-0.037859406
,0.044545036
,0.029315043
,-0.0082628476
,-0.045596689
,-0.044936024
,-0.029937051
,0.0032791123
,-0.013722576
,0.024210362
,0.014583083
,-0.036314689
,0.0091597931
,-0.014976113
,0.037767965
,-0.032369643
,0.01942279
,-0.042477511
,-0.048547816
,0.019015089
,0.028128982
,-0.011819776
,-0.014936495
,0.010573245
,-0.051394947
,-0.024971336
,-0.021388453
,-0.0027342741
,0.020556387
,-0.015236802
,0.044701807
,-0.0055216257
,-0.02034756
,0.034179643
,-0.0048048184
,-0.011682133
,-0.0035086807
,-0.046521865
,-0.0044518234
,-0.055389225
,-0.018325333
,-0.030100882
,0.046102367
,0.040145874
,0.031498175
,0.023527972
,0.051143654
,-0.039478835
,-0.022813329
,-0.044258803
,0.00084994745
,-0.0433301
,0.016641056
,-0.041230883
,-0.011941798
,0.019225314
,0.032691952
,-0.0026145896
,0.015733574
,-0.044622444
,0.018770399
,0.035417881
,-0.025862105
,-0.028199894
,-0.010612964
,0.0024779646
,-0.010416879
,0.0002654712
,0.023670685
,-0.037024848
,-0.024278147
,-0.047165647
,0.018553345
,-0.0064274496
,0.035772629
,-0.00798042
,-0.054831911
,-0.016434658
,0.0028029175
,-0.01238676
,-0.0040240786
,0.0093649458
,0.050989911
,0.028671086
,0.0061186319
,0.011858797
,0.011470059
,0.029689251
,0.03199226
,0.040661234
,0.030964566
,0.025272515
,0.0028937636
,-0.02548328
,-0.033202268
,-8.4805564e-05
,0.0029698219
,0.0059104315
,0.023123983
,-0.010275698
,0.021903167
,0.039547127
,-0.030570308
,-0.019349856
,-0.02600071
,-0.009144987
,-0.021865809
,-0.0514812
,0.0023481473
,-0.017777009
,-0.048891123
,0.026160035
,-0.0072269714
,-0.035183258
,0.021267602
,0.010669922
,-0.066373043
,-0.035900831
,-0.003561751
,-0.028932588
,0.052352235
,0.02359019
,-0.012174041
,-0.00031699086
,0.033316016
,-0.036321677
,0.0032909657
,-0.027801
,-0.055841945
,0.040823553
,0.020422472
,0.029041573
,0.04444997
,-0.027193442
,0.013315626
,-0.0037334545
,0.027865635
,0.0014174669
,0.050456274
,0.022138691
,-0.011793672
,-0.059575483
,-0.0089614214
,0.010405354
,0.03338892
,0.032577135
,0.036827575
,0.02981158
,0.0065043312
,-0.0486707
,0.028446751
,-0.0122534
,-0.028237632
,-0.030377734
,1.2799231e-05
,0.0076618516
,0.043212228
,0.043770127
,-0.039659902
,0.040165365
,0.026026862
,0.0021200592
,-0.00096251338
,0.011024603
,0.040662386
,0.060752451
,0.0028794245
,-0.029700311
,-0.0471501
,5.9277609e-05
,0.0096831955
,0.020563649
,0.0075588138
,0.033515122
,0.0014767754
,0.0013442424
,0.038227614
,0.0038977682
,-0.032729466
,0.039059691
,0.050074875
,0.02161552
,0.0051107369
,-0.053291276
,-0.0045286031
,0.0065573244
,-0.02118478
,0.022514358
,0.042949721
,0.0067353593
,0.042484071
,0.0090958076
,-0.043260623
,-0.0067498786
,0.016366675
,0.033958316
,-0.040955052
,-0.0067019826
,0.0023193927
,-0.036313284
,-0.0396724
,-0.012217986
,-0.024607796
,-0.014392044
,0.044442538
,0.006129073
,0.037763994
,0.055060614
,0.030236622
,0.032038949
,-0.059483748
,0.044552013
,0.046180293
,0.033863571
,-0.038861144
,-0.0070650047
,0.020301919
,-0.017651822
,-0.022369636
,0.01043648
,-0.029693734
,-0.016049542
,-0.04236627
,-0.0060871397
,-0.0034248435
,-0.0006388654
,0.02841912
,-0.037442654
,-0.024583796
,0.051870979
,0.0084977746
,0.032682847
,-0.028478501
,0.016446425
,0.075416461
,0.0099574
,-0.028881766
,-0.056353703
,-0.018783523
,-0.019336212
,0.013018123
,0.03689811
,0.01726055
,0.034981143
,0.044124529
,-0.040655117
,-0.019322257
,-0.018892922
,-0.036579579
,-0.0034647973
,-0.012893044
,0.024540398
,-0.045329478
,0.024233278
,0.032553293
,0.062367104
,0.015746087
,-0.00616609
,-0.045707669
,-0.012519998
,0.022183482
,-0.049950805
,-0.014093138
,-0.027078278
,0.018919928
,0.023436928
,-0.023413572
,0.043911368
,-0.014119549
,-0.04191133
,-0.026497671
,0.036198866
,0.05573744
,-0.026757412
,-0.0021595508
,0.031176506
,-0.031687025
,0.026273873
,-0.017163623
,-0.00398321
,0.044173982
,-0.0085332654
,-0.026191983
,0.039775051
,0.047960427
,0.012353582
,0.052507263
,0.017417582
,-0.037175309
,0.031562515
,0.039982297
,0.042980045
,0.026286902
,-0.017594041
,0.041950729
,-0.053145751
,-0.0048621758
,-0.047690246
,0.0012385588
,0.086063325
,0.050096259
,-0.046709951
,-0.073851995
,0.018873783
,-0.071147911
,-0.057196163
,0.032143306
,-0.0028296688
,0.088905439
,0.015383365
,0.17223848
,-0.03985209
,0.014340764
,-0.025832318
,-0.058583044
,0.036921937
,-0.046303146
,0.039755166
,-0.023606094
,-0.0036480229
,0.024632404
,-0.015900029
,0.01348285
,-0.037063193
,-0.02018817
,-0.064460941
,0.038349472
,-0.004130559
,0.021706078
,-0.00785953
,-0.012874765
,0.025266526
,-0.035524298
,0.0031053054
,-0.0077473354
,0.012596906
,-0.049706411
,-0.025612781
,-0.0496563
,-0.02262488
,0.0053204722
,-0.066085689
,0.011711468
,-0.010955386
,-0.12898351
,0.012037392
,-0.021239003
,0.03641206
,0.019723609
,0.0848656
,-0.011966354
,0.037408564
,-0.044914152
,0.04714654
,-0.024178712
,-0.0055544
,-0.027644413
,-0.016229903
,0.01925547
,0.078853019
,0.033127472
,-0.011195172
,-0.044863235
,-0.0452233
,-0.022738868
,0.11201905
,0.070261918
,0.073759042
,-0.0051304437
,-0.025854779
,-0.027988125
,0.01033798
,-0.011143481
,-0.0858895
,0.042444777
,0.0075591141
,0.014364753
,-0.081679657
,-0.053525805
,0.062089626
,-0.11437676
,0.096752614
,0.022109555
,-0.012889308
,0.024208093
,-0.047230158
,0.00071901793
,0.038692411
,0.048142981
,0.0050846464
,0.0089814151
,0.044206869
,0.01006637
,0.027913334
,0.040293492
,-0.016545575
,0.013217193
,-0.015262968
,-0.03536272
,0.037156336
,0.054023739
,0.027861373
,-0.03865904
,-0.028129749
,0.095510826
,-0.010500251
,0.032627977
,-0.048030861
,-0.0650717
,-0.055275176
,-0.0553659
,-0.00052066357
,-0.040370233
,-0.070321754
,-0.011841352
,0.032098979
,-0.026009476
,-0.023369357
,0.02052699
,0.029189039
,0.014355033
,0.069050789
,0.023274008
,0.11003765
,-0.00042272054
,-0.056798521
,-0.0987049
,-0.079106614
,0.053178538
,0.0099829063
,-0.0045096278
,0.010512659
,0.020342929
,0.03209753
,-0.031324442
,0.073518157
,0.035177283
,-0.036803219
,-0.033933364
,-0.045962635
,-0.043986972
,0.011399223
,-0.053307161
,0.088722885
,0.0923182
,0.10417896
,0.094669841
,0.064639293
,-0.00327495
,-0.023632307
,0.012472278
,0.0080642775
,-0.073035635
,0.016790098
,0.052388936
,-0.045354825
,0.028874984
,-0.027036997
,0.065245286
,-0.033411205
,-0.011326314
,-0.019455055
,0.041837446
,0.010423683
,-0.0030079924
,0.0053421636
,-0.0059868982
,0.0027168398
,0.0410737
,0.0069605326
,0.10154833
,0.05464673
,-0.053637557
,0.040587664
,0.087597288
,-0.0071879094
,-0.02805274
,-0.09372893
,-0.046518549
,0.024450399
,0.086802244
,0.024737144
,-0.0330048
,-0.025578665
,-0.048830308
,0.027497372
,-0.076145381
,0.028887261
,-0.031085396
,-0.088914692
,-0.018302038
,0.027124505
,-0.044036016
,0.04808994
,-0.0084714256
,0.036072128
,0.054088362
,0.049573209
,0.024216603
,-0.054550592
,0.0081530567
,-0.007732918
,0.009986097
,-0.036897693
,0.011240909
,0.0094572185
,0.050061107
,-0.023004409
,-0.015683958
,0.032970067
,-0.01004482
,-0.03783216
,0.035109632
,0.062117897
,-0.0027540578
,-6.5265522e-05
,0.012628254
,0.050682664
,-0.050661594
,0.089111477
,-0.070556566
,-0.011431997
,-0.11395013
,-0.059555221
,0.054114975
,0.037066024
,-0.020339515
,-0.024311671
,0.01941766
,-0.0085696829
,0.0086429641
,0.026683848
,0.010956777
,0.0058431108
,0.030699775
,0.021200631
,-0.040319405
,0.049140811
,0.0050938916
,-0.0022728501
,-0.032071386
,-0.0021327224
,0.019377336
,-0.028803717
,0.018380811
,0.063627347
,0.0066325264
,0.0037958617
,0.018240564
,0.065630734
,0.036490366
,0.031346865
,-0.026758639
,0.065426908
,-0.030141225
,-0.020552887
,-0.027015572
,-0.042231172
,0.011477758
