w_t _weights_conv1[500] = {
0.13209051
,-1.2394905
,-0.53683633
,-0.38200939
,-0.44003254
,0.55423462
,-1.4244162
,-0.45823377
,-0.11037087
,0.0986952
,0.38438934
,-0.8587324
,-0.059075464
,0.066472933
,0.39895034
,0.12585419
,0.083926082
,0.04977797
,0.14351881
,0.58468932
,0.48719215
,0.14329913
,0.1980399
,0.016080298
,0.13779767
,0.41017973
,-0.81789774
,-0.54265314
,0.22445124
,0.30439913
,0.46504575
,0.1890227
,0.16643558
,0.062419258
,0.18365146
,0.07796663
,0.23228522
,0.039738525
,-0.033781145
,0.24436259
,-0.49163842
,-1.3551722
,-0.1006317
,-0.15342124
,-0.062553734
,-0.5821299
,-1.0385454
,0.48991194
,0.28544617
,0.58760774
,0.037584808
,0.053676687
,0.43434826
,0.66221189
,0.076431431
,-1.0756296
,-1.0780923
,0.33695948
,0.49257451
,-0.30729413
,-0.88773751
,-0.75749981
,0.11257393
,0.23187049
,-0.73828059
,0.59250927
,0.47161517
,0.58610964
,0.039418884
,-0.80749428
,0.29057807
,-0.22353415
,0.10268675
,0.23471785
,-0.49754098
,0.22642246
,0.33865425
,0.32238743
,-0.1085013
,-0.58788717
,0.32540226
,0.60504705
,0.44711855
,-0.498758
,-0.08888083
,0.1236415
,0.0035011612
,-0.73934287
,-0.0035913854
,0.051948365
,-0.22678947
,-0.24560808
,-1.5152668
,-0.47365028
,0.0075052534
,0.2440895
,0.1872856
,-0.037031233
,0.086614504
,0.35080338
,0.10959662
,0.62165272
,0.44507915
,0.52724814
,0.65607566
,-0.17037892
,-0.96275055
,-0.43631244
,-0.2097124
,-0.42261752
,-0.13616994
,-0.81972444
,-0.795461
,-0.66711611
,-0.49102274
,0.32910013
,0.76629877
,0.77005941
,-0.20388478
,-0.40249777
,-0.17489929
,-0.22668695
,0.040064529
,0.61728823
,-0.22969207
,0.14791922
,0.69782746
,-0.75034672
,-0.88782495
,-1.1468692
,0.35412073
,0.51120931
,-0.10057291
,-1.0857885
,-1.0786541
,-0.14912066
,0.18439852
,0.23579611
,0.19956997
,-0.28261286
,0.33511698
,0.13094285
,0.62548941
,0.059230343
,0.24884245
,0.52247173
,0.031044634
,0.17166354
,-0.044222228
,-0.10958222
,-0.56045753
,-0.61942714
,0.64842683
,0.35789827
,0.39270896
,0.3753216
,-0.14960447
,-0.99461806
,-0.76809049
,0.30377492
,0.22717962
,0.64927256
,-1.2105438
,-1.466325
,0.35894263
,0.19879511
,0.15496305
,0.39796102
,0.17167722
,-0.51231188
,0.39245829
,0.28732768
,0.095639162
,0.32131165
,-0.040361103
,0.34426758
,-0.31936473
,0.40152559
,0.71709174
,0.81004888
,0.53645724
,-1.1443845
,-0.082632974
,0.64752126
,0.10318299
,0.20253289
,-0.14152454
,-0.10220795
,-0.44812429
,-0.74689138
,0.55422068
,-0.3602128
,-0.35647011
,-1.7267063
,-1.4629496
,0.33168635
,0.32488856
,-0.23766993
,-0.2373393
,0.044155311
,0.29396373
,0.44425279
,0.49820936
,0.48033687
,0.79512584
,0.36263368
,0.45873493
,-0.32828742
,-0.22449856
,-0.27325061
,-0.046025191
,0.051486563
,-0.94579053
,-1.4959483
,-1.4499724
,-0.11398228
,0.71983016
,-0.14848608
,-0.86953074
,-0.051423732
,0.52113545
,-0.23405308
,-0.28377113
,-0.19848341
,0.31174168
,-1.1366569
,-0.25136715
,-0.4434889
,-0.3455278
,-0.58189428
,-0.59473008
,0.25884664
,0.48423234
,0.22524032
,-0.63485491
,0.14762436
,0.554427
,0.21246305
,0.18926743
,-0.30932373
,0.43044803
,0.58720493
,0.084628269
,-0.08918906
,-0.49123609
,0.29650041
,0.071661241
,0.2962881
,0.34668353
,-0.092367828
,0.6142143
,0.75345093
,0.21532826
,-0.70797473
,-0.87797552
,0.44402876
,0.9568212
,0.58171
,-0.70587432
,-0.58013964
,0.25284946
,0.37025723
,0.25455242
,0.085486576
,-0.20359516
,-0.024007997
,0.11205745
,0.22158533
,-0.9598465
,-1.0481954
,-0.051532473
,0.52631289
,-0.29784432
,-0.8177318
,-0.80590141
,0.22348237
,0.50101173
,-0.54560351
,-0.2871142
,-0.53899449
,-0.22605152
,-0.10353234
,-0.33062571
,-1.0240637
,-0.37209788
,0.39367995
,-0.19223
,-0.37309089
,0.36096692
,0.37181869
,0.25001058
,-0.34751543
,0.2743181
,0.63454467
,0.64163524
,-0.13621312
,-0.3671242
,0.11050841
,0.24570052
,0.26777217
,0.24007365
,0.45577145
,0.12417793
,-0.10879361
,0.2047098
,0.22843051
,0.46557385
,0.37726319
,0.54041654
,-0.20313849
,0.52910894
,0.51055545
,0.1141137
,-0.10721721
,-0.62232184
,-0.19371587
,-0.12037393
,-0.29243529
,-1.5862448
,-1.344774
,-0.31026733
,-0.62126523
,0.42966861
,-0.12299684
,-0.010486527
,0.52890992
,-0.37913013
,0.28183746
,-0.24558249
,-0.57119024
,-0.61121708
,-1.3124237
,0.12759012
,0.1886296
,-0.021858338
,-0.51488107
,-1.5272038
,0.19155149
,0.28736544
,0.46087107
,0.30392829
,0.0036560753
,0.21594173
,0.24123879
,-0.21985976
,0.49687377
,0.30305186
,-0.26714206
,0.0065946644
,0.49503309
,0.24974778
,-0.63644272
,-1.3376569
,-1.1625423
,-0.020377474
,-0.36188766
,-0.61243266
,-0.4459323
,-0.52773255
,-0.062895313
,0.12453645
,0.11379986
,-0.031594258
,0.11993489
,0.53936046
,0.30944085
,0.69202274
,0.448147
,0.16084206
,0.33650362
,-0.17292522
,0.20383841
,0.2818552
,-0.041493978
,0.12515453
,-0.84675622
,-0.79939085
,0.12363976
,-0.80651879
,-0.51625353
,0.007249862
,-0.24288948
,-0.4085786
,-0.53948945
,-0.96473283
,0.032941323
,0.32393304
,0.17645796
,0.096570395
,-0.57020783
,0.19012761
,0.80510515
,0.46183503
,0.48572117
,0.65623993
,0.06359449
,0.057799693
,0.19459376
,0.38981614
,-0.18505184
,0.039290745
,0.4408524
,0.31896752
,-0.032396756
,-0.067421913
,-0.11524393
,0.42224312
,-0.87721848
,-0.93971181
,-0.433452
,0.16323581
,0.73421806
,-0.634994
,-0.518172
,0.23879009
,0.4373323
,0.63513178
,-0.6530031
,-0.316871
,0.27603921
,-0.0595692
,0.60862356
,0.036584254
,-0.49428931
,-0.0014782143
,0.0031178934
,0.22944552
,-0.27346623
,-1.0296925
,-1.2184802
,-0.074612223
,0.12955572
,0.088415563
,-0.69001734
,-1.1099988
,0.10868299
,0.13062263
,0.11389495
,-0.33204225
,-0.507046
,-0.0043958975
,0.2836014
,0.1829467
,0.55454624
,0.47362569
,0.48169872
,0.23223981
,-0.065508947
,0.32502371
,0.36840096
,0.44625103
,0.21204816
,0.18506017
,0.13374081
,0.21389998
,0.2995005
,0.27409145
,-0.14850546
,0.21699449
,0.50092483
,0.30754384
,-0.08713074
,-0.307456
,0.0908277
,0.44579062
,-0.17750907
,-0.17108321
,-0.46930847
,0.18185493
,0.38225672
,-0.96407729
,-0.69705755
,-0.81533873
,-0.30125675
,0.22037409
,0.42997921
,-0.047031384
,-0.19392549
,0.34027633
,-0.18670383
,-0.093680538
,-0.055606823
,-0.11610996
,0.41152379
,-0.09041436
,-0.77190757
,0.211932
,-0.12120304
,0.18395299
,0.46295917
,-0.71967244
,0.28910437
,0.28216922
,0.2544392
,-0.9117865
,0.015817981
,0.51853007
,0.44247723
,-0.32093894
,-0.96858943
}
